<?xml version="1.0"?>
<opencv_storage>
<OCRMLP type_id="opencv-ml-ann-mlp">
  <layer_sizes type_id="opencv-matrix">
    <rows>1</rows>
    <cols>3</cols>
    <dt>i</dt>
    <data>
      400 71 29</data></layer_sizes>
  <activation_function>SIGMOID_SYM</activation_function>
  <f_param1>6.5000000000000002e-01</f_param1>
  <f_param2>1.</f_param2>
  <min_val>-9.4999999999999996e-01</min_val>
  <max_val>9.4999999999999996e-01</max_val>
  <min_val1>-9.7999999999999998e-01</min_val1>
  <max_val1>9.7999999999999998e-01</max_val1>
  <training_params>
    <train_method>BACKPROP</train_method>
    <dw_scale>1.0000000000000000e-02</dw_scale>
    <moment_scale>1.0000000000000000e-02</moment_scale>
    <term_criteria><epsilon>1.0000000000000001e-05</epsilon>
      <iterations>1000</iterations></term_criteria></training_params>
  <input_scale>
    8.6684515895451462e+00 -8.5515132215520122e+00
    3.6797022448272161e+00 -3.3842125285121329e+00
    2.9156505823379102e+00 -2.5186054661212629e+00
    2.4570675415417265e+00 -1.9421830024838076e+00
    2.4673842917357782e+00 -1.9561852674795186e+00
    2.4734343582905307e+00 -1.9643636463207907e+00
    2.5277164669973136e+00 -2.0367344424625151e+00
    2.4992314917991636e+00 -1.9989751472552784e+00
    2.2846208402759713e+00 -1.6944635655205158e+00
    2.2070100260875298e+00 -1.5701133218132506e+00
    2.2090890686067768e+00 -1.5736059676567278e+00
    2.2856731147191223e+00 -1.6960773700600105e+00
    2.4886734193497104e+00 -1.9848593947051285e+00
    2.5469569869223072e+00 -2.0619881467362986e+00
    2.6032973761561240e+00 -2.1348889338507564e+00
    2.6437638237694356e+00 -2.1863885856403327e+00
    2.6296102628858113e+00 -2.1684517408010149e+00
    3.0221817149199137e+00 -2.6439613617538358e+00
    3.3919678418053132e+00 -3.0657873593420368e+00
    7.9152589112122902e+00 -7.7868370639608280e+00
    4.1790001179515786e+00 -3.9241691017352256e+00
    2.0210960314068220e+00 -8.6492077909534504e-01
    2.0655032888330309e+00 -7.7472846901357417e-01
    2.1045546516800759e+00 -7.2472951180816036e-01
    2.0677320385372506e+00 -7.7141803242484430e-01
    2.0150190018675174e+00 -8.8472760295286035e-01
    2.0002153919535375e+00 -9.8543106312176376e-01
    2.0002722409095930e+00 -9.8363583444601721e-01
    2.0168936280077552e+00 -8.7819714346851208e-01
    2.0327359467285633e+00 -8.3469833561317819e-01
    2.0328044074416742e+00 -8.3454115861063727e-01
    2.0152470945055549e+00 -8.8390930806314194e-01
    2.0004988870294613e+00 -1.0225866154827472e+00
    2.0038869917439377e+00 -1.0643195242814625e+00
    2.0012071203380164e+00 -1.0353524396170433e+00
    2.0065094639932499e+00 -9.2250786039394339e-01
    2.0233234349495524e+00 -8.5849700024520703e-01
    2.0008781328921899e+00 -1.0300756261576054e+00
    2.0554453561339350e+00 -1.2648173912369149e+00
    4.7676167872606747e+00 -4.5477267048293646e+00
    4.2666306346415235e+00 -4.0177341251008638e+00
    2.0337709226857155e+00 -8.3234267093782355e-01
    2.1137861202714778e+00 -7.1480690057489593e-01
    2.1866296977999826e+00 -6.5134498700303922e-01
    2.1264631855422316e+00 -7.0203715778269649e-01
    2.0481546529518311e+00 -8.0331870127169158e-01
    2.0035521372700549e+00 -9.4214980185727937e-01
    2.0000351031198518e+00 -9.9409273697133826e-01
    2.0069923422356446e+00 -9.1980288914053598e-01
    2.0114908372264320e+00 -8.9839623574965966e-01
    2.0116896633586681e+00 -8.9756821640148399e-01
    2.0060726763249077e+00 -9.2504982859609042e-01
    2.0011199648050906e+00 -1.0340305423826506e+00
    2.0017071030422211e+00 -1.0421794706569287e+00
    2.0004907721943375e+00 -9.7809064825908543e-01
    2.0412724683327563e+00 -8.1643456303382878e-01
    2.0900117804913343e+00 -7.4162937393608275e-01
    2.0408085629067525e+00 -8.1736512855822363e-01
    2.0000628878226654e+00 -1.0079616905269819e+00
    4.7321783201414194e+00 -4.5104720347934393e+00
    4.5057930316312325e+00 -4.2716938585358166e+00
    2.0561784850924414e+00 -7.8941060789439088e-01
    2.1161699138116985e+00 -7.1233392504845527e-01
    2.1594106324642208e+00 -6.7256459129798951e-01
    2.0956713033421606e+00 -7.3485074322826471e-01
    2.0148829989810251e+00 -8.8521885471593664e-01
    2.0230385876362864e+00 -1.1637404545230703e+00
    2.0552629176805257e+00 -1.2643304558769364e+00
    2.0312491750184787e+00 -1.1930881126441597e+00
    2.0270710642717122e+00 -1.1786242201248065e+00
    2.0273189889420093e+00 -1.1795075295248241e+00
    2.0351778647718630e+00 -1.2059694921959605e+00
    2.0920792450224353e+00 -1.3529580023183101e+00
    2.0642063074015464e+00 -1.2875183448681782e+00
    2.0120114266941695e+00 -1.1157667960994739e+00
    2.0108663386825314e+00 -9.0104994266368821e-01
    2.0384571048844169e+00 -8.2218327309393346e-01
    2.0171359955361807e+00 -8.7738337167976066e-01
    2.0008354070530525e+00 -1.0293241306542182e+00
    4.6763550342301317e+00 -4.4517229037917687e+00
    4.2266069482447408e+00 -3.9750369603490321e+00
    2.0401180592714510e+00 -8.1876217436625631e-01
    2.0697953884761575e+00 -7.6841460370644332e-01
    2.0847900501911023e+00 -7.4813767456042024e-01
    2.0245399299504099e+00 -8.5513791225870017e-01
    2.0210418465358080e+00 -1.1559600389219029e+00
    2.3149843971702273e+00 -1.7404057340133110e+00
    2.4787369346315939e+00 -1.9715120309539047e+00
    2.3034828278516324e+00 -1.7231504482889752e+00
    2.3129962809233380e+00 -1.7374352703572353e+00
    2.3321527896686289e+00 -1.7658548194127519e+00
    2.3860354889540547e+00 -1.8436261817394515e+00
    2.8303736535602155e+00 -2.4165627575333644e+00
    2.6576902314462951e+00 -2.2039618745509428e+00
    2.2143519547748731e+00 -1.5824008135479908e+00
    2.0197108854992152e+00 -1.1505963936168166e+00
    2.0002905931864752e+00 -1.0171927098156364e+00
    2.0033162358662366e+00 -1.0592687525530979e+00
    2.0210960314068220e+00 -1.1561752523114770e+00
    4.3111566232538934e+00 -4.0651640932970130e+00
    4.1163342634662996e+00 -3.8570701147054560e+00
    2.0340498402735463e+00 -8.3171521132687343e-01
    2.0539952707284570e+00 -7.9306571568733419e-01
    2.0642063074015464e+00 -7.7668796253336825e-01
    2.0044299998183930e+00 -9.3561990967733033e-01
    2.0886889295568185e+00 -1.3454347520898766e+00
    2.5126264323220964e+00 -2.0167886576454634e+00
    2.6673431619975960e+00 -2.2160999837396851e+00
    2.3309651660645723e+00 -1.7641057126819928e+00
    2.3318555555755478e+00 -1.7654172130717802e+00
    2.4007932537560381e+00 -1.8644388407621408e+00
    2.4924496309746771e+00 -1.9899158069188949e+00
    3.1946339542534683e+00 -2.8428777044368436e+00
    3.1224171477116944e+00 -2.7601131618364789e+00
    2.5331449071411627e+00 -2.0438792013502480e+00
    2.0803153220843318e+00 -1.3263882670658920e+00
    2.0071779455990804e+00 -1.0883877129130370e+00
    2.0135580563176849e+00 -1.1234152641254715e+00
    2.0372730390197615e+00 -1.2125962031536817e+00
    4.1501274986515861e+00 -3.8932742882255149e+00
    4.0753450719645352e+00 -3.8130906174201034e+00
    2.0376409049658761e+00 -8.2389709729547222e-01
    2.0535465253342391e+00 -7.9382834873234054e-01
    2.0547176233716575e+00 -7.9184633229563106e-01
    2.0032324778463915e+00 -9.4473838669011301e-01
    2.0915902542647840e+00 -1.3518791808396302e+00
    2.4787369346315939e+00 -1.9715120309539047e+00
    2.6242538259654173e+00 -2.1616426784476781e+00
    2.3068136365904746e+00 -1.7281652792942404e+00
    2.3239123610005818e+00 -1.7536842983067922e+00
    2.4185759170117747e+00 -1.8892713160870391e+00
    2.4673842917357782e+00 -1.9561852674795186e+00
    3.1461862431149208e+00 -2.7874332588713000e+00
    3.0519636997563375e+00 -2.6786399111251273e+00
    2.5941050684417295e+00 -2.1230944681012023e+00
    2.1669685721374061e+00 -1.5005432724936536e+00
    2.0330102499591751e+00 -1.1989405083616682e+00
    2.0392828119571402e+00 -1.2188111747336585e+00
    2.0689657756036905e+00 -1.2993504870941053e+00
    4.3176426559744758e+00 -4.0720671371222226e+00
    4.0278989241203353e+00 -3.7620891692153018e+00
    2.0363981293879347e+00 -8.2655007475749465e-01
    2.0515968414213575e+00 -7.9718870977843825e-01
    2.0515091762665301e+00 -7.9734163955888115e-01
    2.0046772718817389e+00 -9.3390807917123031e-01
    2.0539952707284570e+00 -1.2609295550411228e+00
    2.2592754134515252e+00 -1.6550721445547270e+00
    2.3192790694287591e+00 -1.7468054826989188e+00
    2.1766122030093409e+00 -1.5177361546824772e+00
    2.1771691285231380e+00 -1.5187198378076361e+00
    2.2164834984204131e+00 -1.5859443498860855e+00
    2.2757980559819782e+00 -1.6808669809153194e+00
    2.6074296499891823e+00 -2.1401790172411435e+00
    2.5951193065827125e+00 -2.1243976385397270e+00
    2.3720784443177165e+00 -1.8237609769227907e+00
    2.1433640919600969e+00 -1.4570421472826909e+00
    2.0625325239690202e+00 -1.2832783710338649e+00
    2.0700036845950995e+00 -1.3018891098082386e+00
    2.1040265270644571e+00 -1.3787117585513065e+00
    4.6024502596555559e+00 -4.3738170091303274e+00
    4.0646410311029149e+00 -3.8015934390800301e+00
    2.0324628705781227e+00 -8.3532723392915453e-01
    2.0485777292663472e+00 -8.0255100541306723e-01
    2.0503770679434261e+00 -7.9933121133844076e-01
    2.0122556937302800e+00 -8.9525294331396377e-01
    2.0167490672133632e+00 -1.1380633921354417e+00
    2.0551718248481006e+00 -1.2640870908827802e+00
    2.0362534027190295e+00 -1.2093908642892348e+00
    2.0094546446410591e+00 -1.1020771667856397e+00
    2.0076527682743279e+00 -1.0913901294310537e+00
    2.0080767977418534e+00 -1.0940000929817755e+00
    2.0206645937456318e+00 -1.1544549880227526e+00
    2.0824774585502688e+00 -1.3313733382801554e+00
    2.0935555962701500e+00 -1.3562026818605373e+00
    2.0744610105956340e+00 -1.3126340657692910e+00
    2.0323947931047872e+00 -1.1969102869610819e+00
    2.0155694116234453e+00 -1.1328047572755595e+00
    2.0426813803706194e+00 -1.2290347089441673e+00
    2.1031062403437319e+00 -1.3767668415047565e+00
    4.6763550342301317e+00 -4.4517229037917687e+00
    4.0753450719645352e+00 -3.8130906174201034e+00
    2.0216418954875146e+00 -8.6331166533214898e-01
    2.0397372165953112e+00 -8.1953893453214210e-01
    2.0580350227034274e+00 -7.8637159923186295e-01
    2.0163192489786104e+00 -8.8015248230412579e-01
    2.0020886367731947e+00 -1.0467578543916731e+00
    2.0104850994307144e+00 -1.1077734414418621e+00
    2.0014882395611782e+00 -1.0393290038082246e+00
    2.0033585196226178e+00 -9.4370219938106725e-01
    2.0062745964562758e+00 -9.2386284397931873e-01
    2.0108663386825314e+00 -9.0104994266368821e-01
    2.0054057671015064e+00 -9.2912929670740663e-01
    2.0031292976008710e+00 -1.0575266513266106e+00
    2.0099262955820238e+00 -1.1047174881377817e+00
    2.0135580563176849e+00 -1.1234152641254715e+00
    2.0020553672028494e+00 -1.0463754876985816e+00
    2.0004747423594234e+00 -9.7844749498684402e-01
    2.0065391302743958e+00 -1.0842005254094083e+00
    2.0462347929078644e+00 -1.2393792907549686e+00
    4.8696517073643850e+00 -4.6548206594777417e+00
    4.0834347711021683e+00 -3.8217763403224017e+00
    2.0155694116234453e+00 -8.8276465434788576e-01
    2.0267014226540150e+00 -8.4940052332177207e-01
    2.0573813706032174e+00 -7.8743454335638596e-01
    2.0149282622514946e+00 -8.8505508119496423e-01
    2.0024905361701357e+00 -1.0511660739954252e+00
    2.0115304624927983e+00 -1.1132998786123662e+00
    2.0061013170977948e+00 -1.0812211364505753e+00
    2.0039557880289878e+00 -9.3905174608121655e-01
    2.0116896633586681e+00 -8.9756821640148399e-01
    2.0172822764431997e+00 -8.7689537657074279e-01
    2.0171846841089156e+00 -8.7722068433904254e-01
    2.0000351031198518e+00 -1.0059423661485136e+00
    2.0067789250775330e+00 -1.0857934280612738e+00
    2.0197108854992152e+00 -1.1505963936168166e+00
    2.0031910034818439e+00 -1.0581069970993788e+00
    2.0025640593867409e+00 -9.5062926089564725e-01
    2.0063329030137540e+00 -1.0828089616939602e+00
    2.0537257722933835e+00 -1.2602025247542665e+00
    4.7191055991061548e+00 -4.4967213502010521e+00
    4.0834347711021683e+00 -3.8217763403224017e+00
    2.0118499844952744e+00 -8.9690623226382171e-01
    2.0210960314068220e+00 -8.6492077909534504e-01
    2.0435551286633351e+00 -8.1194574841340605e-01
    2.0016177500998102e+00 -9.6057947810368260e-01
    2.0539952707284570e+00 -1.2609295550411228e+00
    2.1203078873578733e+00 -1.4121857381208625e+00
    2.1315894576825816e+00 -1.4344658614593473e+00
    2.0397372165953112e+00 -1.2201982820631689e+00
    2.0165573216531003e+00 -1.1372199570748092e+00
    2.0075246371330002e+00 -1.0905885368072812e+00
    2.0037512251153791e+00 -1.0631515706313575e+00
    2.0463173697445960e+00 -1.2396158271190032e+00
    2.0692762114056218e+00 -1.3001112865936515e+00
    2.1052171111737930e+00 -1.3812189195359548e+00
    2.0309828225580202e+00 -1.1921911746671816e+00
    2.0021390443324099e+00 -1.0473316904041292e+00
    2.0301910674256942e+00 -1.1895058045221367e+00
    2.0911028217241685e+00 -1.3508017225010649e+00
    4.5629870674488879e+00 -4.3321550719667865e+00
    4.0593238773277731e+00 -3.7958803807771058e+00
    2.0148378067167974e+00 -8.8538265118782966e-01
    2.0327359467285633e+00 -8.3469833561317819e-01
    2.0609801131893852e+00 -7.8167334344918704e-01
    2.0000101776373880e+00 -9.9681484379921959e-01
    2.1568289480561389e+00 -1.4821195369059550e+00
    2.4156844477262975e+00 -1.8852511385865061e+00
    2.4874207927232344e+00 -1.9831801726324063e+00
    2.2156290581627078e+00 -1.5845251654675605e+00
    2.1707457238578627e+00 -1.5073139116169172e+00
    2.1184417195914698e+00 -1.4084325861544236e+00
    2.1038947514501660e+00 -1.3784336408188673e+00
    2.2893801192772192e+00 -1.7017496010122799e+00
    2.3079303894965477e+00 -1.7298433682280658e+00
    2.2694471515707866e+00 -1.6710048391567600e+00
    2.0756548288793777e+00 -1.3154706066172923e+00
    2.0028298646581346e+00 -1.0546302185880998e+00
    2.0203440743660654e+00 -1.1531669486537508e+00
    2.0453317988214788e+00 -1.2367816200329680e+00
    4.3843094184824078e+00 -4.1429346223140211e+00
    4.0699813744742261e+00 -3.8073301290884132e+00
    2.0332857817010672e+00 -8.3344145112657908e-01
    2.0753281465383435e+00 -7.6063207339628836e-01
    2.0979426352280468e+00 -7.3220511806473354e-01
    2.0019571683047328e+00 -9.5672786741607097e-01
    2.1940494933669554e+00 -1.5480938044074015e+00
    2.7266929192200555e+00 -2.2900144524376622e+00
    2.6783117910923941e+00 -2.2298514173583017e+00
    2.2885825996290579e+00 -1.7005309773198505e+00
    2.2325125336542690e+00 -1.6122684171126400e+00
    2.1527562347343521e+00 -1.4746115307655325e+00
    2.1613217656697339e+00 -1.4903289724994564e+00
    2.4653836720528384e+00 -1.9534755501918990e+00
    2.5386280452112908e+00 -2.0510800285072355e+00
    2.4321848417620413e+00 -1.9081045422519269e+00
    2.0812215787288366e+00 -1.3284837039320065e+00
    2.0024180883632758e+00 -1.0503979672345869e+00
    2.0092763615847717e+00 -1.1010636665616305e+00
    2.0326675627079269e+00 -1.1978120310734435e+00
    4.1731725555041255e+00 -3.9179361335969825e+00
    4.0540297502429672e+00 -3.7901907891935207e+00
    2.0437951078038274e+00 -8.1148222491964928e-01
    2.0956713033421606e+00 -7.3485074322826471e-01
    2.1110208629851406e+00 -7.1772015485685658e-01
    2.0086831455085359e+00 -9.1105708978675370e-01
    2.1711084391916016e+00 -1.5079615629058432e+00
    2.8259999798789606e+00 -2.4112830016996583e+00
    2.7136367158893120e+00 -2.2738549201686671e+00
    2.2386556116045231e+00 -1.6222142113076254e+00
    2.1469428881637151e+00 -1.4637802208973283e+00
    2.1056158180070779e+00 -1.3820562852491995e+00
    2.1263143699495224e+00 -1.4241325303426389e+00
    2.5161389425990355e+00 -2.0214427709477620e+00
    2.6684887287341876e+00 -2.2175382134599935e+00
    2.3904462770681438e+00 -1.8498668209195643e+00
    2.0611729543123340e+00 -1.2798022208345292e+00
    2.0022071939376263e+00 -1.0480973397852327e+00
    2.0049571108433968e+00 -1.0729289214986404e+00
    2.0263954435260412e+00 -1.1761996339781087e+00
    4.1996098969660149e+00 -3.9462016614549857e+00
    4.2266069482447408e+00 -3.9750369603490321e+00
    2.0413500640241509e+00 -8.1627953066028169e-01
    2.0952958722056301e+00 -7.3529205250129215e-01
    2.1123982185028405e+00 -7.1626299998455634e-01
    2.0177249955971792e+00 -8.7543259311298627e-01
    2.0894090363495810e+00 -1.3470413010756164e+00
    2.6301485437949910e+00 -2.1691353590608946e+00
    2.6242538259654173e+00 -2.1616426784476781e+00
    2.1747644213258162e+00 -1.5144654251143228e+00
    2.0693798683140590e+00 -1.3003650362006309e+00
    2.0616565681155952e+00 -1.2810420950545995e+00
    2.1054828130134400e+00 -1.3817770717069335e+00
    2.4578535865398994e+00 -1.9432523935509149e+00
    2.5554133675482888e+00 -2.0730269775936350e+00
    2.2154158282975782e+00 -1.5841707385830373e+00
    2.0247753404725066e+00 -1.1702762222164038e+00
    2.0002905931864752e+00 -1.0171927098156364e+00
    2.0012071203380164e+00 -1.0353524396170433e+00
    2.0195542210529882e+00 -1.1499549010042858e+00
    4.3439098868451627e+00 -4.1000079189027128e+00
    4.5283906580459350e+00 -4.2955939821606091e+00
    2.0300601713505637e+00 -8.4100113743399074e-01
    2.0906169444528420e+00 -7.4089132075769293e-01
    2.1107466526060867e+00 -7.1801171338309322e-01
    2.0259702071926200e+00 -8.5131005880575861e-01
    2.0204506231095398e+00 -1.1535960899788678e+00
    2.1868223847225985e+00 -1.5356193284024153e+00
    2.1484236099276450e+00 -1.4665522208320239e+00
    2.0026574762425899e+00 -1.0528965748762427e+00
    2.0069004664658001e+00 -9.2030956583624468e-01
    2.0074609840351636e+00 -9.1727298450171135e-01
    2.0002603387971569e+00 -1.0162657121917191e+00
    2.1064160082851795e+00 -1.3837334948237434e+00
    2.1329682298084527e+00 -1.4371434832507595e+00
    2.0297992889108016e+00 -1.1881661683880382e+00
    2.0018930434905253e+00 -9.5742710775633821e-01
    2.0199207867549673e+00 -8.6846835759030006e-01
    2.0098529702996739e+00 -9.0554217775875379e-01
    2.0008248923908303e+00 -1.0291363474397461e+00
    4.6430385426473304e+00 -4.4166211130314048e+00
    4.6890490337425392e+00 -4.4650893496954067e+00
    2.0126684221494759e+00 -8.9360203119953485e-01
    2.0694836144381772e+00 -7.6886475366420659e-01
    2.1078926717400885e+00 -7.2107567195702782e-01
    2.0243057042144694e+00 -8.5577703547048667e-01
    2.0098895982094174e+00 -1.1045141179112732e+00
    2.0652026707335556e+00 -1.2900222315684127e+00
    2.0497732555962354e+00 -1.2493695889319136e+00
    2.0177249955971792e+00 -8.7543259311298627e-01
    2.0886889295568185e+00 -7.4325417746694189e-01
    2.0945476761492601e+00 -7.3617499218225746e-01
    2.0328729448695775e+00 -8.3438400061504947e-01
    2.0343299918056954e+00 -1.2032419393698985e+00
    2.0405008799956597e+00 -1.2225150199809929e+00
    2.0058741027393414e+00 -1.0796360018845876e+00
    2.0127936113176239e+00 -8.9310721902234913e-01
    2.0456590262565255e+00 -8.0793369435507478e-01
    2.0210960314068220e+00 -8.6492077909534504e-01
    2.0015023619171788e+00 -1.0395187729654622e+00
    4.9233687016542351e+00 -4.7111042411782114e+00
    4.6975736623269881e+00 -4.4740631845460488e+00
    2.0092409128412956e+00 -1.1008610999078505e+00
    2.0040484636133993e+00 -9.3836450255966020e-01
    2.0337709226857155e+00 -8.3234267093782355e-01
    2.0005836996172630e+00 -9.7613021092436503e-01
    2.0256086249097813e+00 -1.1733427045211613e+00
    2.0560865483149731e+00 -1.2665238258602305e+00
    2.0349648519707286e+00 -1.2052868114215474e+00
    2.0425235577702789e+00 -8.1395615664676502e-01
    2.1613217656697339e+00 -6.7099279317027738e-01
    2.1860524632590592e+00 -6.5177081463133557e-01
    2.0631203983772997e+00 -7.7834794721389511e-01
    2.0314497394804136e+00 -1.1937614137663135e+00
    2.0406545628507358e+00 -1.2229791040692359e+00
    2.0136444051317199e+00 -1.1238305252594587e+00
    2.0003630098165726e+00 -9.8112782388323561e-01
    2.0165573216531003e+00 -8.7933736457829115e-01
    2.0000043950586353e+00 -9.9790575686363769e-01
    2.0326675627079269e+00 -1.1978120310734435e+00
    5.0746070505939382e+00 -4.8692360242094965e+00
    6.8086170720629697e+00 -6.6584315528359861e+00
    2.5820708576363645e+00 -2.1075968034029389e+00
    2.4574604081059008e+00 -1.9427175389210170e+00
    2.3115824084537304e+00 -1.7353197261894926e+00
    2.4363069639093595e+00 -1.9137811881296929e+00
    2.5000854595348567e+00 -2.0001139438827309e+00
    2.5544673923423176e+00 -2.0717938981917730e+00
    2.5290684903216993e+00 -2.0385154188236978e+00
    2.0941749086617798e+00 -1.3575582855165962e+00
    2.0132154837860927e+00 -1.1217561072267235e+00
    2.0139051469206262e+00 -1.1250774446701775e+00
    2.0956713033421606e+00 -1.3608205601138958e+00
    2.5322363890646793e+00 -2.0426845358875592e+00
    2.5474234177389934e+00 -2.0625979600561006e+00
    2.4882555389017615e+00 -1.9842993081625662e+00
    2.4156844477262975e+00 -1.8852511385865061e+00
    2.3547695579293717e+00 -1.7988627896277518e+00
    2.5139409091117995e+00 -2.0185311702092648e+00
    2.7044692235281667e+00 -2.2624754838703409e+00
    7.2811311160378382e+00 -7.1410966009084982e+00</input_scale>
  <output_scale>
    1.0526315789473684e+00 0. 1.0526315789473684e+00 0.
    1.0526315789473684e+00 0. 1.0526315789473684e+00 0.
    1.0526315789473684e+00 0. 1.0526315789473684e+00 0.
    1.0526315789473684e+00 0. 1.0526315789473684e+00 0.
    1.0526315789473684e+00 0. 1.0526315789473684e+00 0.
    1.0526315789473684e+00 0. 1.0526315789473684e+00 0.
    1.0526315789473684e+00 0. 1.0526315789473684e+00 0.
    1.0526315789473684e+00 0. 1.0526315789473684e+00 0.
    1.0526315789473684e+00 0. 1.0526315789473684e+00 0.
    1.0526315789473684e+00 0. 1.0526315789473684e+00 0.
    1.0526315789473684e+00 0. 1.0526315789473684e+00 0.
    1.0526315789473684e+00 0. 1.0526315789473684e+00 0.
    1.0526315789473684e+00 0. 1.0526315789473684e+00 0.
    1.0526315789473684e+00 0. 1.0526315789473684e+00 0.
    1.0526315789473684e+00 0.</output_scale>
  <inv_output_scale>
    9.4999999999999996e-01 0. 9.4999999999999996e-01 0.
    9.4999999999999996e-01 0. 9.4999999999999996e-01 0.
    9.4999999999999996e-01 0. 9.4999999999999996e-01 0.
    9.4999999999999996e-01 0. 9.4999999999999996e-01 0.
    9.4999999999999996e-01 0. 9.4999999999999996e-01 0.
    9.4999999999999996e-01 0. 9.4999999999999996e-01 0.
    9.4999999999999996e-01 0. 9.4999999999999996e-01 0.
    9.4999999999999996e-01 0. 9.4999999999999996e-01 0.
    9.4999999999999996e-01 0. 9.4999999999999996e-01 0.
    9.4999999999999996e-01 0. 9.4999999999999996e-01 0.
    9.4999999999999996e-01 0. 9.4999999999999996e-01 0.
    9.4999999999999996e-01 0. 9.4999999999999996e-01 0.
    9.4999999999999996e-01 0. 9.4999999999999996e-01 0.
    9.4999999999999996e-01 0. 9.4999999999999996e-01 0.
    9.4999999999999996e-01 0.</inv_output_scale>
  <weights>
    <_>
      3.6693663122448261e-01 -2.8629505988601433e-02
      4.6677844437373460e-02 6.9290595248243793e-04
      1.1768593094450538e-02 2.6041127470942636e-02
      3.5335982644044694e-02 -1.6449889104960314e-02
      -3.1835962947747563e-02 4.6322201568302530e-02
      3.0114571590863736e-02 1.4815495961085298e-02
      -4.1353573395272450e-03 -8.5412760711440858e-03
      2.2066489225756977e-02 5.9766661197308141e-03
      5.4945553269394279e-02 8.0009692582750536e-02
      1.9143400108516135e-02 4.1602476005834318e-02
      -2.9253196005227435e-02 3.9631250745482110e-03
      -1.9217020078269670e-02 2.2464310120949394e-02
      3.7249698623857082e-02 -3.9887938041727786e-02
      -3.0713812560385537e-02 1.7999120170012130e-02
      -1.9747823507686002e-02 1.6429067886846518e-02
      2.1037675367287092e-02 -4.7311016877878954e-02
      -3.3320298773513411e-02 2.0272304892238104e-02
      -3.7348087515441615e-02 -1.5049188171070992e-02
      2.0022821390492562e-02 3.5468899024465872e-02
      -9.8236855123705225e-02 -2.6283387438362578e-03
      -1.0977208693653704e-02 9.3897420456011266e-03
      -2.3603632508583307e-02 -1.2147056085278694e-02
      1.3632911673097728e-02 4.0037390408477279e-02
      2.9484721341392232e-02 -1.7238944274732521e-02
      -2.5519066483772547e-03 9.5259026962310998e-03
      -1.3267575415928760e-02 -1.0205087954770828e-02
      3.0404365915860589e-03 -1.7865369116107609e-02
      -6.4436280482268139e-03 -6.5031590223275940e-02
      -3.0152504498206202e-02 -1.7369738338045379e-02
      5.5418070785984751e-03 -4.8133807484307289e-02
      1.9146931628966048e-02 5.0292911935028550e-02
      5.6018034786129371e-02 4.2181389538878105e-03
      2.2505290325823383e-02 -7.1618042362950676e-02
      1.1930568353650297e-02 1.1136139360702783e-02
      -1.2963519124441391e-02 -1.4957092854246561e-02
      -1.0500595941156933e-02 1.8547302073309979e+00
      8.6355604277611880e-02 -2.4841989676704396e-02
      1.1980309374820795e-01 -7.6894558967554524e-02
      -9.5442428777866711e-03 8.4439549183431079e-02
      -5.9022132111022753e-03 7.2363458654259707e-02
      -6.6691808756452226e-02 -1.4422583147769045e-02
      -4.5772291905143231e-02 3.7251476990238785e-02
      -2.8429677253568590e-02 -1.1539683630004356e-02
      -7.3164695231796140e-02 -5.7119211039850258e-02
      7.6258751905040108e-03 -5.3135587405778152e-02
      5.8274285204134142e-02 8.1584783627616161e-03
      -8.7214782996721932e-02 1.2303048099781730e-02
      1.3642166778735816e-02 -2.3380060405722512e-02
      -7.2072949912631065e-02 4.8914601562626669e-02
      -7.1342517087741295e-02 -9.6858661285464300e-03
      -2.8275608549212235e-02 2.5712044046357206e-02
      -1.2973291799960466e-02 -3.6502123757771600e-02
      3.4551808799830719e-02 2.6514819472739329e-02
      -6.7419352827397791e-02 -7.3826956978685354e-02
      9.7202230338445696e-03 -6.4793743848650456e-02
      -4.4458227756962683e-02 5.0687984343910995e-02
      -2.9690942764137206e-02 -4.5679204816987576e-02
      5.7954131708176905e-02 3.3768796681988004e-02
      -4.0502803724937218e-02 8.3472300761098447e-02
      -8.9527840693462576e-02 2.9646023146654970e-02
      6.4842367712706253e-02 5.0926898118406297e-02
      -2.3350552143582410e-02 4.0098835571429389e-02
      4.0838875381655759e-02 6.1858873010470425e-02
      4.1801685517470835e-02 2.7903594998182180e-02
      -3.8243806106295727e-02 -2.2638272946626726e-02
      -2.9041992589931662e-02 8.1891563002179743e-02
      3.7358661923415089e-02 8.8349205228888061e-02
      7.0804453992327600e-03 1.6552217725646412e-02
      -8.5128390686978715e-03 -1.1145768086389169e-02
      -1.3137605133222685e-01 -4.2729692596609956e-02
      -4.5740184548135658e-02 1.3534496681631208e-01
      1.3215017463678949e+00 1.5675540856320284e-02
      1.4797972454239949e-01 -3.4069141526993571e-03
      4.7938215807584901e-02 1.4213737493805858e-02
      8.2835755766296232e-02 1.9644796405605468e-02
      1.3450023898235380e-01 -1.4909836091428937e-02
      -1.0023295339265723e-01 1.0366899436384235e-02
      -6.7183817661305822e-02 -1.3615235237260262e-01
      -6.5837393671651728e-02 -4.8396576751977595e-02
      -7.3937324996671827e-02 -1.7051472010777502e-01
      -1.8133513816779540e-01 -3.6284481252709333e-02
      4.0045901071107219e-02 1.5515154633286012e-02
      1.1235945304281465e-02 -1.2793511871313523e-01
      -1.6841750661038152e-01 1.5731812042111770e-01
      -6.2004442392608093e-03 1.6195162720262804e-01
      -3.6475913325667998e-02 -2.9414677535657664e-02
      -6.5442417128204103e-02 1.6217911663669267e-02
      -2.1241337978299774e-02 -7.7885484075936401e-02
      2.4341995222273191e-02 1.7173331613479909e-01
      -1.2424471711799641e-01 -5.8247813995701461e-02
      1.6402379374467993e-01 -3.6470462109169141e-02
      -3.4399939667190883e-02 -1.2365829162051499e-01
      -3.9530135931948865e-03 -4.2915175391645917e-02
      1.6370493351582024e-02 3.9543660707138738e-02
      8.2312887110353450e-03 -4.5364807347014625e-02
      4.3854578154042596e-02 -1.0788159563063814e-01
      2.6280477008390452e-01 -7.9780626381367889e-02
      1.0276917780453326e-01 -1.6859326461946027e-02
      -2.7488568647314318e-02 7.5610633797364948e-02
      9.7165077565480262e-02 -9.9730978603902079e-02
      -1.0819975089352060e-02 7.7486003099083281e-02
      6.8036239717329146e-03 -4.4700122986928046e-03
      1.0712826169668241e-01 2.8541818086018919e-03
      -1.1442842734233602e-01 -1.3662075765934202e-02
      6.1930711416110298e-03 6.5735449061929421e-02
      -1.0839554743487448e-02 -2.4500613302608932e-02
      1.7922061830310618e-02 9.7465320296408375e-01
      -4.6644995652280882e-03 -6.2972129493724993e-02
      2.3127995577227202e-02 -5.4072176858546234e-02
      2.2000193883943680e-02 1.1214640867467979e-01
      -1.3362274360943800e-02 5.8073409742647381e-02
      -3.6981378325080590e-02 -3.0627588196217744e-02
      9.3619749130581326e-02 1.0956621075513713e-02
      -6.5828877474687339e-02 -2.0249809406893363e-02
      -1.2389808130447211e-02 1.9979752538634262e-02
      -1.4832134273446623e-01 -8.2122053150469623e-02
      5.4065840032268817e-02 1.4016615157578299e-02
      -7.6186445140351807e-03 -2.7107241870231169e-02
      3.7659176249211106e-02 -4.3627231619733219e-02
      -5.6402559162120745e-02 2.8778842312052199e-02
      6.4671527901547232e-02 1.2599125948294064e-02
      -7.3640002959039969e-02 -2.8422479123170846e-02
      2.4172478797713226e-02 -5.5920358557196626e-02
      1.2839858194278847e-02 5.5968533699850789e-02
      -3.3964485151754376e-02 -2.8821432283044530e-02
      -2.7541052124147491e-02 5.5544336008792737e-02
      2.2254581984487681e-02 -2.3390136278111769e-02
      4.4299690637888828e-02 -7.4866796036779744e-03
      -1.7686654785664464e-02 1.4996682888449924e-02
      -3.7671064052647842e-02 5.2499100224118883e-02
      2.7298385260399238e-02 5.4218683431164594e-02
      -6.4034583947583906e-02 1.3328198687893900e-01
      4.6008608829255775e-02 3.7828134984921762e-02
      -8.5270356743372827e-02 -1.4119274433557028e-02
      2.3453770873018174e-02 -2.7483640028961639e-03
      -4.7574119107184322e-02 4.6521145034390504e-02
      3.9395982655929675e-02 -2.9444038642168963e-02
      -3.3786701500475101e-02 6.6257717777093092e-02
      6.6302542220878415e-03 -1.8507535267495552e-02
      3.4455976685757395e-02 -7.4618060684840930e-03
      4.7947913771664311e-02 2.4990854487698871e-02
      5.7429344168850545e-02 -5.0545228879808467e-02
      1.1050787261508255e+00 7.8788492965120915e-02
      -2.3111601484360660e-03 -5.3176841775643227e-04
      1.2303632386254990e-02 4.0575518923483683e-02
      1.2165882119767549e-01 8.8502850326851248e-02
      3.4900636465157439e-02 1.4419159379526574e-02
      -3.8907574129028150e-02 1.6010018556961134e-02
      1.4477216960396264e-02 -8.3728103975085136e-02
      4.1722403068802039e-02 -2.6704471510716879e-02
      -9.1420731445414585e-02 -9.2062580377121089e-02
      -1.9192016242110411e-02 -1.2869199168461647e-02
      2.5332517723324347e-02 4.7514895294039697e-02
      -5.7774560410584055e-02 -3.8976095872978449e-02
      -1.2122246025027018e-01 9.4730054245155168e-02
      -2.6956979794665648e-02 1.3271041023085256e-01
      -2.0535385976914185e-02 -1.8710115853560076e-02
      3.0006113391702723e-02 3.0903101943793081e-02
      1.9192434584431844e-02 -4.4634105803142102e-02
      1.4295115462339771e-02 6.9981225506246646e-03
      -4.1276645205685653e-03 -3.1660483774963576e-02
      1.6675994948516290e-01 3.2432837408867314e-02
      -3.6995268628868587e-02 -4.0513974324213114e-03
      -1.3635122007013185e-02 2.4428463966848821e-02
      4.2545953511644273e-02 1.6222031118661013e-02
      3.6250371415757779e-02 -2.3832307718368632e-02
      -1.5603264340145293e-02 -2.4358146139951423e-02
      2.1236834813500469e-01 -2.8623544396546487e-02
      -6.2571789932438338e-02 -3.6650690139050285e-02
      -4.0528083787450590e-02 5.2648225162625843e-02
      3.3082982456656630e-03 -6.8854121491515957e-02
      -1.9939431471804103e-02 6.3922873274404685e-02
      -3.8861831901353373e-02 1.9994874309999772e-02
      -3.7354581577556618e-02 6.9793000019326659e-02
      -6.1334921913576070e-02 1.6789884358839088e-02
      -2.4917009951362989e-02 7.7736136371780909e-02
      -9.2882826206811576e-03 5.2580007847937801e-02
      8.1144874123514569e-03 9.1591075199061911e-01
      3.2110766131648344e-02 -1.0193487016490517e-02
      3.5691849574289398e-02 2.0905189525927074e-02
      -2.4962611579722837e-03 9.4667162019627715e-02
      -4.0336286926592413e-02 2.8010211564999363e-02
      -1.3616900277577462e-02 3.2035223967449768e-02
      4.8640565612956977e-03 1.8553595361566672e-02
      -1.0319546504781941e-02 5.2909669314902151e-03
      8.4535708512417703e-03 -6.0808273112127435e-02
      1.2347593044594442e-01 6.8187238024023308e-03
      1.9413190140920741e-02 1.1322148147085999e-02
      -7.4251293825645298e-02 6.7246876097707582e-03
      4.3550804037183262e-02 5.2937564215090993e-02
      -7.7507041689101885e-02 3.0086017212201926e-02
      -5.3448177627237921e-02 1.1213702033676037e-02
      -3.9634212693152298e-03 3.6202745477051518e-02
      1.4594721180575717e-02 -4.5371625697649244e-03
      1.4182815031930539e-02 -2.6905019855264885e-02
      -5.7404197633037474e-02 6.8244310359468222e-02
      5.9305062564744462e-03 -7.1018712639114051e-02
      -3.0358652435209611e-02 1.1944142543468114e-02
      9.0665007182533439e-02 -1.9296304151639628e-02
      4.1344797459647545e-02 3.0207564350058797e-02
      -4.2660806008824027e-02 -7.7545816444391262e-03
      6.4071052146678992e-02 9.7368583189704379e-03
      6.3114649769239306e-02 -1.2377706441092358e-02
      -2.2678285998084496e-02 -1.1030844150634206e-01
      4.0900277445775318e-02 1.7339127586255415e-02
      8.6225244623993908e-03 -3.4125950683445587e-02
      1.0947109405010803e-01 -6.1777462448879843e-04
      6.9997817474563212e-02 -2.5553717385235462e-02
      1.1320695453637697e-02 -6.3673308882779722e-02
      6.8641006423710099e-02 1.7749160087753114e-02
      2.6030422593067728e-02 -2.5640319020063057e-02
      -7.7893701342391833e-02 -4.3709122231804995e-02
      5.5459123350767733e-02 5.9319910742037220e-02
      2.9151747160276947e-01 4.0641201125081829e-02
      7.6244659518923341e-02 2.4499655314983347e-02
      3.5800805247559089e-02 1.4821164007171695e-02
      3.5910825958441736e-02 4.3546118952058947e-02
      -1.9807409742286643e-02 -8.8625273235153797e-03
      6.0880404771497185e-03 9.1748809741134772e-03
      -4.9981451469511733e-03 5.3055043246864483e-02
      -8.5689956499715253e-02 4.4222612611179775e-02
      -6.3288416420574103e-02 1.2517450578679429e-01
      3.1984622634903044e-02 3.0276634236334095e-02
      2.3203746556904815e-02 1.1337872138092396e-02
      -3.2474984710732083e-02 9.8974908046131106e-03
      5.5460177005397845e-03 1.4970985289853663e-02
      -4.2587758397832368e-02 -1.8767259960735395e-02
      -1.2774219038254930e-02 -9.6851070251470391e-03
      4.0866594441913158e-02 2.9103532541537164e-02
      -1.7636561736186680e-02 -3.1239956991668528e-02
      1.6033225648160041e-02 -3.7326172388505427e-02
      4.4120733428188947e-03 -2.9117976661304359e-02
      4.6574549350496028e-02 -4.8343549200503995e-02
      6.0532530602333469e-04 1.5738803451559168e-02
      -2.4993546928708844e-02 3.9439728239129980e-02
      3.1117772877346354e-02 -9.2400292725549754e-03
      9.0956153109367603e-03 -1.0864701621161810e-02
      -4.4524619056424851e-03 8.7699118931917341e-02
      4.5692387046909276e-02 -2.6741278201052092e-02
      -5.6432066916727655e-02 1.8704721690087564e-02
      3.1189637886555516e-02 4.9092358552964401e-03
      -2.8311778646095017e-02 5.1621810286681932e-02
      1.7685665094182762e-02 5.5233154865084039e-02
      -4.7194467542640240e-03 1.6023386069138015e-02
      3.3806144299837926e-03 -1.6442388261702818e-02
      3.4507015958931304e-02 2.0557114122128777e-02
      -7.2968964254996396e-03 -2.2776336885775125e-02
      4.8173749529657375e-02 1.3470273521994816e-03
      -2.0952773000884094e-03 3.2175064396687186e-01
      2.9252206365694290e-02 2.9921402644278672e-02
      1.9380613702631184e-02 -1.8488389826586940e-04
      -2.7484075757810696e-02 3.1244647626982463e-02
      5.0491769818081934e-02 -2.1884634364121622e-02
      -2.3810538032921331e-02 2.0247526468157619e-02
      -8.4054584460796795e-03 -1.0871996378789920e-02
      3.9883309016858902e-02 -8.5249966394858823e-02
      9.5105991713753557e-02 -8.0961940680478128e-02
      1.0288506535259689e-01 6.1526983021596468e-02
      2.6503213374631730e-02 -1.8976328767694485e-02
      6.9554107387715530e-02 -7.5049610532180108e-02
      1.2148057548482709e-02 1.9064542432194399e-02
      -3.0234397535962274e-02 2.0068627435554435e-02
      -3.7410720863968273e-02 6.6234152066463828e-03
      2.4772145833653603e-02 1.5866899811290747e-02
      -3.5892266411699007e-02 -4.2409186379339360e-02
      1.5680354192671556e-02 1.3049689541237692e-02
      -3.9401085852446373e-02 -8.9454292029310517e-03
      9.1504327057016375e-04 2.0149297848370978e-02
      -1.6984072101599499e-02 -5.3348191372281414e-03
      3.2403345839903004e-04 -3.4445721573602497e-02
      7.7258046162059349e-02 -1.2830999574517447e-02
      -1.7206405480878571e-02 -2.7877971351781432e-02
      4.9491413450202797e-02 3.7001754702669344e-02
      9.0903734548925946e-02 -1.0067627161603288e-03
      -8.6672800735454521e-03 -6.9666063022302091e-02
      -1.4295154872248394e-03 -1.4001344254621790e-02
      -1.3009651427106464e-02 7.2621452925037099e-03
      1.9840023590293309e-02 -1.0797517116990053e-02
      7.5947005811572675e-03 -2.3449087037595823e-02
      -6.2652370117499329e-02 4.6029656564453972e-02
      -1.2522576518791042e-02 4.7881242695874279e-02
      -1.9925851646705893e-04 -1.2480992834903878e-02
      3.0512640217464235e-02 2.0327141340791455e-03
      5.3840389618986573e-02 -3.8070147570289250e-04
      1.2567540931554794e-01 -1.2814559461837504e-02
      2.1896574944704116e-02 1.4241460123611249e-02
      1.9238826846268112e-02 -3.9642225516509165e-02
      1.0925622632949277e-02 1.9361684033330672e-02
      -6.9902975222949484e-02 1.5487494087052888e-02
      5.7596914127783630e-02 -4.3925785355884029e-03
      3.7046408300118815e-02 -9.2658571447047002e-03
      3.4086676633979150e-02 2.4836498346782195e-02
      -1.9467801450414143e-02 7.8274718182624284e-02
      3.8735931188213162e-02 4.6355862439054374e-02
      -3.3970316327532578e-02 -1.0571199490389796e-02
      -3.9238531524489625e-02 -2.5723508986588151e-02
      5.6824791671423525e-04 -7.8474589223601447e-03
      -5.4959386907528236e-04 -5.3891203003592895e-02
      -1.3578872642014439e-02 -7.6180703935479982e-03
      4.2229368031995340e-02 8.0725116633161235e-03
      -2.5504007247215840e-02 3.6619231944500989e-03
      4.9835235605681883e-03 -1.1713234703573184e-03
      2.2797047830086920e-02 4.2049914790528629e-02
      1.2877238396853697e-02 -7.2577155031048404e-03
      1.1693643598963906e-02 1.0211087223296101e-02
      9.5597858026986171e-03 1.2508643691857414e-03
      -8.3083422770673862e-03 -4.0592145826685709e-02
      2.6063193672677940e-02 -1.3911038077421773e-02
      4.8479315009648978e-02 -1.0780917848065398e-02
      -1.0640288084687949e-02 2.2311415740290486e-02
      -1.8766249113465538e-02 2.6477559364031081e-02
      2.2849641664159138e-02 -3.8177072375493795e-02
      4.4796568220208464e-02 2.4061162592907304e-02
      -9.0511828758916470e-03 1.3021212483082556e-02
      -1.9532707381444095e-02 2.2681790341642583e-02
      6.6162957465803807e-02 -4.0287346239979593e-02
      9.0490294480296835e-04 8.3818644170135254e-03
      1.4180681951454723e-02 -2.3867634543246762e-02
      -3.2208028689592487e-02 2.3443203021574283e-02
      6.6082796964664015e-02 2.3214041460397666e-01
      -1.4752990326157771e-02 -9.9814018829465848e-03
      2.5762654509430976e-02 -4.5588647623396865e-02
      5.4262897730745836e-02 2.9944065382040443e-02
      3.2506579810112943e-02 3.0273066563301036e-02
      3.4088805097849825e-02 1.0680647201529718e-01
      -4.9299940639109668e-03 3.3594969388179234e-02
      7.9212023414325736e-03 2.6402437123640484e-02
      4.0895364209716810e-02 1.3988315785350114e-01
      5.5804336527969525e-02 3.4598986263664380e-02
      5.8836960988977380e-02 -2.0754106633628623e-02
      -3.6682119728488609e-02 -1.2797220238405864e-02
      -1.0846245184648427e-01 -8.2279854922055320e-02
      -1.7994204117693244e-02 2.3315217046672387e-02
      -7.2979732228995176e-02 1.5814272022892390e-02
      1.6319388098430356e-03 5.4915588906714920e-02
      4.7326902693845832e-02 -8.3605248914462721e-02
      -2.8122684688612815e-02 8.3987788629806496e-03
      3.2670563147934276e-02 -7.2565170326332973e-02
      1.5199030130723786e-02 -1.5316447120976795e-02
      5.7459999711708090e-05 -3.3098409497097241e-02
      -7.9517437505382066e-02 7.9033072060684703e-02
      -1.7465647025332005e-02 2.5004485376574986e-02
      -5.7401551968029485e-02 3.9089678893240727e-02
      -2.4252008524442249e-02 2.7020794158531085e-02
      3.9591068292138074e-03 -8.7560317571054504e-03
      4.3051687182730315e-02 -6.6543224143915877e-02
      -4.8681076306741310e-02 4.7860097115822973e-02
      -6.7546524650346886e-03 -3.5547746562959628e-02
      4.5874739472849278e-02 -6.3084173288933641e-03
      1.7576398194291852e-03 4.9880029762173227e-02
      5.8128886363659496e-02 -6.8256419481443120e-02
      7.8196060259873284e-03 1.8792848728239449e-02
      1.0931962996156468e-02 -1.5392173303411711e-02
      -5.6457297022255312e-02 -2.7128217389879694e-02
      2.6284135908216592e-02 1.0449228131366346e-01
      2.4174452601026292e-01 -1.4269245797953765e-02
      2.7666033398283493e-03 2.0015816316519112e-02
      -3.7431013946260770e-02 4.6314297032813569e-02
      2.5147882257932443e-02 3.3619023313449459e-02
      3.7327078339438290e-02 2.9601611467561625e-02
      1.0647904446810033e-01 7.9461720125681759e-04
      1.7418404228319372e-02 1.2289136083373882e-02
      2.8819229842387589e-02 4.1029715006432710e-02
      1.5293651398802985e-01 5.8441096009292988e-02
      3.2679703948293087e-02 6.0556924700245866e-02
      -2.0105123512728217e-02 -3.2080503344970465e-02
      -1.9932228432258479e-02 -9.4953197099334558e-02
      -9.3020586810386233e-02 -1.5984299957443153e-02
      3.5170044309032880e-02 -8.1512481510839035e-02
      2.2198035740275540e-02 -2.7169360936570340e-03
      4.8087012397043286e-02 5.3467725790503719e-02
      -6.8439491968741550e-02 -2.4696400474914105e-02
      1.1276425216937854e-02 2.7296082029428615e-02
      -8.6927001082557701e-02 7.0635352155508553e-04
      -1.8820225860496628e-02 -5.3297528980206970e-04
      -2.8430986977631845e-02 -8.9062489123578475e-02
      7.2912199390154572e-02 -2.9936670573624098e-02
      2.0611277146722756e-02 -4.8820785482062132e-02
      5.2077133128691694e-02 -2.7269102402060222e-02
      2.4716415201385188e-02 -1.3937000772991457e-02
      -3.4514694287024167e-02 2.7695755577760779e-02
      -7.1894128975686686e-02 -3.5232017352927567e-02
      4.7357443288939767e-02 -8.2464298824951460e-03
      -3.2686024783462372e-02 4.0424209395384957e-02
      -1.6196766824511898e-02 -1.7167708379061647e-02
      6.1925820037565811e-02 5.9345266844860196e-02
      -6.2854598061063957e-02 1.9881319572436624e-02
      3.0012296729825916e-02 1.1413558138398321e-02
      -1.6604495904625937e-02 -4.4752069072833037e-02
      -4.1172502267576259e-02 2.8217922631561507e-02
      9.4238438416587592e-02 1.1906351469910238e-01
      3.3883691568953753e-02 5.0237995117307283e-02
      6.5998518683826500e-03 1.2330063911751964e-02
      -1.4748681597475858e-02 1.2939935302423202e-02
      2.0932856091259708e-02 -7.1859351592324774e-02
      1.8395932104542410e-02 3.8490785194946676e-02
      1.2998681807073895e-02 -4.1147761742195300e-03
      -3.6063022449410766e-02 2.5184089004627021e-02
      -8.5606324482657222e-05 -1.7587899779692060e-03
      7.8803628042343560e-02 1.5449872164715769e-02
      4.3407921119104756e-02 -2.4120625528426150e-02
      -2.0492282881934335e-02 -2.9570268697727928e-02
      -2.7488843531305311e-02 -3.1065137266650569e-02
      2.0069027218055528e-02 -1.5726856813721508e-02
      -2.8648779770814078e-02 8.8458657725601075e-03
      -1.7714694175598570e-02 4.6722177131112659e-02
      9.3962328867647424e-03 -3.7673252916915874e-02
      4.7045934347499617e-04 1.8873326486136956e-02
      -1.2799645060171123e-02 1.2575423672498630e-02
      4.0108900308745928e-02 1.5111745451759504e-02
      -1.4286617267262056e-02 8.3648947727812048e-03
      -2.3402469342609349e-02 4.5927027027317435e-02
      -2.0360842028536462e-02 -8.2737215099179581e-03
      -3.5221764440006693e-02 2.3179488036311285e-02
      -1.2922052155951352e-02 3.7978960833078210e-02
      -2.6032361637120773e-02 -1.7907718678547551e-02
      -9.7836212250622060e-03 -1.5818951529828285e-03
      3.9492005770561084e-02 2.7840322259641035e-02
      -6.8669907546834108e-02 6.0862686539042928e-02
      2.1779058989918321e-02 -7.3808531132748441e-03
      1.0370692523698507e-02 -7.0854049499976439e-03
      3.7937459147400647e-02 6.7712485765212355e-02
      -5.5091324075313676e-02 4.9577820189776137e-03
      3.9462101625354828e-03 1.1034878520770957e-02
      1.4441317286850264e-03 -1.8778275464515513e-02
      2.3541002294049249e-02 2.5657105050164476e-02
      3.6905631553911833e-01 3.6788200354685427e-02
      5.7585404253190080e-02 1.1945426976981333e-02
      -1.1799041376519126e-02 5.2677332697923917e-03
      2.3230660174073815e-03 3.7895110747743162e-02
      -3.2612086214233366e-02 -2.3886355478158584e-02
      1.9733696139575280e-02 1.7163448816609063e-02
      -5.3775923498107156e-02 -5.1001725566680485e-03
      -5.2648729186418095e-02 4.9696732380842094e-02
      -5.9387999153806423e-02 1.0378648215167202e-01
      3.0859346790501126e-02 5.2301323618811207e-02
      -1.5566649057929581e-02 4.6938449733849655e-04
      -5.1730477227562500e-02 -1.2525732608007243e-02
      2.2339739875413676e-02 6.2350837602604629e-04
      1.4719979584720321e-03 -3.4138505306840608e-02
      -9.6653448434163621e-03 -9.6968446150195921e-03
      3.7291996317730995e-02 -1.1731266886149309e-02
      -4.3526231876638621e-02 -1.7489113427542932e-02
      1.4270137235440638e-02 -9.0332165264608577e-02
      -4.4361258323138912e-02 -7.7145673989765275e-03
      6.5225248478196315e-02 -1.2178526210645553e-02
      5.6173465850765112e-03 -2.3467904876356763e-03
      2.1278240210109305e-02 5.6046861760952832e-02
      -1.6850606634863031e-02 5.4185725036764911e-04
      -2.8538439786540842e-02 2.5024517772832700e-02
      2.3534731255296905e-02 6.0946669116069559e-02
      2.0645647838395096e-02 -5.9858946728355835e-03
      -3.8226174475407777e-02 1.2621394683603154e-02
      4.4629170478308805e-02 -2.2691720226386200e-02
      1.7431521228028369e-02 5.5250213724285846e-02
      -6.7861075582252442e-03 -7.6188725459725749e-03
      -2.0765772888955956e-02 3.4885228758349328e-03
      1.6642197901917951e-02 6.5425919635221678e-03
      3.1504679065185587e-02 1.3846789418515021e-02
      -6.1993436704363275e-03 1.3580368292028066e-02
      1.6806299563290199e-02 2.6710563666571735e-02
      -1.3125595300481329e-02 5.0628595002831289e-01
      5.6045794982589213e-03 6.6425969895522685e-02
      3.0499884758555421e-02 -5.4750934691044396e-02
      -5.6056528656665619e-03 2.3776765996051948e-02
      1.0762531312735678e-02 -3.2550805195463058e-02
      -2.7825239090374959e-02 2.3184428733374621e-02
      2.9195395953418420e-02 -3.3476452718953836e-03
      4.5222552120992812e-02 -7.6369436978306102e-02
      5.4117053457063045e-02 -5.8842364432300689e-02
      1.2515278268507610e-01 5.0807688811775095e-02
      5.7125125272610038e-02 -1.7408395904687662e-02
      1.0939951858413940e-02 -4.3254169488474686e-02
      2.0403202054855990e-02 5.5783240563658902e-02
      1.1334571485279379e-02 6.3826645175178748e-02
      -4.3449757271647953e-02 3.3615614897627565e-02
      3.4030966612060569e-03 4.8699579304333350e-02
      1.0042038613475667e-02 -7.0645509664189667e-04
      -1.9979871663981963e-02 7.1679593790721072e-02
      -2.2422751014561742e-02 1.4080283404077652e-02
      2.8621801341981151e-03 4.6401935017406637e-03
      -6.0740054921516410e-03 4.3139725114029498e-02
      3.4026115991956915e-02 -1.6838144736747468e-02
      5.6050428424071326e-02 -4.6191103306170243e-03
      3.2639815820969535e-03 -2.7332737863639205e-02
      9.8913250178050104e-03 4.9226094078761084e-03
      1.1416864925109664e-01 -1.5006846262305161e-02
      -1.7173062072971087e-02 -2.3717635298419755e-02
      -1.7499354196711687e-02 3.0962273170995865e-02
      -3.0638573922495901e-02 -3.7002066022550156e-02
      7.9647932011360500e-02 4.7761538874383667e-03
      1.8681153893264264e-03 -1.1968293130841265e-02
      1.9239112693832876e-02 -2.0758905019927859e-02
      -4.9677314108613401e-03 4.4684910549625985e-02
      1.8046198794241401e-02 2.1321603958689450e-03
      -1.7643622189189936e-02 2.2846625788794255e-03
      3.1625177502953496e-02 5.1980864614635393e-02
      4.0866340698647280e-01 3.4099615622892016e-02
      -9.8567509823316614e-03 1.0919231246056653e-01
      -2.2561181458893551e-02 -2.8118768937569871e-02
      1.0538047514722874e-02 -2.4468420889502657e-02
      -4.5446581714267360e-02 -6.8096634662371466e-02
      1.0008601056875836e-02 2.2832853913854281e-02
      3.4582936909316270e-02 1.1018470305875733e-01
      -3.6661047189200741e-02 7.0118770391181570e-02
      -8.2227260893583832e-03 1.6728656038716380e-01
      8.2535779438119211e-02 7.2562752656379195e-02
      -6.6939777369078302e-02 4.1587544946842300e-03
      -5.3418954404633678e-02 3.9331640223083358e-02
      7.5727731152918101e-02 -6.4159586410143910e-02
      6.7813835048858240e-02 -1.2230775637884017e-01
      5.0493481357544175e-02 -3.3067748789021280e-02
      5.2445225140934998e-02 -3.0946005639908427e-02
      3.4061615998733252e-02 9.8265234643206037e-02
      6.4630829212492927e-02 -5.3412680688491497e-02
      7.2929243751522557e-02 1.3551368038160443e-02
      -7.0694285377807892e-02 -3.9691990699663466e-03
      4.6833672055749363e-02 4.6206861044600568e-02
      -8.1142728031502340e-02 5.6900544741393513e-02
      -5.1056325524857997e-02 2.4080131081735949e-02
      2.0329370825428295e-02 5.1307198932561346e-02
      -2.0534448206535393e-02 1.7968215305429394e-01
      -1.5170296524786461e-01 5.4322143558937106e-03
      -5.9861676132144548e-02 -4.1890133803540609e-03
      6.9906278004088190e-02 5.1261558638809176e-03
      -2.8840441142311501e-02 1.0856897901676865e-01
      1.8527526357412123e-02 -2.5642432607390082e-02
      5.1024122061368582e-03 -3.8067411696618872e-03
      1.1598376662186709e-03 -5.4749275125062183e-02
      1.1253746189353135e-01 2.6600726633843056e-02
      -9.6363802644479045e-03 -2.0839632498787668e-02
      1.3567297329074104e-02 -2.1206234779785043e-02
      1.3791623096995645e-01 9.6013746654369725e-01
      5.7289595622072212e-02 6.9790805557505220e-02
      5.4774977685059324e-02 3.7006874862484739e-02
      1.5263616140682655e-02 -1.2978909872119157e-01
      -3.5022623993171492e-02 -1.0086946359379456e-01
      -3.5955223515645343e-03 -1.5421454722871092e-02
      -4.7627178343265297e-02 1.8179753309251735e-02
      4.5710532413906949e-02 -6.2270506500849011e-02
      8.5877578676714986e-02 6.0701533752673127e-02
      3.1246957770498813e-02 4.4867028522299693e-02
      2.8146598507031790e-02 -1.2794410304623678e-02
      9.4538755192283882e-03 -1.0591105034142691e-01
      -3.8102237448290284e-02 2.6606248493000088e-02
      -4.1690160254720922e-02 -3.9783680415316429e-02
      -8.7767586870486747e-02 -8.3091375294444773e-03
      -1.8828440915707545e-03 7.0358256506223543e-02
      -2.2582344798722034e-02 3.0164988163914143e-02
      -1.4673856562783163e-02 9.3540794945725873e-03
      -7.8576778688767307e-02 3.4447012278822258e-03
      -2.9577907290782735e-03 9.6685428141679731e-03
      1.9237178036692067e-02 3.8717128891574042e-03
      4.8345519309513684e-03 -2.1116984022876015e-02
      -2.2989765286803080e-02 5.7489499201315982e-03
      -1.3282200236262254e-01 -3.6891325857187782e-02
      1.4167975428025567e-02 -1.7843803665805041e-02
      3.4156246163947634e-02 -8.2717367189911337e-02
      5.4005512736181163e-02 -4.8443133868183129e-02
      3.0994536994946052e-02 3.0244738008265177e-02
      -2.6848002137883933e-02 8.6894215000712267e-03
      8.5260077009447991e-03 3.6349816299759466e-03
      4.8286659480845907e-02 -4.0861602470378476e-02
      -6.9476656059890299e-02 -5.0958614165785322e-02
      2.4479361217805230e-02 2.6865882359253575e-02
      1.1328131805373629e-02 -7.5768410098327424e-02
      -5.4247485025556264e-02 4.2667051960770613e-02
      3.3362949875804987e-02 1.5788587407086125e-03
      1.9602093482506349e+00 -5.0710317292135550e-02
      1.8111206004170887e-02 5.0998945395185041e-02
      -3.1553689513957378e-03 -1.5457111286765515e-02
      -1.4208430682942905e-01 -8.2581638926999310e-02
      -9.6480796867460999e-02 6.9334130956356932e-02
      1.9920702001564348e-02 -5.1889679952829469e-02
      -3.4900274467526332e-02 -1.5562982818513669e-03
      -3.7601036327195213e-02 6.9028287800841553e-02
      4.1520079950989060e-02 1.3785391459145380e-01
      9.6861965804898628e-02 8.8391802059312158e-02
      -9.1410051230323863e-02 -9.2766717577573959e-02
      -4.6673847134023977e-02 -2.5998181174170829e-02
      1.0551944373450307e-01 -1.6143826780514384e-01
      -5.8366285570008560e-03 -1.6260739017974252e-01
      1.8674464911685010e-02 -6.9678357579647188e-02
      2.0068879915857235e-02 5.0169592297807437e-02
      2.6420908817728246e-02 8.5222506032067616e-02
      1.4561427758288878e-02 -1.0721057061787340e-01
      9.2749919998939889e-02 5.9808432220419400e-02
      -1.0003279487476482e-01 4.6091822886363744e-02
      -1.4919151601293692e-02 -3.4008610938467347e-02
      -5.0612933897947621e-03 -1.1028028050127510e-02
      -2.7339342780923721e-02 -1.3319566137478162e-01
      -3.9411819379739903e-03 -2.2209290492335929e-02
      -3.5642499519499462e-03 4.1885641340827194e-02
      -2.0369437667214443e-01 4.7518365040732383e-02
      -9.0881701385046629e-02 2.2349418515311373e-02
      7.7511261786972555e-02 1.3140156526537551e-02
      -5.5907465231548520e-02 4.6730116938742003e-02
      -3.1168861915384583e-02 -3.7530074428283065e-02
      -9.2771213725797823e-03 -4.2955433491202476e-02
      3.2660826915968328e-03 -4.5600561309639817e-03
      1.2254433598705201e-01 6.5531038887106291e-02
      1.1419030954203114e-02 -6.7168291609868064e-02
      2.4549967470846798e-02 -1.8666314861218287e-02
      5.9100578856056546e-02 2.2961836408177811e+00
      -1.4559942365456120e-02 1.0478106777882665e-01
      -2.9283579108507064e-03 -1.9992181520304016e-02
      5.5481815399179002e-04 -9.5932555670521336e-02
      -7.7074818653575808e-02 -4.6020749150485075e-02
      3.6423974072881671e-02 3.9436088369581380e-02
      1.1517847165421823e-02 -1.1516216559374205e-01
      -1.5156948748585803e-02 -2.9688839153011633e-02
      9.4169682213857492e-02 5.3267855701234497e-02
      8.6042806737818833e-03 6.5155988423202284e-03
      3.1484619185872019e-03 -6.0965905637367264e-03
      -2.1594097925400093e-02 1.3620432465892408e-02
      -8.8337822669230254e-03 7.4950274047120694e-02
      -6.7452613999573183e-02 -3.9778634196859300e-02
      -8.4835264689357218e-02 -7.7264014071705836e-03
      -2.5090531005690975e-02 -5.3424613006740319e-02
      6.1084878928668609e-02 7.6609613993529136e-03
      -4.9887949996259520e-02 -2.1245308169710012e-03
      -6.6198945300211696e-03 3.3158040623824186e-02
      1.3996110150385778e-02 4.1485139957642726e-02
      1.9987255481785555e-02 -2.0397445820318421e-02
      -1.4482789000137615e-02 3.7192663214198819e-02
      -1.2812105211173689e-03 4.1893452364485009e-02
      -7.7657431196433799e-02 2.1696907950870589e-02
      -3.4584298090589126e-02 6.2566861200830923e-02
      -9.2075856883339108e-02 -1.4989474137970851e-01
      -1.2532896220729641e-02 4.3902576463661514e-03
      -1.3037191104872198e-02 6.1247598538822001e-02
      -3.8612643834753456e-02 8.5172894916590892e-03
      -7.4383420028181256e-03 -1.7403466742929360e-02
      -1.2464046028841182e-01 -5.2819046239802540e-02
      -4.6748028590621032e-03 2.5321299273025521e-02
      4.5184793088390532e-02 7.6613022411406120e-02
      5.5719659140051295e-02 -1.5706591382178624e-02
      -3.1249963937752350e-02 -1.9172300940405659e-02
      2.6017311152466960e-02 -7.6785762433290605e-02
      2.2820078568042064e+00 -4.7244497777029916e-02
      1.2850860591517527e-01 -9.9011587408757734e-02
      -1.7116286747121921e-02 -2.5162642869619521e-02
      -8.9149695882388941e-02 -3.1594614185990228e-03
      6.3240514047259817e-03 2.9799345523422192e-02
      3.7951367476137941e-02 -2.5239104104944930e-02
      -9.4131023636702893e-02 -1.1856871143357575e-01
      -2.6972612551514719e-02 6.1512676155372210e-02
      -3.9576416174116322e-02 -1.9087417245732219e-01
      -2.2672762513168163e-02 -7.4250038866047391e-02
      3.3513945440526216e-02 -4.0939696931378477e-03
      2.6541375251905558e-02 -7.0879283804214419e-02
      6.3307458032254960e-02 1.8954261494082626e-02
      -4.2670555242055264e-02 -3.5760570912071035e-02
      6.4341921015658415e-02 2.9447419379783814e-02
      -5.1624873216718922e-02 -2.0028852324175294e-02
      -2.4005627993457939e-02 -5.5862005031887790e-02
      -6.8603124655007910e-03 1.1143792113689975e-01
      2.0419238562461015e-02 1.5129148630374373e-02
      5.5696162888783388e-02 2.8613610225283050e-02
      1.2818297063328763e-02 1.8869290747962709e-02
      -3.7859240715146569e-02 -8.3977131343204933e-03
      2.9268014738183614e-04 -4.9572656121593221e-02
      -1.7999559512274662e-02 -4.7862910756756361e-02
      4.4433616186998183e-02 -9.3549764781263020e-02
      -1.2458700767496723e-01 -1.1632152059600195e-01
      8.7910561485891603e-02 2.4557126438035506e-02
      4.1034584319811834e-03 1.0008758215142845e-01
      2.7151287259501441e-02 -4.3106291489154167e-02
      2.9457659673056202e-02 -1.3645942448118176e-01
      -2.3829763219100184e-03 -1.4206189506622122e-04
      6.9449908317746048e-03 -8.5939130074020181e-02
      -1.8804218456987262e-02 3.0002173682751446e-02
      9.0425775816810154e-03 6.8579272793555576e-03
      5.6515416536621708e-03 -1.9638649620606675e-02
      -6.9059370398770303e-02 1.9893043926326550e+00
      4.7183041859031702e-02 5.1864555322653480e-02
      4.8937714656092791e-02 -2.4386164908751489e-02
      -4.9015506241791011e-02 -6.0633921447546986e-02
      -1.9839141235712662e-02 -4.2627618725485400e-02
      -4.9216772246810668e-02 1.1207666304380222e-02
      5.2157852745045155e-02 5.5085350316545788e-02
      1.5625929808164005e-02 2.6165502062952779e-02
      3.4304727351819175e-03 -6.5458810320748306e-03
      -3.7028931320827248e-02 -7.1061027356605607e-03
      8.0048892651076772e-02 -3.9253572070424167e-02
      -9.0624871677255595e-02 1.1182743853538187e-02
      7.2448614301094311e-02 1.1476465591467882e-02
      -2.4027804325582870e-02 8.3628265893345450e-03
      -1.6527654773787887e-02 2.5389372769342160e-02
      -2.9534929186424141e-02 8.7703231382966748e-02
      3.1411117765156919e-02 -2.0388131359159525e-02
      -2.3500880757102296e-02 2.2391673851621791e-02
      -9.1290120631380024e-03 2.5002127928561532e-02
      2.9868193497130387e-02 2.4984802453914250e-02
      5.1597157042118480e-02 3.2072513763472491e-02
      -3.1254710257091659e-02 1.4902671526861130e-02
      7.4486555661791107e-05 4.1583235334892013e-02
      -6.2782026682888015e-02 -1.6766850745323709e-02
      -7.9460436179045510e-02 9.7800069317701271e-03
      2.8368462775747224e-02 -6.4425160206518686e-02
      -2.4650051513133566e-02 -7.8365301408201793e-04
      7.3436254675212503e-03 5.8947277277714608e-02
      8.2979630220687495e-02 -5.0165133137419063e-02
      -7.0107400604248072e-03 -2.1843457555436967e-02
      -3.6868693615567140e-02 4.9672135242266970e-02
      -3.0751245960994513e-03 -3.0726616416104995e-03
      -4.6696272186155276e-02 -4.9397369851354345e-02
      6.7889061774590066e-03 8.5492296647987687e-02
      -4.2185080075600748e-02 -3.5808027279967936e-03
      5.7848008618459033e-02 -6.2879001813335757e-03
      2.1054808857042384e+00 3.2610549313853356e-02
      6.3138201746707088e-03 1.7550825679941425e-02
      -4.3223022719052753e-03 -9.2421378768287460e-03
      4.0261711921773677e-02 -1.7427540333680054e-03
      1.4198644954239757e-02 -3.9814507381209549e-02
      2.6176650857184312e-02 1.5190919924137592e-02
      3.9844991021342785e-02 -7.6570007476945964e-02
      7.6992391872385928e-03 7.6540766907278901e-02
      -7.6447181941260059e-02 -5.7460855274834771e-02
      -6.6007847521360449e-02 3.8592852601562359e-02
      1.2702253359742110e-02 -5.8002668240721117e-02
      4.0620192658489790e-02 6.8975856508803113e-02
      -2.4042788536821222e-02 1.5372283326203775e-02
      9.4908016236050746e-02 4.2205591146663446e-02
      -7.7157796226241082e-02 -9.6013873331172363e-03
      3.8078845513015047e-02 -2.6107406604847790e-02
      -9.5226103750788021e-02 -7.2888379339676457e-02
      3.2989266325282859e-02 9.8438267277754815e-02
      -1.2950544161964336e-01 -5.3800232063010586e-02
      -2.2039450837072035e-02 2.9148293769795709e-02
      1.6550360759635025e-02 -2.4132571703996901e-02
      -2.8710291546550838e-02 4.1375587499936646e-02
      4.0960485973518375e-02 4.0246555948006579e-02
      -5.5560160222323782e-02 3.4931022597166739e-02
      -6.8363875147461868e-03 1.5145374337352288e-03
      6.8452306100307780e-02 6.0155898186811203e-03
      4.5422936210376921e-02 5.5190337554883770e-02
      -1.0079721889046935e-02 -8.2623658484056676e-03
      -7.0818382552356495e-03 -4.7163639364801474e-02
      2.1807847405481764e-02 -5.1141439569603868e-02
      6.9299511683419662e-02 2.9635039445780827e-02
      2.9007024619697855e-02 -2.0160260503034357e-02
      -8.1596921279629475e-02 -3.2548702583352671e-02
      -3.5179617944521888e-02 -7.6005799964665208e-02
      -2.5999096080597833e-02 -4.1414298351990016e-02
      3.0544351771178632e-02 3.2016868939702091e-02
      2.7328237076209727e-01 -1.4981312368783162e-02
      -1.4599991583924166e-01 4.9055239546554920e-02
      8.3144733308333774e-02 1.2496870596503991e-01
      1.9216157796900887e-02 1.5570857936081017e-01
      -4.4608165049389737e-03 -1.2601183541740396e-01
      -6.5204617048432584e-02 2.5598449067085723e-03
      -2.4892746166718366e-01 -1.2004735012403778e-01
      2.9784970019555778e-02 -3.8329304882184036e-02
      -5.7676244083948391e-01 -2.7386968497756525e-01
      -2.2172094175036405e-01 2.0138166799966759e-02
      7.9803535088391248e-02 -8.7101055429125468e-02
      -1.5512685181155259e-01 -3.8942110114927525e-01
      2.5947177023798396e-01 -1.1839386663956480e-01
      3.6413236770902097e-01 -3.5157301143058560e-02
      -5.4186409578499004e-02 -1.2513594859861904e-01
      -6.6651301739228522e-02 -9.3471544493487005e-02
      -2.0930131818796599e-01 3.7102788064362867e-02
      4.1826663807303011e-01 -1.9185814938077478e-01
      -2.7282198322416451e-01 3.5222418315567394e-01
      8.0020970589539192e-02 4.7024389445672429e-02
      6.0012093231512270e-02 -1.0719584079768477e-01
      5.9395816545360018e-02 4.1947082573959571e-02
      -9.7867915478006329e-02 -1.0095888820102257e-01
      -1.2539277467182428e-01 4.0297937592496468e-02
      -2.4276326651853086e-01 3.4833987687222223e-01
      -2.4139581457675904e-01 1.2731666357399951e-01
      -1.9297443704992336e-02 -1.1005897485422141e-01
      6.3532059157464169e-02 1.9760013801408452e-01
      -4.0486848957258414e-01 1.8453944061529785e-02
      1.1012164195394462e-02 3.7722843920935889e-02
      1.0615298844436039e-01 -1.1444005510884299e-02
      6.3963885703515119e-02 -2.6180919697470523e-01
      -4.8057107192294814e-02 -9.0512441904489122e-02
      1.4343786607909179e-01 6.9670848726099563e-02
      -9.5273422485693884e-02 -1.3229337977016747e-01
      7.4500757335690126e-01 1.6172112543138600e-01
      -8.7790932766922888e-02 -1.8542143981379425e-01
      -3.5792106275114359e-02 5.4970458373006771e-02
      9.5967634569852203e-02 -8.0997478568997361e-03
      1.8501477045198095e-01 1.7039398234919866e-02
      -1.0370604109588961e-01 1.6990955185893185e-02
      -1.9510177303502563e-02 -1.6850111137039150e-01
      -1.4108288968518023e-01 4.3032869631858019e-02
      -3.9454248181436752e-02 -3.9223288733099165e-01
      -2.2644265670178576e-01 -1.7280711793242035e-01
      4.3451630717786495e-02 -1.2623667971339061e-02
      -8.2056409354446469e-02 -1.2760856791861949e-01
      -1.8105904497575873e-01 1.3117954276528826e-01
      1.2095530374829449e-02 2.6295163144855371e-01
      5.4985880646858609e-02 -8.4171205716452452e-02
      -2.4554482022149680e-02 -4.7726733004573403e-03
      -9.6318948046999808e-02 -1.3926220562237396e-01
      5.5136485533183413e-02 3.0637209918957786e-01
      -1.2751790016202541e-01 -1.8815560578198429e-01
      1.9437859939954016e-01 7.1464978952772859e-02
      5.5634072014106049e-02 5.3008925325046391e-02
      -7.9988243338698778e-02 2.9938720205581769e-02
      5.2022350001694910e-02 -4.9711898965972841e-02
      -1.4924928772518237e-01 -1.1755002537229058e-01
      5.6480090469035620e-02 -1.8414994510029928e-01
      1.8084022537848479e-01 -9.9001672137476973e-02
      5.5875670154515084e-02 -4.7601821690521073e-02
      -7.3235378667059231e-02 2.5325361348340732e-02
      1.6670345760006891e-01 -3.2071812785677545e-01
      -3.6675506166206455e-02 7.7537696050662477e-02
      2.3189360288196362e-02 6.6901502419106265e-02
      6.3997122088148180e-03 9.1470546929238020e-02
      -1.6247641588634784e-01 5.8700300530653438e-03
      -4.2641896262114391e-02 1.3665862039691720e-01
      1.4675787446079992e-02 -3.2956075704587708e-03
      -1.4168785756315555e-01 8.9586052531851368e-01
      4.3479954321829245e-02 2.1480466641680407e-02
      -9.5156372577374984e-03 -2.2142521907088576e-02
      8.3797812398928011e-03 2.8995481982018174e-03
      -6.8104247369353388e-02 1.5006260485111303e-01
      -4.2473896974495787e-02 -8.2068212334344304e-02
      5.8526215036778739e-02 -1.6231354272795806e-01
      -2.0097679716144273e-01 -1.0768523476459667e-01
      -7.2074847759577204e-02 -4.8956262141834524e-02
      -1.6587485947192315e-01 -1.2478497603392030e-01
      -2.5035209293387241e-02 7.3482102831069138e-03
      -9.0235317008768856e-02 -3.4397461804586769e-02
      -1.1331552726184267e-01 -6.6304354587277778e-02
      4.5603631567035091e-02 7.6445386392921238e-03
      7.1646495125375645e-02 5.4188315574949519e-02
      -1.8761670675160037e-02 4.3440226232579073e-02
      5.6751323682990747e-02 -9.8958024719711421e-02
      -4.1182024448859359e-03 5.2607997179231987e-02
      5.8081287898894995e-02 1.6092841761185028e-02
      -2.6750138777463339e-01 1.3377583582781302e-01
      4.4381470475403258e-02 4.7526144029550806e-02
      7.7237555314988549e-02 -5.1657394192321314e-02
      -4.1261749618181263e-02 1.0443116681613132e-01
      1.4597806579404952e-02 -7.8948560483329322e-02
      -5.9877920387746267e-02 5.0163136471016535e-02
      -6.0207492896635212e-02 1.7800110529040139e-02
      -5.0364041053669227e-02 1.3274718188608714e-01
      -8.9044298847260922e-02 -4.3708692058427236e-02
      5.9700022374079065e-02 8.4648723933813577e-02
      -1.7888964588948439e-01 -9.1742096454282468e-02
      9.0724020310784151e-02 6.9818536051649352e-02
      -2.2394149937618180e-02 1.0772381290583535e-01
      1.7440510017981078e-02 1.4231089005292148e-02
      -1.3043485048245750e-02 -1.4424349318213964e-01
      6.4983535912512394e-02 -4.7851096791264799e-02
      -1.4794419396897735e-02 -7.1244040798380164e-03
      3.5911413065592435e-01 1.4209707278083722e-01
      -6.0537438358492339e-02 1.5445267878680202e-01
      -2.7233665962310416e-02 1.4794314321940331e-02
      1.0409157835482528e-01 -4.4005645357115403e-02
      5.9038207795070761e-02 -4.8939602694534519e-02
      -9.1281225270463853e-02 -1.5090545277575590e-02
      6.0913097035856893e-02 -1.2447027473835993e-01
      -4.7674895071832153e-03 1.4106363621423821e-02
      -3.0591023476304973e-02 -4.4118616175189578e-02
      -9.4973175666832887e-02 -5.2158301902395666e-03
      1.3471075808255462e-02 -5.5344548288502491e-03
      -1.8344939192614564e-02 -9.9944101057202500e-02
      -7.4200675475072322e-02 2.4568370184793149e-02
      -1.6952048952939816e-03 7.8203405307167267e-02
      6.8109815670987742e-02 -1.4220618238165851e-02
      3.7378226764324320e-02 -1.0786686708089245e-03
      -5.0955507549559423e-02 2.6337150979835022e-02
      7.2503092358781940e-02 -3.8698684385879277e-02
      8.2676123361975547e-03 -1.0181325332819909e-01
      3.8110928353133219e-02 -3.0730098411234932e-02
      3.0973671628048673e-02 1.1464003872742486e-01
      -6.0763506899596170e-02 2.7290145740044335e-03
      3.9790211647972263e-03 5.4247378748643459e-02
      -9.0767285937746276e-03 -5.5803650297983468e-02
      -7.8046897780609290e-02 9.2654969301702056e-02
      7.4562629971587746e-02 5.5039964968991483e-03
      -8.8564291612715340e-02 -4.4421008403896151e-02
      1.0100516832418544e-02 -4.6909082331957140e-02
      1.6858622771648492e-02 -1.3285758440661349e-01
      -4.1646459107210390e-02 1.2206420466476024e-01
      7.4535066666338119e-03 -1.2061112310652829e-01
      5.0671991386465137e-02 1.0318258942160967e-01
      2.3686708631514283e-02 -2.4341633727683831e-02
      -5.9403016477087039e-02 6.9665777324756512e-03
      -3.1424447003855709e-02 2.4952897641863044e-02
      4.2311250084429437e-02 1.8445442464068829e-01
      5.3940107507900223e-02 4.3240872369077289e-02
      1.3251296159213119e-01 4.0632410063365688e-02
      1.5238976983220610e-02 2.5148523240002631e-02
      -2.2559318574660581e-02 5.9236282776404275e-02
      -1.5030126683412396e-02 -6.8095973299420118e-02
      2.8348920258016819e-02 -6.3027995091228953e-03
      -5.5453990935549306e-02 -3.4881413377459397e-02
      7.7115682463553825e-02 -4.3055974325344977e-02
      9.4684787440464255e-02 5.7038982717689986e-03
      3.2887999993363309e-02 4.8110655375383879e-02
      -3.0012967329895765e-02 -3.1930971311079408e-02
      -8.9499027031794506e-02 -1.2979641429537989e-02
      -3.0586567628445232e-02 -6.6040038851888541e-02
      1.3475930989253265e-02 5.5897399494930795e-03
      -2.5992207245936150e-02 3.0210489487411191e-02
      -1.1892996143997797e-02 -3.6631964771854722e-02
      -4.5355301982643842e-02 6.1932816162714429e-03
      -4.8580744451363768e-02 1.0161211730748697e-01
      -5.1957748345796147e-02 4.9651710341004324e-02
      -4.1828514560020520e-02 -8.1768038346215169e-02
      6.6852127895989613e-02 -4.5712612966345732e-02
      8.6395912459976739e-03 3.2498376265487468e-02
      -1.3797102359020786e-03 3.0711084083602944e-02
      9.1453497511441821e-03 2.6240091501051176e-02
      1.0612436829693464e-01 4.4795504472374424e-02
      -5.4021481951185835e-03 -7.0763796152440203e-02
      4.0820193735791585e-02 6.9091126178260132e-02
      4.6068651474548368e-02 6.4801628835550490e-02
      1.3483862756852816e-02 6.4288712513684426e-03
      6.4322403017599825e-02 -7.9083678640382259e-03
      -6.9301457857037799e-02 -1.4532088462029590e-02
      4.5171293096099220e-02 4.4195962769054707e-02
      4.5213649212354164e-02 -5.6629116909890996e-02
      -2.5683692711436938e-02 2.3903416108807161e-02
      -6.7935208991488749e-02 2.7669622957867488e-02
      -1.6738741078186767e-01 5.7007269500178898e-02
      -6.4926773611099317e-02 1.9615529418160824e-01
      -3.1373432224345854e-02 -2.8891373178768429e-02
      1.0951203429040707e-01 3.4158500280671272e-02
      -1.7051055761390897e-02 -1.0246849908349208e-01
      -1.2559608966277236e-01 -2.2293182896039074e-02
      4.7183766676627582e-03 2.4781462114343785e-02
      6.0354738724403972e-03 1.3763676516988335e-01
      -1.7065164720167864e-01 6.0647092498277967e-02
      1.8390023243224484e-02 1.5385978620610204e-02
      -1.4357213999899416e-02 -4.3817638942193178e-03
      -7.0255483026311974e-02 -2.5604062634967638e-02
      -5.7113847165310726e-02 1.8422505095753309e-03
      4.8223070070366768e-02 3.7534460846178348e-02
      1.0483085203706520e-01 -1.2371675703236604e-01
      -4.6986788363206702e-02 4.2831584982042786e-03
      2.0098020017857571e-03 -1.1415678650502710e-01
      6.3381616492334786e-02 -8.6394098663271204e-02
      1.0202667387424261e-01 -3.3847376815017281e-02
      8.4759027116184965e-02 -7.3472415616695999e-02
      5.7985110205074492e-02 1.5699799121837752e-02
      -6.7321541385731140e-02 5.0972039391128154e-02
      7.1079565464356904e-03 -4.6528386431823172e-02
      6.8275603282247022e-02 -7.9180814495848992e-03
      5.3303969838009300e-02 9.6751644185604849e-02
      1.7342498255252980e-02 -1.2999918600058417e-02
      -1.0955207756935709e-01 -4.3079627313424761e-02
      1.2203107344551374e-01 4.5308785915539850e-02
      -3.3542189652328212e-02 2.3665340400011583e-02
      -6.7961024657346353e-02 1.2875836424368675e-01
      6.8419241223182839e-02 -6.2676020005452276e-02
      -1.1331534897420006e-01 6.1349888259614190e-02
      3.9105550351361609e-02 1.0518882236105180e-01
      7.0656005829507734e-02 -5.0520172087375657e-02
      8.0439264949674946e-02 6.5400935103357483e-02
      -8.2466539892720472e-02 -3.8008163883720680e-01
      -1.3135144083319348e-02 -5.7230104531741127e-02
      2.0436883749936111e-01 -3.3198120011033699e-02
      -1.5220657929459933e-02 1.2646166864001485e-01
      -3.1803816042763680e-02 -8.4021675915099417e-02
      -9.0282011398172421e-02 -4.6828074748543086e-02
      -9.2745487480141470e-02 -1.9706565385130593e-02
      5.1314647513083601e-02 -3.1309217837208823e-02
      1.8086475685345918e-01 -2.0274775125561303e-01
      8.7311819339839850e-02 1.3336509590092335e-01
      1.4686244768109917e-02 -7.6575801397381640e-02
      4.5276101734306573e-02 -1.2223537555257226e-01
      -5.5154278768429585e-02 -8.1403762038341515e-02
      -7.5720580370172041e-02 5.7718926150884475e-02
      -3.1232565811553297e-02 4.9218090312768151e-02
      -8.8939497222700906e-02 -7.0759401121185589e-02
      -5.1815772456999393e-02 -2.0573143936253847e-02
      -1.3263227596806668e-01 1.8701629750727977e-02
      -7.9201530757572636e-02 9.3278349840411307e-02
      -4.5758390721279997e-02 1.1678042082726360e-01
      -5.4279958695262934e-02 7.1859362652098122e-02
      1.9314950063923354e-02 -5.9323913663104952e-02
      7.6204505983315934e-02 -4.6327600196677879e-03
      -8.7648561224370550e-02 6.4958054008339192e-02
      7.2518424132527140e-02 1.1092819752961407e-01
      9.6347057616016099e-02 -4.2039953965577609e-02
      2.7053854384725212e-02 -1.5423152024474265e-01
      -4.1511584521530434e-02 8.2256572638164063e-02
      4.8289133513968073e-03 9.1426551989234241e-03
      3.9493479415972553e-02 -7.9876988424558898e-02
      1.0848103833383999e-01 1.4770010005163051e-02
      -4.4549108269605467e-02 -2.1187742044209840e-02
      6.5146640096209338e-02 1.9398981415954693e-02
      9.2860929874092960e-02 4.3366791564730715e-02
      -8.0287923740247069e-02 5.6471767535260189e-02
      1.0719038709163489e-01 -9.6266408051224606e-02
      -6.0790751869295701e-01 4.1401422802266157e-02
      -4.8387798375387724e-02 1.4871688904513244e-01
      7.3045118766113682e-03 1.9524366041900418e-02
      2.3864897588500877e-01 -1.7219557780452574e-02
      -1.9537456102922102e-01 -6.0976305861838200e-02
      1.2001514350493190e-02 -1.1982468992848959e-01
      2.6750605847494929e-02 5.7398010366143677e-02
      -2.0533857991559556e-02 5.5462489481719134e-02
      -1.3756083273260519e-01 1.4390355944300465e-01
      1.3270311501130311e-01 6.7374600658386907e-02
      -8.4661003641150173e-02 2.1986052313586722e-02
      -1.6315386146581856e-01 1.0551977462167305e-03
      -2.1659594966921877e-01 2.9590262818627203e-02
      3.2326795464287794e-02 -1.1344582202442931e-02
      6.0395617507496190e-02 -7.0536841548870077e-02
      -6.9783882393198687e-02 -1.7555155443932265e-02
      -7.4466063054194259e-02 -1.9568092336220130e-01
      1.0137223935968746e-01 7.8058427589176679e-02
      1.4743616459794598e-01 7.9824602660650001e-02
      8.8693698013159392e-02 -2.7155646757957442e-02
      -3.8650116665794390e-02 -6.7649463257574052e-02
      -8.4032176180659501e-02 3.9081999592409218e-02
      -6.3836748639617732e-02 -1.9499961911468261e-01
      1.1306082436594506e-01 -3.1633848549340093e-02
      7.4168239133678135e-02 3.1549748448652104e-02
      -1.1057301042536286e-02 2.3790876356536740e-02
      -1.4262709771781862e-01 1.3516347850852368e-03
      1.4228567786376253e-01 -2.2815112572107204e-02
      3.1772271146835070e-02 5.6789531711883050e-02
      -3.2456419947003073e-02 9.8854975015977578e-02
      3.8220485311441753e-02 4.8329857151741144e-02
      5.8656321351426108e-02 5.2740716746934035e-02
      6.6632318657147346e-02 1.0752417057418311e-01
      1.4031348882738665e-01 -1.5129255416946594e-01
      1.1089542471964216e-01 5.9805599250010617e-02
      -1.1927171386198152e-01 -5.1409324062759520e-01
      3.8185630760559600e-02 -8.5193254771149474e-02
      1.6617103594544042e-01 -4.2561606056604667e-02
      7.8403468427216100e-02 2.4905952716004889e-01
      3.3662797942618165e-02 -1.5482675552742092e-01
      -8.0562806997667935e-02 3.0140645951419121e-02
      -1.7229679355045432e-01 6.9006335947181530e-02
      1.5793929186913711e-01 -7.3196350024057125e-03
      4.3330537653382073e-02 1.6731249058025428e-02
      1.7746222095070366e-01 1.6300464100895889e-01
      1.0184997732754661e-01 -1.6008124948293095e-01
      2.5374739518476061e-02 -1.9109340243395578e-01
      -3.8358441570060776e-02 -3.5126955258955300e-01
      4.1794746940606434e-02 8.8608199970660259e-02
      -4.1723356363056741e-02 1.2261889159685742e-01
      -2.7433969179270320e-02 -8.6523210744459900e-02
      1.8023567730049532e-02 -7.5372233456755033e-02
      -1.8566336610355219e-01 1.6060041411807868e-01
      7.6547812421075848e-02 1.1186765738884208e-01
      5.8724819088108976e-02 1.0195812547761547e-01
      -1.0250847869020578e-02 -7.9384708880608890e-02
      -1.6924083252058592e-01 -8.8498839596628909e-02
      8.9580301621607933e-02 -4.6362245557137444e-02
      -2.7538864969947102e-01 1.0947383978411022e-01
      -4.0581517107151716e-02 3.2699891317026407e-02
      9.5071770175482365e-02 -7.1796690900683163e-02
      3.6769121327342287e-02 -2.1531404305137780e-01
      -9.5679604679956287e-02 1.3558593716299294e-01
      -4.2429494986680236e-02 -1.3220025325900001e-01
      1.5942433771585196e-01 -2.1514545675497898e-03
      5.8666109563925338e-02 5.1104491611662618e-02
      8.7311192768511431e-02 -3.6593445888846950e-02
      8.9984330974978807e-02 1.4979000520567462e-01
      9.1683994008391792e-02 8.6990981290720470e-02
      -1.9105243553774473e-01 1.7021960128756974e-01
      6.7208922470696722e-02 -7.1445788386322137e-02
      -5.0457966900489937e-01 4.2048754526461070e-02
      -8.7751675707902765e-02 1.6392040282554474e-01
      -3.5007534899590638e-02 7.2753946000683384e-02
      2.4788039440581700e-01 2.9996020818932049e-02
      -1.4688348451445912e-01 -7.4998573439897617e-02
      3.1250519844498482e-02 -1.7275222776956620e-01
      6.2013774728166937e-02 1.6295443043328131e-01
      -8.8031550299310264e-03 3.7711124100820212e-02
      1.7182760915472963e-02 1.7761195763554904e-01
      1.6433639284534149e-01 1.0610183601217153e-01
      -1.4790318186521048e-01 2.9068177305112228e-02
      -1.8276050207100697e-01 -3.7279464055519761e-02
      -3.4498375806456905e-01 3.8733234509284682e-02
      8.8013860411803507e-02 -4.2205529415021759e-02
      1.2584347373092980e-01 -2.5074064036152192e-02
      -8.8887517491237050e-02 1.0336119840074810e-02
      -7.4963077891467889e-02 -1.8699781581380995e-01
      1.5304320218974929e-01 8.0606967697107526e-02
      1.1369655710526236e-01 5.8069912497295158e-02
      1.0864707350715838e-01 -4.4902477072371119e-03
      -8.4324619681514085e-02 -1.6620888990445140e-01
      -8.7625350833167137e-02 8.5191015470575726e-02
      -4.1991312926061369e-02 -2.8601023517441104e-01
      9.8492197033470438e-02 -4.0113752924538580e-02
      2.8768819218475766e-02 1.0170092650635015e-01
      -7.4420454123627647e-02 3.6027482673051815e-02
      -2.1863294917873030e-01 -9.5970995767434120e-02
      1.4117126134073779e-01 -3.8457640440777638e-02
      -1.3992356364765540e-01 1.6294691545200343e-01
      -5.3748779055874290e-03 5.7301044218523792e-02
      4.6483698647653976e-02 9.7411870735792910e-02
      -3.6415183101968174e-02 9.3873265343916129e-02
      1.5636989654459132e-01 9.2237346431223069e-02
      9.3251586657372071e-02 -1.9255796545597093e-01
      1.6898052133290462e-01 6.7708270692658293e-02
      -7.6669908158620362e-02 -4.9666779216298507e-01
      3.3130559013528564e-02 -2.1231956508673801e-02
      1.6903943849210504e-01 1.2551509826925001e-02
      5.3664916862379893e-03 1.9832865864372753e-01
      -2.0849350959664479e-02 -1.6659930213687507e-01
      -6.0279670341328355e-02 2.9293315669113210e-02
      -1.3197130580593164e-01 4.0005758708715311e-02
      8.0971072377942210e-02 4.3631804473757427e-03
      2.9254750350855285e-02 -1.1446553556408612e-01
      1.7384749772882266e-01 1.3931220585196563e-01
      6.5144835333654699e-02 -9.4952132642331558e-02
      4.8883484932758535e-02 -1.6407070979373009e-01
      -3.7711762169699140e-02 -2.4556799416876385e-01
      5.2498677667356462e-02 2.5098219151742693e-02
      5.3278707654552783e-03 1.3369491771894138e-01
      -7.1777142977219058e-02 -7.9475381359854991e-02
      -1.5271638480686522e-02 -2.3180643541173013e-02
      -1.7117626408732711e-01 1.0855282583504777e-01
      6.0817330253427872e-02 1.6739704522949125e-01
      7.9340653209663534e-02 9.7212446351782944e-02
      -2.1717907126052968e-02 -3.9648554777131521e-02
      -7.9281290182163816e-02 -1.2690871655700628e-01
      2.1828547221209950e-02 -6.6749736615341435e-02
      -2.0810206029093214e-01 1.1885320744428414e-01
      -4.2955709270079558e-02 6.7343144287030768e-02
      4.3063355539735726e-02 -3.6682383936161633e-02
      -8.1409859522816371e-03 -1.2103534069503792e-01
      -1.5681910366542963e-02 1.2723355096082894e-01
      -9.8636526669558730e-03 1.0696649801559346e-02
      1.1364552615917135e-01 -1.7439814681849897e-02
      7.8868456697336595e-02 6.9792608057192822e-03
      1.8261300654987839e-02 7.5944763224676859e-02
      1.2555525582802268e-02 8.8468204496542135e-02
      1.0808666906584673e-01 1.3448371219146904e-01
      -1.2044772636140223e-01 1.2496929434111634e-01
      5.7185839731708391e-02 -9.9070472558331679e-02
      -2.6426917786418480e-01 -1.0278936248569024e-02
      -6.1763025224824408e-02 1.4867890039096052e-01
      1.9732336500721807e-02 -2.4305368485975882e-02
      8.1371994407972228e-02 2.4677645606846925e-02
      -8.0306686916184492e-02 -1.1392979216935238e-01
      -1.5336293555676422e-01 -1.2193284955378206e-01
      -9.7407818072189636e-02 4.4293945678566066e-02
      -2.5854660686148733e-02 1.5340429102572140e-01
      -1.6624536940129106e-01 5.5535545697946144e-02
      1.1094809450166883e-01 6.1699358322177600e-02
      -1.1269488886269917e-01 3.8288185871148551e-02
      -1.3576655945522331e-01 -4.2660002120837037e-02
      -1.3897405486739595e-01 1.1366392459126774e-02
      6.0334456940375862e-02 1.7366442400732800e-02
      8.0787612824763530e-02 -7.5687021579708677e-02
      -5.2141792933107924e-02 -3.1627965094032609e-02
      -3.2990984765480083e-02 -1.2252845050958558e-01
      7.3321822841229012e-02 -6.3822534753784882e-02
      3.0648737157771874e-02 -5.7883380766233339e-02
      1.5871752415301874e-01 -4.0712459306996761e-02
      1.7154613089798387e-02 -7.2323790851292091e-02
      -3.6897435576062218e-02 9.1674128653814385e-02
      -4.1247197559642020e-02 -1.2729587917998234e-01
      5.7881885892829200e-02 -1.8214765849517002e-03
      6.0939126999081092e-02 6.7193695260325301e-02
      -8.1537861675932938e-02 -1.2531219269899679e-02
      -2.1303123566830948e-01 3.6937339619502033e-02
      1.1609408382684565e-01 -9.0838350381495358e-03
      -2.3539983257513761e-02 5.8705048548937176e-02
      2.8188669967661381e-02 7.7266031688310421e-02
      5.8050375772805904e-02 2.8235487531863352e-02
      1.5375614403664235e-02 3.4675383116798290e-02
      1.8832390224283180e-03 1.1250442291722153e-01
      7.9513121735781095e-02 -7.4601662806900296e-02
      1.2933342630949654e-01 5.5574197566673124e-02
      -1.5340636824799497e-01 -7.1746237517052822e-02
      9.4215431294304930e-02 -4.2943562808324669e-02
      1.5979347013210013e-01 -3.3681784043062241e-02
      2.0464214660051987e-02 5.3776347256547216e-02
      -3.6985537662857310e-02 -1.0603217212965772e-01
      -1.2830526527203895e-01 -1.1473263331325999e-01
      -9.8511015943533009e-02 1.4005664866836919e-02
      1.7620521139089837e-02 -4.7780134341534379e-02
      1.2860182300771647e-01 -9.5170679186747237e-02
      5.9559417147259680e-02 2.4480796318632175e-02
      4.5980628984758458e-02 -6.7501569461685309e-03
      6.4162723286908127e-02 -1.5874583293094760e-01
      -7.6927572267811842e-02 -7.5461806421860067e-02
      2.1567111695555554e-02 4.7527140544159602e-02
      1.3583301983124524e-02 8.0507573546288583e-02
      -7.3655170046763099e-02 -8.8429730331334749e-02
      -3.5830612716454949e-02 -1.0453554768813546e-02
      -9.3005732517542100e-02 1.0888295314510490e-01
      -8.4392839506691256e-02 -8.0617422949009199e-03
      -7.5800677034513530e-03 1.3297388690958867e-01
      -3.3063070535667205e-02 5.4822231138258584e-02
      -4.4644325550113086e-03 -3.4831824399805270e-02
      9.0937284652442371e-02 -5.0151814388873436e-03
      -1.7837215210941196e-01 -5.4304512063969447e-02
      6.5628650299979210e-03 7.1398956127348423e-02
      6.9114569698477513e-02 -3.6058404967845910e-02
      1.3141045240831421e-02 -1.7122470525652284e-01
      -3.9017103805441549e-03 1.0470013653405767e-01
      5.0320880567045742e-02 -3.9315514549107797e-02
      2.3626506270375981e-03 4.9611837027742946e-02
      5.1101886450366625e-02 7.9190557130792524e-02
      -6.3262303541108317e-02 -5.2941080037600232e-03
      8.6479251307623115e-02 -9.1405491122656304e-03
      8.9627169760853040e-02 1.3554580409497144e-01
      -9.3434691628542510e-02 1.2695349462735814e-01
      8.4781282231980434e-02 -1.0007017289053022e-01
      1.9406744289238342e-01 1.0983487277327782e-01
      4.3169691166343518e-02 8.7888685369269956e-02
      -2.5847830216025876e-02 3.5931486313457328e-02
      -1.9675028913362202e-02 2.1278708104334205e-02
      3.3069533990432665e-02 -6.0080321452761459e-02
      -5.2945954757927578e-02 -2.4173892503808934e-03
      3.2953043067748995e-03 -2.2459932404135269e-02
      -4.8551473157576547e-02 1.1803428525987682e-01
      -7.8603355266781597e-02 -1.9519472511027688e-02
      -5.4251398139811870e-02 -2.8176797257125033e-02
      3.9199919099628278e-02 6.6037951013011523e-03
      -1.2740865336808874e-01 -1.4082834584432738e-01
      -2.3633255632475057e-02 4.2576289853898566e-02
      -4.3505197297513128e-02 6.9282012996434309e-03
      6.4439426534789887e-02 -9.2982422269364123e-02
      -4.6328626756648651e-02 -7.8144400871870662e-02
      1.6300437341661655e-02 -1.8571622829897945e-02
      6.1828805710276012e-02 3.6024634288979861e-02
      5.2986566483445912e-03 3.7134651457062705e-02
      3.6827288370696772e-02 -1.4114241605745578e-02
      3.9531173947570809e-02 5.8413644281612971e-03
      -7.4948049562020141e-02 5.3060934800272944e-03
      -3.7025289006143686e-02 -1.0487571216412123e-01
      -9.9513203192364924e-02 -2.1869643643999879e-02
      -1.5776089092017057e-02 5.6021794602801774e-02
      -6.9293248042893857e-02 -6.4178263549582878e-02
      -1.3060593561556419e-01 8.7688608659804476e-02
      1.2543258137565627e-01 8.2076394214200321e-02
      3.6771148103328349e-02 -2.6077559477077631e-02
      3.9292985331733553e-02 -5.1508175002916219e-02
      5.6580643978846955e-02 -7.1463625444593656e-02
      -2.2571480832974576e-02 -7.4837340419534326e-02
      -2.4052902970867325e-02 7.6484186162340193e-02
      1.0059066642528166e-02 -3.7970711784621067e-02
      4.7833998869365797e-02 -6.4319272530380194e-04
      -2.4936956092868872e-02 8.7355686810097311e-01
      -1.0797268288467582e-02 5.8033584321783356e-02
      6.3326487622367894e-02 -4.0298721401405169e-02
      -9.0810858201918017e-04 -1.2639986767290184e-01
      -2.4481651389340465e-03 -4.7783810212601793e-02
      -1.8865120020765371e-02 1.3678464627767122e-03
      1.2674108946489978e-02 3.7791870467511139e-02
      2.3721877347142328e-02 -6.9874855900681682e-02
      6.6628485491817366e-02 -1.6396939034040625e-03
      -4.9272331200793058e-02 4.9066429518010983e-02
      1.6628189299792557e-02 5.9053891631630226e-03
      -1.0977946569292898e-01 -1.2513636972109723e-01
      -1.0708190735154556e-01 9.2408876267863746e-02
      -1.2694291230274069e-03 -5.3854348165504407e-03
      2.5499489388420449e-02 7.3585180753368562e-02
      1.1705118393094948e-02 -2.8802582677754502e-02
      -2.5899143209883034e-02 -1.9606882245692188e-02
      -1.9094685152277222e-02 -7.1514691364725205e-03
      -7.6579632847204190e-02 6.3136191614007645e-02
      9.6212856645336964e-02 1.0222683452934660e-01
      -7.6047661161326155e-03 -5.2400798916163706e-02
      1.0580595633489351e-02 -8.0003908789841538e-02
      -3.9173205709049599e-02 -8.2225454318435552e-03
      -8.9384165641248195e-02 -1.1650379403091821e-01
      -1.4516361375664006e-03 5.8350776379631226e-03
      4.4397861270748157e-02 -1.2201524459799809e-01
      6.3649858914512969e-02 -1.3618413091017439e-01
      8.2623558822737975e-02 5.4745388555865762e-02
      5.8717355694538152e-03 2.6890732254800077e-02
      9.7810913238351088e-02 7.2883775881428373e-02
      -1.0935213470596088e-01 1.6279902228425711e-02
      -4.7426633947875482e-02 -4.1863617046026688e-02
      1.2876427653893088e-02 -3.7471543782480222e-02
      5.0654794666691302e-02 -3.7607080876897334e-02
      -6.0464813286086667e-02 -3.1504518144496250e-02
      -3.8849772961442257e-02 -4.5350086101548219e-02
      1.7169222421076871e+00 -1.5729349216463379e-01
      1.0848399857638712e-01 -2.0125093639255429e-03
      -8.6565995974442797e-02 -2.4162610622478899e-02
      -1.1904936455045180e-01 -6.8226467516692341e-02
      -6.2948863829586893e-02 -9.6059957570434312e-02
      4.0012203525355443e-02 -5.8863001124945649e-02
      -6.6773382079225910e-02 -5.7620231845533706e-02
      -2.7380535806799784e-02 2.2149572733520580e-02
      2.1261387110390207e-02 -7.2127204151476138e-02
      1.1182523375546770e-01 3.4566869111724539e-02
      6.2693532520727041e-02 -1.6418513378534449e-01
      -1.5963877257744943e-01 5.0308352856179156e-02
      1.6003476615093237e-01 -4.6851854210503793e-02
      -5.3708701873426794e-03 4.9910618969137913e-02
      9.5648484724123919e-02 6.2878088597377230e-02
      -3.0655509587449663e-02 4.6658419900029065e-02
      8.9492208600393825e-03 -5.4707736240872086e-02
      -5.2212312027470941e-03 -9.3754291730843417e-02
      1.8836364995055063e-01 -3.1718494051123300e-03
      4.1705127067851386e-03 1.2073882054681508e-01
      -1.2986849535961827e-02 2.2153382379006055e-02
      -7.5627405886548260e-02 6.4318740229089039e-02
      6.8573223431430810e-02 -1.8033326762580315e-01
      -1.2675416068788967e-01 -8.4260916644053024e-02
      8.7987143804331563e-02 -4.1724261894743195e-02
      -2.7216484673924968e-01 -6.1501155737800836e-03
      -3.9081897068968044e-02 1.4086365270518619e-01
      3.4365389258074849e-02 -6.6238773545269133e-03
      -7.1328326526944708e-02 1.5114273893511931e-01
      1.0690938584742851e-01 -1.6413094344480894e-01
      -1.4672665099351823e-02 1.2003637075797421e-01
      -8.4473480150731931e-02 4.9797513788050994e-02
      -4.7895737876688611e-02 7.4341882022155942e-02
      -8.4069343774798078e-02 -4.5839285213694653e-02
      1.3978483006483477e-02 -7.0909207439307606e-02
      -2.9188802646403424e-02 1.6312106677547569e+00
      1.2840792076242908e-02 4.4182262378486013e-02
      -4.8780093407727085e-02 -6.8142524539105576e-02
      2.5286565804402791e-02 -1.0516064004467199e-01
      -1.4002628434499668e-02 -4.0620972402419797e-02
      5.5203948544287590e-02 4.4999476446382657e-02
      -6.5136786155820914e-02 -3.6051989748401313e-02
      -1.1060010710120077e-01 -7.8793474318277532e-02
      -1.5707379374033353e-02 1.3158202443072626e-02
      -1.6522764085979086e-01 -3.3905046999281027e-02
      -1.0665419495963839e-01 8.4681947393430393e-02
      -6.5172943974066866e-02 -4.6247447761061357e-02
      -3.1425192629802146e-02 -1.7239608021878093e-02
      3.7654638062018360e-02 -6.7328019890385657e-02
      8.5015364294169546e-02 2.7164674342834295e-02
      -5.1794969951429425e-02 -9.7359930569467026e-02
      -3.6618682581632700e-02 -8.0455161642680975e-02
      -7.0280620386182185e-02 2.7056458549291128e-02
      8.8379100754931841e-02 4.8546055843879762e-02
      5.2643240250060591e-02 3.7213076627606291e-02
      2.8220959829069744e-02 2.2427502676468751e-02
      -4.8243755471129461e-02 -3.2538919336612293e-02
      4.6223654399070113e-02 1.5292127270156580e-02
      -9.5247820349036227e-02 -1.1898932977985828e-01
      -1.0879432136522230e-01 -2.4972320462602303e-02
      -5.5477980162641154e-02 -6.9451592501088510e-02
      -9.1021580036383581e-02 -5.9680842547256335e-02
      6.3368117465625040e-02 9.7722252077365138e-02
      -1.2153716235053787e-02 1.8329250071959530e-02
      -6.3986641693171642e-02 2.8304991456687138e-02
      -7.0880997061305961e-02 3.0604727640393990e-02
      5.0976158332594501e-02 -2.8046880159303960e-03
      4.0025989815605734e-02 -3.8396201652715220e-02
      -1.2070335149425664e-02 -1.3269740852026740e-01
      6.9314647634711388e-02 6.6448864776483627e-03
      -1.7440557600168485e-01 2.6173971955703042e-02
      1.4096614519564705e+00 -1.2693407181030905e-01
      1.0843501954905078e-01 -6.6516645556233711e-02
      -6.8326613237010614e-02 4.3822049351288535e-03
      -1.3943532425114427e-01 -8.5425843967355964e-03
      -7.6770940665794249e-02 2.7449761639822556e-02
      7.6376324842129450e-03 -6.9558328503507669e-02
      -1.4234605637673139e-01 1.0816501058298375e-01
      -1.1078128370063650e-01 1.0496132662486081e-01
      -6.3502428603416372e-03 -9.6373456618867953e-02
      2.1831344240368669e-01 -8.3026587279498645e-02
      4.3300626468957645e-02 -6.0757433718236394e-02
      -3.5907341317148733e-03 4.3628167684941821e-02
      1.4753708848363947e-01 1.6599205143476747e-02
      -8.7854456292186228e-03 -4.4579697225951335e-02
      6.5032140889205489e-02 3.9320646816143813e-02
      -7.3217198123882721e-02 -5.9636394040704394e-02
      -3.6406044456151573e-02 -6.9566688870134369e-02
      -9.3341967116028907e-02 2.1708552662061814e-02
      1.5946335197875319e-01 4.8263531005743099e-02
      2.6512156742303880e-02 4.4403767918327806e-02
      -2.1810987388766255e-03 6.4904932140576910e-02
      -1.0129489962912901e-01 3.2614244084968130e-02
      -4.1753100730681024e-02 -1.2814192376898287e-01
      -1.7698706795336045e-02 -5.5358738014198904e-02
      1.2041017743011379e-02 1.0179521414357753e-03
      -3.3130135594336346e-01 -3.0972052874087212e-02
      -4.5495085088591396e-02 1.0262653259426428e-01
      -9.0605484198346253e-03 3.8888131076482133e-02
      -1.7363565714295595e-01 1.2541870495898619e-01
      4.0426229318327615e-02 -1.7166174872452819e-01
      -2.1361176408646758e-02 5.8205785322929984e-02
      -4.0280894438493017e-02 1.0474181881825752e-02
      6.4980753659122731e-02 5.6187936189003706e-03
      -1.9197586967337821e-01 -5.6285237900197641e-02
      8.7644666629337097e-04 -9.9368795076272914e-02
      -1.4435348435418745e-02 2.9303414122822042e+00
      1.0664325118761561e-01 9.7770450480941087e-02
      1.0375072873859829e-02 4.7475306359500750e-02
      -6.0359099317254326e-02 -1.0376342309693104e-01
      4.4084097770823123e-02 -7.7362017432476810e-02
      -2.2056067515666959e-02 2.6730936649131183e-02
      -2.5409982569715571e-02 -8.2517049798685585e-02
      5.6948608673806612e-02 -3.7997158355082827e-02
      1.5266462453751087e-01 6.2249065302037833e-03
      -6.9002255039033164e-02 -9.4360882323405258e-03
      -4.8266800098207059e-02 3.2132569358073224e-02
      3.2324949336147414e-02 1.6236854575416498e-02
      1.0239305519164055e-01 2.2919399297169590e-01
      -4.7286160469944299e-02 1.5699195855263005e-02
      -5.3071767052543075e-03 5.7772574719507606e-02
      1.3050902236342539e-02 -9.0074435751437663e-03
      -8.9992528382151313e-02 -2.2010615342662306e-02
      -8.6820082387920758e-02 2.3250213731924620e-02
      -8.0689843577947118e-02 -1.5476942119697950e-02
      3.5962865722974656e-02 6.7264660208342542e-02
      6.3430466916971018e-02 3.1195347862260525e-02
      -1.3402196990953223e-03 8.5216459115758064e-02
      2.5741543844380332e-02 3.2914971795475659e-02
      9.6821498894078123e-03 -3.2568326413812868e-02
      1.0149956676321761e-01 5.2101616774488678e-02
      6.9097764186573984e-02 -8.2341394986292685e-02
      -3.1564338220095488e-02 8.0233624080998087e-02
      2.3483634965660655e-02 -2.8484168868675396e-02
      3.2280841686692277e-02 -1.0443135702823698e-01
      -4.0282366689855222e-02 -2.3791836758402265e-02
      -8.9926094035567020e-02 3.4496126138056395e-02
      -2.6950854001876308e-02 2.0474817871272845e-02
      -2.9531893641728327e-02 1.0596195192772878e-02
      -7.0728475580824721e-02 -3.0826668030367994e-02
      -2.6899409251065733e-02 -9.7150774114762278e-02
      2.4968111062637143e-02 -7.9256240093175445e-02
      2.3514910239681162e+00 6.8976817234391821e-02
      6.0448786506285112e-03 6.2445129288926274e-02
      1.3056137483222083e-02 -8.5438432765978206e-02
      4.4624568581621463e-02 -4.0976054782422271e-02
      5.8537457692955909e-02 -6.7950325567341499e-02
      -8.2796990787531929e-03 1.2538856437950632e-01
      2.8170572932962358e-02 1.0669845440004638e-02
      -8.2079687891293499e-03 9.4678436838926388e-03
      -1.2250583556801084e-01 -6.3497482127157043e-02
      -1.2370139194212461e-01 9.9867055970540589e-02
      -2.0522614762768114e-02 -9.1384125532032470e-02
      1.5078028002538142e-02 6.3890649950086698e-02
      -5.0665485057593870e-02 5.4853423664703936e-02
      6.8418966191711547e-02 4.9739489794984007e-02
      -6.1478726797019753e-02 -3.2206364236453303e-02
      9.7331718907687839e-02 5.4476600894335016e-02
      -8.0538610316875758e-02 -1.2980949096140358e-02
      8.2111170077329085e-02 6.8510837619598350e-02
      -9.0916496215355969e-02 -4.0701807716606177e-02
      5.0765936124505057e-02 4.2232433574409575e-02
      -1.4626424432658927e-02 -6.9328710835288535e-02
      -6.4429825968780066e-02 9.5083410744959788e-03
      7.5714672423443957e-02 1.4110855009902818e-02
      -5.7686693712462017e-02 -6.3706058865624998e-02
      -5.1314179792779583e-03 1.8572584290067271e-03
      2.4366892685030114e-02 3.4961556429537140e-02
      9.0147181051827008e-02 -9.3855642157632396e-03
      4.6899664385271503e-02 -6.6522977460610616e-02
      2.6954484581088869e-02 8.4899589550721660e-03
      -1.8113544305666508e-02 -4.7062234071216180e-02
      6.7495228877968064e-02 -2.7186693553365803e-04
      3.9200299450766155e-02 1.6023285880289097e-02
      -6.5137562227795903e-02 3.3898555687937017e-02
      1.7889346443085381e-02 -8.5796197426835849e-02
