<?xml version="1.0"?>
<opencv_storage>
<OCRMLP type_id="opencv-ml-ann-mlp">
  <layer_sizes type_id="opencv-matrix">
    <rows>1</rows>
    <cols>3</cols>
    <dt>i</dt>
    <data>
      400 71 12</data></layer_sizes>
  <activation_function>SIGMOID_SYM</activation_function>
  <f_param1>6.5000000000000002e-01</f_param1>
  <f_param2>1.</f_param2>
  <min_val>-9.4999999999999996e-01</min_val>
  <max_val>9.4999999999999996e-01</max_val>
  <min_val1>-9.7999999999999998e-01</min_val1>
  <max_val1>9.7999999999999998e-01</max_val1>
  <training_params>
    <train_method>BACKPROP</train_method>
    <dw_scale>1.0000000000000000e-02</dw_scale>
    <moment_scale>1.0000000000000000e-02</moment_scale>
    <term_criteria><epsilon>1.0000000000000001e-05</epsilon>
      <iterations>1000</iterations></term_criteria></training_params>
  <input_scale>
    1. -1. 1.1957860442835727e+01 -1.1873640273030569e+01
    4.2664739182613554e+00 -4.0175670586092957e+00
    2.6372732355021524e+00 -2.1781728471643556e+00
    2.3973048143967208e+00 -1.8595363556207924e+00
    2.2330286736476430e+00 -1.6131069911524352e+00
    2.1943301245831806e+00 -1.5485752681058906e+00
    2.1690269044925397e+00 -1.5042388721378008e+00
    2.1456305137466090e+00 -1.4613156756377303e+00
    2.1121466685259525e+00 -1.3956184525334647e+00
    2.0715081169533240e+00 -1.3055437351710759e+00
    2.0451939447586671e+00 -1.2363832392894865e+00
    2.0446707750846680e+00 -1.2348669019615703e+00
    2.0532177204367059e+00 -1.2588280495176565e+00
    2.0731496494627750e+00 -1.3094985636529162e+00
    2.1767942698612690e+00 -1.5180578421464725e+00
    2.4561466190364780e+00 -1.9409295738177685e+00
    3.4456155584871260e+00 -3.1256857654640813e+00
    5.0040650160713103e+00 -4.7955378320467394e+00 1. -1. 1. -1.
    2.2135943621178655e+00 -1.5811388300841898e+00
    2.0349002535698291e+00 -1.2050794435097767e+00
    2.0000904112032827e+00 -1.0095537936581895e+00
    2.0057214380191031e+00 -9.2716645415180521e-01
    2.0282546882476948e+00 -8.4544340861222733e-01
    2.0568470171245736e+00 -7.8830913380816203e-01
    2.1034721790937256e+00 -7.2593123682774419e-01
    2.1365820952859429e+00 -6.9246427574650637e-01
    2.2475970330664174e+00 -6.1103823554194425e-01
    2.3389491625187171e+00 -5.6311594463269032e-01
    2.4131819875627438e+00 -5.3141558970157377e-01
    2.4178203958791693e+00 -5.2959887999888833e-01
    2.3713244037691656e+00 -5.4864190630696397e-01
    2.3240408760402218e+00 -5.7016614989130920e-01
    2.1753643245855003e+00 -6.5983582753010128e-01
    2.0479686117019869e+00 -8.0365759700900830e-01
    2.0194332100689496e+00 -1.1494578748238451e+00
    2.3584828424392699e+00 -1.8042296847255219e+00 1. -1.
    9.2303846709681693e+01 -9.2293011653136361e+01
    2.1610444401672249e+00 -1.4898243921941672e+00
    2.0008965924695188e+00 -9.7050178660453712e-01
    2.0578054689092138e+00 -7.8674403242602531e-01
    2.0767807007508434e+00 -7.5865025715889478e-01
    2.1142930080225391e+00 -7.1427811680817788e-01
    2.0717802095971161e+00 -7.6557860075263773e-01
    2.0637472100548284e+00 -7.7738758035754718e-01
    2.0895335895916674e+00 -7.4221488931850987e-01
    2.1462612497059324e+00 -6.8376018684140161e-01
    2.1669494208805902e+00 -6.6644060132728566e-01
    2.1838184707974686e+00 -6.5342801761506597e-01
    2.2439683557774366e+00 -6.1321262263761855e-01
    2.3424687230519115e+00 -5.6148857054489998e-01
    2.4402530674481877e+00 -5.2104945764623234e-01
    2.4044948387858409e+00 -5.3486532685751476e-01
    2.2463830195543162e+00 -6.1176295402817393e-01
    2.0356339714481519e+00 -8.2820839829079651e-01
    2.0556616060843402e+00 -1.2653937624493814e+00 1. -1.
    2.9204471836110777e+01 -2.9170190263348584e+01
    2.0109797183705469e+00 -1.1104177245234244e+00
    2.0047974870586658e+00 -9.3309332506017251e-01
    2.0539097113542741e+00 -7.9321081703903762e-01
    2.0858579878476622e+00 -7.4678563950409316e-01
    2.0321344684587985e+00 -8.3608772296608624e-01
    2.0000016672805234e+00 -1.0012920660818678e+00
    2.0185084335138526e+00 -1.1456143063786217e+00
    2.0088997772696908e+00 -1.0988934102684305e+00
    2.0055793624776479e+00 -1.0775368872003985e+00
    2.0051639814288547e+00 -1.0744892094403946e+00
    2.0023316607482626e+00 -1.0494671751662159e+00
    2.0000582194957723e+00 -9.9239888411886723e-01
    2.0316998295660751e+00 -8.3710135013228359e-01
    2.1509414135879843e+00 -6.7969647674361466e-01
    2.3089495280137808e+00 -5.7757617610017220e-01
    2.1900263954692947e+00 -6.4885862450575182e-01
    2.0414013614188167e+00 -8.1617713780872048e-01
    2.0007104046959840e+00 -1.0270109871740274e+00
    1.8866932938997273e+01 -1.8813780410468581e+01
    1.0498913721392844e+01 -1.0402785622992957e+01
    2.0016420847161918e+00 -1.0413520036931754e+00
    2.0193663749108146e+00 -8.7018358519751149e-01
    2.0659310765015224e+00 -7.7408756851659344e-01
    2.0534478291194689e+00 -7.9399661334892957e-01
    2.0268879100850867e+00 -1.1779694850136477e+00
    2.2725144853679047e+00 -1.6757760297078503e+00
    2.4546345262782552e+00 -1.9388702579324308e+00
    2.3950810644992493e+00 -1.8564057129813996e+00
    2.4131819875627438e+00 -1.8817663978611701e+00
    2.4154954241435247e+00 -1.8849880948123197e+00
    2.4461527217760914e+00 -1.9272892438738263e+00
    2.3721661816729616e+00 -1.8238864291534098e+00
    2.0848031328149572e+00 -1.3366820884417534e+00
    2.0105849395595619e+00 -9.0227329779741805e-01
    2.1692588083012656e+00 -6.6460447114289267e-01
    2.1194001451592834e+00 -7.0903749427209273e-01
    2.0388445275597382e+00 -8.2137744084810682e-01
    2.0009537725909365e+00 -9.6958999568674564e-01
    1.5860732347552990e+01 -1.5797430915481526e+01
    9.4736994198514193e+00 -9.3669409805620969e+00
    2.0031425498710034e+00 -9.4549080796235530e-01
    2.0367500084311727e+00 -8.2579346509229612e-01
    2.0618549962210868e+00 -7.8030525975076703e-01
    2.0259447238738657e+00 -8.5137717002798907e-01
    2.1282907588328053e+00 -1.4280208918286552e+00
    2.3725876829778692e+00 -1.8244890141082311e+00
    2.5416460382105557e+00 -2.0550367309771462e+00
    2.4976940825398692e+00 -1.9969238638548010e+00
    2.4965995963452277e+00 -1.9954626894605769e+00
    2.5766185505166046e+00 -2.1005535665380699e+00
    2.7197052755697411e+00 -2.2813726844959938e+00
    2.4607108056141334e+00 -1.9471359949107729e+00
    2.1367835811489213e+00 -1.4445048296556684e+00
    2.0030638086174108e+00 -1.0569047798726685e+00
    2.1011196696016774e+00 -7.2857230942638285e-01
    2.0794992282769766e+00 -7.5500541296639145e-01
    2.0181192847959117e+00 -8.7414721926246208e-01
    2.0011839776856206e+00 -1.0350060577160280e+00
    1.3500402469387106e+01 -1.3425919676094326e+01
    9.3776441072001564e+00 -9.2697665250302279e+00
    2.0002437841384930e+00 -1.0157359561196291e+00
    2.0136154708035661e+00 -8.8992396379568328e-01
    2.0257892578847017e+00 -8.5178743065418494e-01
    2.0053006353047484e+00 -9.2979663216970965e-01
    2.0810984921449966e+00 -1.3281996128409845e+00
    2.1818619489378794e+00 -1.5269704119694374e+00
    2.2400822222572310e+00 -1.6245132021487467e+00
    2.2562214956693127e+00 -1.6502542715712509e+00
    2.3071486221496147e+00 -1.7286688173706997e+00
    2.3646485203751770e+00 -1.8131100052929519e+00
    2.3613490699201591e+00 -1.8083626402346660e+00
    2.1190307128067931e+00 -1.4096193273243451e+00
    2.0250193297324115e+00 -1.1711785699720145e+00
    2.0018992794761394e+00 -9.5735857079302644e-01
    2.0974891139974239e+00 -7.3273008607305246e-01
    2.0564899201837754e+00 -7.8889647366599114e-01
    2.0012330100398708e+00 -9.6549685071767455e-01
    2.0171652092195487e+00 -1.1398794831767705e+00
    1.2160845584354311e+01 -1.2078050767604394e+01
    9.7275989821526370e+00 -9.6236887218667011e+00
    2.0599950792952741e+00 -1.2767665240848747e+00
    2.0074856646896420e+00 -1.0903434875594522e+00
    2.0001191866136865e+00 -1.0109770181428024e+00
    2.0000330845856409e+00 -1.0057684862501333e+00
    2.0396218042252796e+00 -1.2198465890982275e+00
    2.0840543857109952e+00 -1.3349788452664515e+00
    2.1353771933811361e+00 -1.4417994619472116e+00
    2.1548431275351971e+00 -1.4784667308889807e+00
    2.1905292300612818e+00 -1.5420358953724036e+00
    2.1935657449814547e+00 -1.5472633597363026e+00
    2.1093239905036842e+00 -1.3897917077940110e+00
    2.0067278364670065e+00 -1.0854562590022263e+00
    2.0070816873322603e+00 -9.1931362178312948e-01
    2.0532177204367059e+00 -7.9438967091904955e-01
    2.2163352587479190e+00 -6.3063700753667751e-01
    2.1144730118692365e+00 -7.1409072134614315e-01
    2.0001637303111783e+00 -9.8728588871446232e-01
    2.0406051888589629e+00 -1.2228300844142510e+00
    1.2058059732135535e+01 -1.1974549282059705e+01
    9.8902606564397431e+00 -9.7880957382842446e+00
    2.2026159955516627e+00 -1.5626964522965430e+00
    2.0965128900351377e+00 -1.3626472440573492e+00
    2.0307547597158884e+00 -1.1914206232022548e+00
    2.0234424903693538e+00 -1.1652786545078118e+00
    2.0628601420792565e+00 -1.2841116719622370e+00
    2.0743949862114630e+00 -1.3124766962882717e+00
    2.0539097113542741e+00 -1.2606988943152364e+00
    2.0469978310390649e+00 -1.2415586093413369e+00
    2.0652844017415255e+00 -1.2902269733617089e+00
    2.0222772890038274e+00 -1.1608094780172222e+00
    2.0001519325570194e+00 -1.0124022928965686e+00
    2.0272861725908395e+00 -8.4789536717233960e-01
    2.0895335895916674e+00 -7.4221488931850987e-01
    2.1568187607499540e+00 -6.7471792433368083e-01
    2.2676424472223120e+00 -5.9945190646139768e-01
    2.1133956288372380e+00 -7.1521535367270295e-01
    2.0097705751076762e+00 -9.0591841864226741e-01
    2.0416017227742853e+00 -1.2258237835415506e+00
    1.1860141222253619e+01 -1.1775217097995199e+01
    1.0120603992494246e+01 -1.0020811677038264e+01
    2.2445703567387922e+00 -1.6317201806882662e+00
    2.0886060884218005e+00 -1.3452496310799882e+00
    2.0238874995974645e+00 -1.1669603707034566e+00
    2.0283362079615155e+00 -1.1830969148210788e+00
    2.0576851689856146e+00 -1.2707455891575676e+00
    2.0676295281658832e+00 -1.2960607677433755e+00
    2.0546067047960288e+00 -1.2625737879571792e+00
    2.0435315613490443e+00 -1.2315402084711813e+00
    2.0273661977286461e+00 -1.1796753424276205e+00
    2.0015853980456098e+00 -1.0406176461960330e+00
    2.0037796876271177e+00 -9.4038163999685598e-01
    2.0634930399532156e+00 -7.7777628257891485e-01
    2.1892738768131976e+00 -6.4940663067343007e-01
    2.2497323417138548e+00 -6.0977015811917956e-01
    2.2097991137921009e+00 -6.3500272691196891e-01
    2.1162827655889243e+00 -7.1221771204876694e-01
    2.0169153135472140e+00 -8.7812406361622453e-01
    2.0092157717096253e+00 -1.1007172211021037e+00
    1.1580887033621833e+01 -1.1493884243370418e+01
    1.0180785480650380e+01 -1.0081594825069445e+01
    2.1945853866911356e+00 -1.5490130215017959e+00
    2.0613558705886597e+00 -1.2802716177115387e+00
    2.0167291394667801e+00 -1.1379759330222809e+00
    2.0226380626424194e+00 -1.1622036995697431e+00
    2.0434287962880839e+00 -1.2312384095958135e+00
    2.0965128900351377e+00 -1.3626472440573492e+00
    2.1223815457778823e+00 -1.4163327958383920e+00
    2.0743949862114630e+00 -1.3124766962882717e+00
    2.0342649906188637e+00 -1.2030316965298551e+00
    2.0105849395595619e+00 -1.1083116417621437e+00
    2.0000279033842507e+00 -9.9473156786466377e-01
    2.0326602223473866e+00 -8.3487241671481460e-01
    2.1123245662590127e+00 -7.1634061179977548e-01
    2.1541882679879389e+00 -6.7692945103929014e-01
    2.1692588083012656e+00 -6.6460447114289267e-01
    2.1153756777160226e+00 -7.1315400239469628e-01
    2.0349915184953131e+00 -8.2961915057333280e-01
    2.0002978203919812e+00 -1.0174070261484276e+00
    1.1764801613770258e+01 -1.1679179158076661e+01
    9.7809116639880394e+00 -9.6775800464555903e+00
    2.1485892399404896e+00 -1.4668617231475392e+00
    2.0447751412927655e+00 -1.2351699585740781e+00
    2.0108803296138409e+00 -1.1098907512436060e+00
    2.0160556359641775e+00 -1.1349927022049764e+00
    2.1039805896794745e+00 -1.3786148200012709e+00
    2.2503449618034694e+00 -1.6409370703983039e+00
    2.2634743460472126e+00 -1.6616702148349887e+00
    2.1725281271810237e+00 -1.5104923227248741e+00
    2.1137540529776659e+00 -1.3989136460486067e+00
    2.0759336762514327e+00 -1.3161307413351317e+00
    2.0280108776471852e+00 -1.1819549251694184e+00
    2.0020668907298687e+00 -1.0465082597042030e+00
    2.0053350809338899e+00 -9.2957720795961152e-01
    2.0280920231339814e+00 -8.4585173825508109e-01
    2.1304302484588189e+00 -6.9822294326763967e-01
    2.1105534383206783e+00 -7.1821744543862509e-01
    2.0349915184953131e+00 -8.2961915057333280e-01
    2.0021099059462344e+00 -9.5510912756960875e-01
    1.0566242695382458e+01 -1.0470738447519510e+01
    7.2345801680483826e+00 -7.0936081868421343e+00
    2.0307547597158884e+00 -1.1914206232022548e+00
    2.0129021502538054e+00 -1.1202217507164327e+00
    2.0031425498710034e+00 -1.0576517419086480e+00
    2.0155152428566221e+00 -1.1325591580648726e+00
    2.2152358813476676e+00 -1.5838715522113678e+00
    2.4095042985356478e+00 -1.8766358751947441e+00
    2.3601183208685184e+00 -1.8065889858414848e+00
    2.2537346193426235e+00 -1.6463188797005688e+00
    2.2415713944275426e+00 -1.6269087840997178e+00
    2.1935657449814547e+00 -1.5472633597363026e+00
    2.1369852584953359e+00 -1.4448920165433896e+00
    2.1026282082912080e+00 -1.3757541534235467e+00
    2.1001215224891054e+00 -1.3704161924541538e+00
    2.0272861725908391e+00 -1.1793908054184996e+00
    2.0467835890804569e+00 -8.0583544521374018e-01
    2.0759336762514327e+00 -7.5980293491630080e-01
    2.0356339714481519e+00 -8.2820839829079651e-01
    2.0171025569652907e+00 -8.7749525485542523e-01
    9.4736994198514193e+00 -9.3669409805620969e+00
    7.1506731449457641e+00 -7.0079786462204696e+00
    2.0041965382964122e+00 -9.3728360236798991e-01
    2.0104388049108195e+00 -9.0291570226420892e-01
    2.0119991071386925e+00 -8.9629494208138727e-01
    2.0007356755061982e+00 -1.0274936706584830e+00
    2.2264133577180627e+00 -1.6023172081429091e+00
    2.4081326688132174e+00 -1.8747195515399997e+00
    2.3700647912988160e+00 -1.8208796876453515e+00
    2.3266762973417063e+00 -1.7577754020062475e+00
    2.3184519009180367e+00 -1.7455746557680816e+00
    2.2631557921240315e+00 -1.6611706970479598e+00
    2.2193794340220507e+00 -1.5907419678528749e+00
    2.2577851343410700e+00 -1.6527231010389614e+00
    2.2562214956693127e+00 -1.6502542715712509e+00
    2.1058578290132863e+00 -1.3825640142823465e+00
    2.0185737101879107e+00 -8.7268540610659406e-01
    2.0560157567206057e+00 -7.8967995727078555e-01
    2.0490601402269393e+00 -8.0168064882925094e-01
    2.0336360007931220e+00 -8.3264730259025821e-01
    7.7310438905939005e+00 -7.5994555158860573e+00
    6.8427623195353489e+00 -6.6933605362939383e+00
    2.0268879100850867e+00 -8.4891842507143911e-01
    2.0399154421814663e+00 -8.1917487119413035e-01
    2.0455094545602028e+00 -8.0821514544543283e-01
    2.0096303214205977e+00 -9.0656289766631726e-01
    2.1528840503501194e+00 -1.4748481415475170e+00
    2.4040421297958097e+00 -1.8689953076226844e+00
    2.6105099632287914e+00 -2.1441176444080119e+00
    2.4253386926049569e+00 -1.8986481677406337e+00
    2.3634082420586657e+00 -1.8113267299449500e+00
    2.2926950054271362e+00 -1.7068049917148607e+00
    2.2841494839173380e+00 -1.6937401443720888e+00
    2.5177947159237708e+00 -2.0236342786629953e+00
    2.3841244191542201e+00 -1.8409168246503651e+00
    2.0906229663344060e+00 -1.3497389734521932e+00
    2.0191665898422984e+00 -8.7080855160002391e-01
    2.0498323109013730e+00 -8.0029842306115340e-01
    2.0435315613490443e+00 -8.1199135287786306e-01
    2.0211432218398566e+00 -8.6478073055596627e-01
    7.5540862609905934e+00 -7.4193027052128526e+00
    8.5562235361839445e+00 -8.4377079384295470e+00
    2.0115346388687652e+00 -8.9821314312205458e-01
    2.0224212333445926e+00 -8.6105432719108310e-01
    2.0326602223473866e+00 -8.3487241671481460e-01
    2.0134491039779729e+00 -8.9055948160453136e-01
    2.0342649906188637e+00 -1.2030316965298551e+00
    2.2472931105902489e+00 -1.6360737025332461e+00
    2.4976940825398692e+00 -1.9969238638548010e+00
    2.2958204653398724e+00 -1.7115571986587075e+00
    2.1968933359976153e+00 -1.5529629850190914e+00
    2.1623944832736282e+00 -1.4922781039048785e+00
    2.2230169330144878e+00 -1.5967414735433327e+00
    2.3576674606705739e+00 -1.8030524129908192e+00
    2.1483766082103548e+00 -1.4664643710227976e+00
    2.0073227070929827e+00 -1.0893124633044793e+00
    2.0324844629434069e+00 -8.3527739227196474e-01
    2.0493902520279934e+00 -8.0108810180223233e-01
    2.0237386737453948e+00 -8.5733922685140618e-01
    2.0035233189558683e+00 -9.4237797148211810e-01
    1.0776380849015643e+01 -1.0682772188042858e+01
    1.6607531539268379e+01 -1.6547097981606996e+01
    2.0059015771786024e+00 -1.0798291622186957e+00
    2.0003226344245544e+00 -9.8219856553561580e-01
    2.0113819058440585e+00 -8.9885325924971604e-01
    2.0111296697696170e+00 -8.9992091808449115e-01
    2.0004515719739033e+00 -9.7897436360596357e-01
    2.0126330530549157e+00 -1.1188907312205754e+00
    2.0623564184928154e+00 -1.2828297525053913e+00
    2.0116370410600335e+00 -1.1138504428548162e+00
    2.0023316607482626e+00 -1.0494671751662159e+00
    2.0029603848495734e+00 -1.0559097415611498e+00
    2.0076919264781576e+00 -1.0916338776202403e+00
    2.0174802553174969e+00 -1.1412416187786145e+00
    2.0019198416519743e+00 -9.5713340944341951e-01
    2.0258669291223628e+00 -8.5158228350594922e-01
    2.0755122156143546e+00 -7.6037957799417777e-01
    2.0475358003308557e+00 -8.0444915174402787e-01
    2.0017584566570772e+00 -9.5893605606497623e-01
    2.0145781479118439e+00 -1.1282488958431045e+00
    1.9703549474050931e+01 -1.9652665791878242e+01
    4.6160052748660263e+01 -4.6138378818504769e+01
    2.1044905249546302e+00 -1.3796900553904929e+00
    2.0037219323569957e+00 -1.0628969846603198e+00
    2.0103903243622443e+00 -9.0312991798735875e-01
    2.0313543981645656e+00 -8.3791282487971408e-01
    2.0477519350737050e+00 -8.0405331879581443e-01
    2.0304148849612451e+00 -8.4014702071703118e-01
    2.0203130113653529e+00 -8.6727135609380157e-01
    2.0719164799680301e+00 -7.6538574509442314e-01
    2.1137540529776659e+00 -7.1484040692905915e-01
    2.1070631760385701e+00 -7.2197645390968257e-01
    2.1027966649432166e+00 -7.2668545387872163e-01
    2.0739785183241843e+00 -7.6249568252040678e-01
    2.1367835811489213e+00 -6.9227875149325302e-01
    2.1648892195692122e+00 -6.6809411412694664e-01
    2.1477399106557349e+00 -6.8246647941602001e-01
    2.0790663053395013e+00 -7.5558038283027307e-01
    2.0015113700748701e+00 -9.6187199777984711e-01
    2.0870730152775394e+00 -1.3418122907236862e+00
    6.5272507496060967e+01 -6.5257183512613125e+01 1. -1.
    2.5804291828413599e+00 -2.1054775501737639e+00
    2.1806464335584232e+00 -1.5248398643863748e+00
    2.0124729942313802e+00 -1.1180930486790848e+00
    2.0020883427020015e+00 -9.5533385527451997e-01
    2.0309254536668266e+00 -8.3892788724657386e-01
    2.0405062595787258e+00 -8.1797498256383949e-01
    2.0481858307028391e+00 -8.0326198619300215e-01
    2.1359787851891388e+00 -6.9302093699527878e-01
    2.1711217971071517e+00 -6.6313639113426559e-01
    2.2007825898352436e+00 -6.4119525624733820e-01
    2.1912852191664736e+00 -6.4794547095672583e-01
    2.1119689455355704e+00 -7.1671583772078107e-01
    2.1552807222706942e+00 -6.7600775794192924e-01
    2.1511564538052550e+00 -6.7951191656179610e-01
    2.0704257091380240e+00 -7.6750843872025820e-01
    2.0062329598056854e+00 -9.2410589673406607e-01
    2.0628601420792565e+00 -1.2841116719622370e+00
    2.4334599311501499e+00 -1.9098618499436439e+00 1. -1. 1. -1.
    4.6242264908304920e+00 -4.3967877187142834e+00
    3.5882571125657972e+00 -3.2837249031063451e+00
    2.6734061885560534e+00 -2.2237065679197316e+00
    2.3389491625187167e+00 -1.7758332178860263e+00
    2.1651172812812960e+00 -1.4972069379068100e+00
    2.1373891882032834e+00 -1.4456669212850473e+00
    2.1246480732997108e+00 -1.4208381351788300e+00
    2.0441509490860370e+00 -1.2333531961852600e+00
    2.0127941613350804e+00 -1.1196891102907556e+00
    2.0089445750478432e+00 -1.0991537345108577e+00
    2.0276875418234050e+00 -1.1808144025103784e+00
    2.0955425925938771e+00 -1.3605406831361351e+00
    2.0742560127341299e+00 -1.3121452814443275e+00
    2.0808063251656739e+00 -1.3275246363746258e+00
    2.1711217971071517e+00 -1.5079854059728861e+00
    2.4013352420063798e+00 -1.8651995887259321e+00
    3.0621922042395173e+00 -2.6905163339280183e+00
    3.7457326217912099e+00 -3.4564155581524476e+00 1. -1.</input_scale>
  <output_scale>
    1.0526315789473684e+00 0. 1.0526315789473684e+00 0.
    1.0526315789473684e+00 0. 1.0526315789473684e+00 0.
    1.0526315789473684e+00 0. 1.0526315789473684e+00 0.
    1.0526315789473684e+00 0. 1.0526315789473684e+00 0.
    1.0526315789473684e+00 0. 1.0526315789473684e+00 0.
    1.0526315789473684e+00 0. 1.0526315789473684e+00 0.</output_scale>
  <inv_output_scale>
    9.4999999999999996e-01 0. 9.4999999999999996e-01 0.
    9.4999999999999996e-01 0. 9.4999999999999996e-01 0.
    9.4999999999999996e-01 0. 9.4999999999999996e-01 0.
    9.4999999999999996e-01 0. 9.4999999999999996e-01 0.
    9.4999999999999996e-01 0. 9.4999999999999996e-01 0.
    9.4999999999999996e-01 0. 9.4999999999999996e-01 0.</inv_output_scale>
  <weights>
    <_>
      -4.6222180089869102e-03 -3.0386965129628293e-03
      4.1951311306622193e-03 1.2393182417243767e-03
      3.9910867379776820e-03 -3.6096718242828603e-03
      2.7212430466679316e-03 -4.3222094542688183e-03
      4.2447361673685078e-03 -2.9648579954383437e-03
      1.8223902578679845e-03 2.2345350336514091e-03
      -2.8510467270295809e-03 3.2893528653748744e-03
      6.6332868772747005e-04 2.3070695693070183e-03
      4.4132864887138209e-03 2.4871913685018442e-03
      6.6752844171497007e-04 4.5411576321843479e-03
      2.6542105002752810e-03 1.3940396294657149e-03
      3.9125175763899530e-03 3.0413716111723937e-03
      -1.3362404417424599e-03 -2.2059426488131306e-03
      1.5680867236652495e-03 2.6706976345374977e-03
      -3.8907308630967393e-03 -1.4327270612453627e-03
      -1.1536972816925295e-03 -4.6264017750555914e-03
      2.3060224160819263e-03 1.3092783029316777e-03
      -1.8383566451348704e-03 3.9834846521900739e-04
      -2.9908813254164806e-03 4.1617280994612621e-03
      -4.4932590840112627e-03 -4.6598758093927663e-03
      1.2861381847023793e-03 -4.9377651111871367e-04
      -2.9506613804476368e-03 -2.9307322729695330e-03
      2.0694142749792597e-03 3.6126918873206678e-03
      4.8341336313847258e-03 1.6555333764410316e-03
      -1.8915031729696118e-03 6.3986230241183998e-04
      -2.6937071349175212e-03 -2.0456329913700453e-04
      -3.8397497722587183e-03 -2.5998439387365066e-03
      1.2625594265404177e-03 -1.8229237608033452e-03
      -3.5485943055033461e-03 -3.1430571140462818e-03
      -2.4621547577512448e-03 -1.5562364787584315e-03
      1.4445438086689406e-04 1.2770301559855831e-03
      -2.6479797593721962e-03 4.6089118174772199e-03
      6.0508296790771606e-04 -3.5366100449358020e-03
      2.8279673052315117e-03 2.2773199135432201e-03
      2.0550586343381430e-03 4.1439216670294734e-03
      2.7619788321109734e-03 2.5962508614721724e-01
      -5.8430766415833224e-02 2.3406182443033208e-02
      2.2935532291420039e-02 -3.3226230867800750e-02
      -5.4804923831758952e-02 -4.2994597173859325e-02
      -4.5071424128856695e-02 2.1067856757281595e-03
      -1.4863679008219078e-02 4.5148131442204732e-02
      -8.3540160197395526e-03 3.5413053793839154e-02
      5.0045259824493385e-02 3.6831392342693108e-02
      -2.6535343158818347e-02 7.7248495342493884e-03
      1.2267398742512679e-02 3.0676422034065183e-02
      4.1751218032606258e-02 2.0208045316021783e-02
      3.5564745097461048e-02 -2.2128659411434597e-02
      -3.7314512819223031e-02 1.1741280658071736e-02
      -5.7734448193154680e-02 1.7709787401952354e-02
      3.2927642688801571e-02 1.8592112310073503e-02
      -2.3883969873793275e-02 8.6735868785044259e-03
      1.9258903154067818e-02 9.9917294729835626e-02
      -4.2373246727443664e-02 8.8943284851419717e-03
      9.4518262808179054e-03 1.0482674834264438e-02
      5.3338055501571564e-02 -2.2515013116126553e-02
      -1.8234776246572250e-02 -3.9083661322993062e-02
      -2.6742519817736447e-02 -1.0185302190472217e-01
      9.1079668701614218e-04 1.1176721426879338e-02
      -5.2874534791457629e-02 3.2317820017475282e-02
      -5.6514330144435236e-02 -5.7768138696380686e-02
      1.4579020386757666e-02 -4.5400640940144749e-03
      1.3271624384369686e-02 3.0365444015859895e-02
      -1.8474145098740472e-02 4.0143991790910355e-02
      -9.9972097842042848e-03 -3.5270190464749683e-02
      -1.5978100636114666e-02 -3.9741625677105825e-02
      1.5727357448270033e-02 -1.4208415228640282e-02
      -5.6938973867457533e-02 8.5714425368758947e-03
      -6.0582713294997655e-02 -1.9921583796608830e-03
      -2.4482364268814562e-04 -6.4387633172680828e-02
      -3.1015512076533629e-02 4.0078478211288633e-02
      -1.7441032404959679e-02 -2.3064008921876798e-02
      1.3810450380392858e-01 -2.1836814434297951e-02
      -2.0554472491342554e-02 9.8903878986603203e-03
      3.0686992178065534e-02 2.3258204267965502e-02
      -3.5472652739029914e-02 1.9021971425829849e-02
      1.6783493986964151e-04 -3.5534379002958742e-02
      2.7958765076303401e-02 4.3808204060165647e-02
      -8.6668595767067889e-03 3.2799296246939259e-02
      -1.5551307757890598e-02 -1.8368832645337237e-02
      3.4159982078125949e-02 -2.1459701266744322e-02
      1.3090688983308023e-02 6.5605061904819420e-02
      2.4479824276135147e-02 3.9508120461523098e-02
      -5.0398820529501016e-02 2.8795498674947559e-02
      2.9283465285869101e-02 -7.0096910801143775e-02
      -2.1128914510858895e-02 -1.8719307423557249e-02
      -5.4100240828161436e-02 3.7450841676959605e-02
      8.7049824731872932e-03 4.4124040383781017e-02
      1.2740201232904739e-02 -2.2048596787457519e-02
      -3.0970591971962644e-02 -1.3120635602351232e-02
      -2.8904069190538013e-03 -1.3253010718014250e-02
      3.1634586490319527e-02 -5.4140036901478769e-03
      1.6769363529110015e-02 -9.1637921240811548e-02
      -5.0607127238956710e-02 5.5503356728118930e-02
      2.6923326021058933e-02 -1.4050356954876573e-03
      9.1080938598522582e-03 -1.4395412907886575e-02
      1.0517330756301898e-02 1.3008596376661793e-02
      -7.4077616210678057e-02 -4.2102489251346432e-04
      6.6668803063852852e-02 7.1926463002650390e-02
      1.5431617401746979e-02 6.6322419315721706e-02
      -3.1692431528162660e-02 3.2982286207335836e-02
      -3.6299452624463545e-03 -3.6858754815580430e-02
      1.0835823155298696e-03 -3.8682452904644865e-02
      -2.4260423666741748e-02 -1.1610165590813589e-02
      -2.4674364842763530e-02 -2.5592763254657369e-03
      -3.1770413127898869e-02 -3.7047417859305765e-02
      -1.1045398915182937e-03 3.7478282030831292e-03
      2.6029062813857733e-02 3.9648562306357341e-02
      3.7579658274879812e-03 -2.7269810878020152e-02
      -8.8747142480764662e-03 2.7467101752319385e-02
      3.2333939747246472e-02 -2.7723082608022705e-02
      7.5947229736385031e-03 -1.7106933936543531e-02
      5.5515122032417904e-03 9.1122902082619844e-03
      2.2134290620062461e-02 2.0769146276745545e-02
      -3.1569769461262054e-02 -3.5826002372183689e-02
      -6.1684947003773664e-03 2.1066749681795838e-02
      3.7116839623254162e-02 -8.5568937807682446e-03
      3.3358114881502248e-03 1.9673445136340298e-02
      -6.0754036172347155e-02 1.5557308047405453e-02
      1.4418489796876568e-02 -2.4996581094248399e-03
      -4.7128310814603114e-02 -8.2011570281253152e-03
      -2.7949091256339282e-02 -7.6411904033224301e-02
      -1.0001841536752456e-02 -1.3773935563649069e-02
      1.4516023145993396e-03 -4.2891556652085256e-03
      1.2510053199005706e-02 -2.0989135857072894e-02
      -1.8213366720039956e-02 -2.2583449810086805e-02
      8.2815283210457037e-03 -6.4927329110172523e-03
      1.3520282830585109e-02 -3.3655392213847120e-02
      -6.2922578380497030e-02 3.0784710152898458e-02
      -2.7942849548839147e-03 2.4993388821589826e-02
      3.9453178721251508e-02 -3.2727179347767303e-02
      1.4535103776655955e-02 -1.0718509724803475e-02
      3.2328848123034305e-02 -1.3296284024576647e-02
      -6.7695752297166198e-03 1.7391814158421150e-02
      -1.6581200406485440e-02 5.8673374188628530e-02
      6.6510443815164175e-02 -1.4683823080292779e-03
      3.1497109599131635e-02 2.0753768908407206e-02
      3.5118939281793889e-02 -2.1389224371881552e-02
      -9.7400380986122359e-03 -3.4616881804490934e-02
      5.8785678141294023e-03 -1.3321769332225925e-03
      3.1927086311474603e-02 -4.0568829089298861e-02
      4.6963450784578836e-03 -4.3657918034615918e-02
      -2.1818396508159966e-02 -3.8456165571806256e-02
      4.0463190299779080e-02 1.5816946042184157e-02
      -1.5002202772062566e-02 -5.6114168775394893e-02
      2.7454353106979364e-02 -4.2949369227169139e-04
      -1.3890183581494910e-02 3.8373969582616255e-02
      -1.0436704821678846e-02 -2.0391851732243362e-02
      3.5460455612979546e-03 -2.0910616191674013e-02
      -3.9309261241716680e-02 -2.7139692464199342e-02
      -4.3041263947417854e-03 1.6593613319979304e-02
      -7.2548102292025862e-03 1.7670759355224681e-02
      4.2322831169904198e-03 6.6692033131879802e-03
      4.5543702721747618e-02 -3.9831600651247447e-02
      -2.2112178325600991e-03 3.3218538247768131e-02
      -5.4625846119138654e-03 -3.1548771468895669e-02
      -2.8094869985246070e-02 -3.4277612494849279e-02
      -5.1175445970238334e-02 3.1551321531957159e-02
      1.2589166038049299e-02 9.6007997280581400e-03
      -6.0775746938564320e-03 3.6342128109298509e-02
      -1.9561691543820058e-02 -3.8591944237155347e-02
      -4.2908081822073486e-02 1.1285482841641083e-02
      -5.5344224318873312e-03 -3.4447640190685470e-03
      6.0502494973064085e-03 -4.2498556398775686e-02
      1.8325232176547034e-02 1.7323517603421778e-02
      4.3751142041377630e-02 3.5797923706592391e-02
      -9.0846806311853101e-03 2.4956699312478247e-02
      1.6464622587559635e-02 3.1342453758530904e-02
      -9.6534664810038057e-03 -1.4038269257387008e-02
      1.3322869221963690e-02 2.9125232719237309e-02
      7.4065207460864953e-03 7.6843550948516914e-02
      -1.4293007091375341e-02 4.4340582010041957e-02
      -2.5624928382800335e-02 -1.7382460853468933e-02
      -4.9436562141727834e-02 -1.9583930898725278e-02
      1.2001409333795624e-03 2.5278223356281704e-02
      -1.8311469257881990e-02 3.7225540505160817e-02
      -4.9345645105440109e-02 -9.2559781962643379e-03
      -4.3673225641355506e-02 -1.0785660011025915e-02
      -4.5336058722187801e-02 -4.8265294245442347e-02
      6.7235646612000155e-02 -6.1593743973543572e-02
      -4.0446377087188241e-02 7.2320300086941486e-02
      3.4237312846145694e-02 1.7784143799527335e-02
      1.2765129681923814e-02 3.6649062453169485e-03
      -1.5127980358038071e-02 -5.8098154613321490e-02
      8.7105693041905925e-03 1.0406134971738324e-02
      -1.3780324640715807e-02 -6.6137668097576222e-02
      -1.7230676519437153e-02 1.3732707411298893e-02
      2.4490055203012458e-02 -1.0556982569098905e-02
      -2.6974751136530847e-02 3.7809483912591660e-02
      -4.6821359463207222e-02 -1.1477902020329974e-02
      4.5673669017835226e-02 6.0027755674380194e-03
      -8.3742230360326110e-03 -4.0192389920048390e-03
      -4.6316809002402932e-02 -8.2575057056038709e-02
      1.0231816406747606e-02 -1.7933246362845972e-02
      -1.5977842061308471e-02 -4.8644724624184482e-02
      2.7627702267181871e-02 -1.8568834715720770e-02
      -2.8770544635755801e-02 -3.8187537317645362e-02
      -5.7365614770461391e-02 2.7067827944723759e-03
      1.0862909196236803e-02 4.6679561255470577e-02
      -3.6007062872985468e-02 9.5514459903375832e-03
      -1.7421237486238431e-02 2.6087908926596168e-02
      7.2749964698477124e-02 -5.9212304723098214e-02
      4.4384160394094277e-02 3.9862585449568812e-02
      4.3772929793872775e-03 -4.8983495272543837e-02
      -4.4348456048684468e-02 -1.3865650960462370e-02
      2.5329238907221482e-02 5.5803163677695848e-04
      6.1882923957691044e-02 -2.7137509666210383e-02
      2.9121159878148176e-02 4.4733737991051528e-02
      -2.0918011873580084e-02 -3.2021778994296382e-02
      5.5423923826774517e-02 -4.5283834119624618e-02
      7.5965696545823150e-02 -7.6833373763858480e-03
      3.4564828549315731e-02 1.5406542182507914e-02
      3.4265051277128408e-02 -2.3740930515881910e-02
      2.2442572404869247e-02 -1.1862624643211200e-02
      -3.7703188361236553e-02 5.1200631618275975e-02
      -3.9574609485139883e-02 -4.4107879428747179e-02
      4.1005140093773575e-02 1.8806377165941482e-02
      1.8710892906883277e-02 2.4609231345020539e-02
      8.4394679923362522e-03 2.3161168277053851e-03
      -1.3641257439910497e-02 3.5147961306651780e-03
      -6.8664120719904411e-03 4.8479820104925398e-03
      -3.9926017638616668e-02 -8.4969856877111435e-03
      1.2176071021138422e-03 2.5375630610079566e-02
      4.1223411224576605e-04 -2.0679867785380990e-02
      4.3822041774479591e-02 -4.9956297657006883e-02
      9.0976089904332876e-03 3.0622863123699065e-02
      -3.2567534951129046e-02 -1.2207055785052752e-02
      4.8174279129246508e-03 -3.7292068663058425e-02
      -6.5848977934186578e-02 -9.4885866592459023e-04
      4.2424876681443962e-03 -2.9124878094900830e-02
      -4.7038781242329762e-02 1.8716307380422625e-02
      5.3895013370757437e-04 -2.1447061540570571e-02
      -3.6438311267515788e-02 -5.0014979334724104e-02
      -1.4239379110029126e-02 1.5740764479216879e-02
      1.1439698548823513e-02 1.1488970840880092e-02
      7.1722412077330220e-03 -6.5128891728494526e-03
      6.1644709500528567e-03 6.6726389212645246e-02
      -2.5503439670811853e-02 3.7822487237009976e-02
      7.7476775657396154e-03 9.6225389120915238e-03
      -1.7722099708681733e-02 -2.8914202113178852e-02
      -1.3888982732192360e-02 -3.9183832374109174e-03
      -7.0375685632098114e-03 6.2394757468706367e-02
      -1.3154133343048623e-02 1.3586670391696348e-02
      -1.2365178415767524e-02 -7.7288932561626663e-03
      -3.4604203316176099e-02 5.5676527628363344e-02
      -2.5017446599382976e-02 3.6810241676797466e-02
      1.7805517196730521e-02 2.4791306279164142e-02
      1.1339082551360237e-02 3.8790623753985190e-02
      -4.5310691640719346e-02 2.7701866890639915e-02
      -4.2741669892463141e-02 -7.4797150281016550e-02
      3.7154170952769384e-02 -8.1355696839225805e-03
      -5.3478608215042370e-02 3.3544987151667316e-02
      1.7649343101109244e-02 -4.2938106198326005e-03
      1.6975112769767136e-02 2.8298764120578509e-04
      5.0923916431087398e-03 -5.5739215747712045e-03
      1.1643681835259486e-02 2.7867978036255885e-02
      5.6321532299369028e-03 -2.0662294872915692e-02
      -2.5896670069447295e-02 2.3279907936151464e-02
      5.2678463102566665e-02 1.9039307795106243e-03
      -5.4011794038162962e-03 2.7285840953946074e-02
      -7.4215594314231262e-02 3.5722269494232836e-02
      1.0795022606440767e-02 -4.2440004624629400e-02
      -1.0507877375788666e-02 -1.2515097057281767e-02
      -2.0184926901745687e-02 -4.2423542532166035e-02
      -1.9128788157698761e-02 3.0323833631592579e-03
      -2.8889593934341078e-02 -2.6286401213662474e-02
      1.7020365942453569e-02 1.1884387771823197e-02
      -2.9872071565422716e-02 -1.0228915587044050e-02
      -3.6356984084924777e-02 -1.1065619663088439e-02
      2.9878102445437166e-02 -2.0484040838834629e-02
      1.4302694415097577e-02 2.0764307298486433e-02
      -5.8727962026760621e-03 8.8436527088959736e-03
      6.5747244247053402e-02 -1.2144326724547091e-02
      1.8922903264019408e-02 7.6162531181823328e-03
      1.0124889870996641e-02 -6.3695411659736943e-03
      -3.0402372255360161e-02 -5.4279232977571981e-04
      -4.1839150176477373e-02 -6.3997893122362136e-04
      3.4312029977344574e-02 5.1358544820659388e-03
      2.8663570692408449e-02 -1.5046316922719393e-02
      -1.9824081982916645e-03 -3.9852420412574391e-02
      5.4545417036863997e-02 -2.1621959651771328e-02
      3.4759894158285315e-02 2.9900175402819688e-02
      3.7114097123299890e-02 1.6207471373348464e-02
      4.1651653541930372e-02 -5.1212261778967573e-02
      1.4699422781560839e-02 -5.9380395110788527e-02
      -5.3696976786048638e-03 4.8383349231039506e-02
      -2.5969145961846716e-02 -4.4095573028277955e-02
      1.8398805380327374e-02 4.0382464219993676e-02
      -6.9011282929713775e-03 2.0513971062424592e-02
      -1.9264434072036837e-03 5.4732159620216898e-03
      -1.8496164502151618e-02 -1.5118900683687026e-02
      3.6022139207393007e-02 -3.8456793465818785e-03
      -1.5119583973138355e-02 -1.7097142131518941e-02
      6.1406416573630950e-03 4.3559984423647211e-02
      -1.3723111621817165e-02 -1.7077095048016300e-02
      2.2973610192922825e-02 -3.9499512954364227e-02
      2.2396179781261707e-02 -4.2588091147660826e-03
      -4.8978202421331232e-02 -9.3007858656618710e-03
      1.3893527768525289e-03 -2.5977054099542842e-02
      -2.9155325959962189e-02 -2.1832708936434589e-02
      -2.5822707028274792e-03 -5.7245454474805897e-02
      5.8463687249975353e-03 4.1660864474215256e-02
      2.8790917614509089e-02 -2.6930871749714213e-02
      -1.6217955320319586e-02 -4.0946463837325572e-02
      -2.6318021715805936e-02 1.4428196626653391e-02
      1.2970875621665893e-04 2.4725757828346677e-02
      2.1127728104190970e-02 -1.6078092089173838e-03
      -3.0781943750613851e-02 6.7394210915176833e-02
      -1.6147823633481054e-02 2.5522824977912081e-02
      -6.6140160698283526e-03 3.8373512335128881e-02
      -3.7108888578749374e-02 -1.1573565414406134e-02
      -2.4619919595619412e-02 -5.3205893598243070e-02
      -5.6641515791775671e-03 2.1297670682816374e-02
      -9.3439229811716328e-03 1.8968183442101976e-02
      -1.1609919691052434e-02 -1.0752555465306859e-02
      -3.2430885752702476e-02 2.8962104031581254e-02
      -2.8870800080775545e-03 6.2912208659520316e-03
      5.5672394589421970e-02 4.0191609302171784e-02
      1.1022879185934628e-02 5.6155728510285191e-02
      -5.2587342578265840e-02 6.0376043796891796e-03
      -5.1264268672487602e-02 1.2172954663565802e-01
      5.3509733189499573e-02 -3.4499902589907143e-02
      -1.6483506624629624e-02 2.2977406627008205e-02
      6.6377644454011938e-04 -6.2091873002185008e-03
      3.6596424074461331e-03 3.8598151520782449e-02
      4.8110931704423855e-02 -2.2748944639644900e-02
      -9.1371398492144460e-03 4.4110570107943996e-02
      5.3498421093280311e-02 -4.7937040041224843e-02
      -2.0765063183965031e-02 -6.4502057687023774e-03
      6.4491257317225409e-02 2.2016724948967677e-03
      -5.1362591916392905e-02 1.8048725474972160e-02
      -4.7543079900544460e-02 1.8132449061827868e-02
      -3.7772359739308183e-02 -2.7246845937622475e-02
      -3.6745773724366007e-02 3.6104581475377401e-02
      -1.5879293443332127e-02 -1.7221942166330512e-02
      -3.2428607386343019e-03 -4.7621198978018160e-03
      -4.6259335273268011e-02 2.0655717493863184e-04
      3.4738205130160162e-02 1.6042846742653449e-02
      -1.3397990061142584e-02 -1.1391852217805568e-02
      -3.3616948884168205e-02 -2.4451225162824573e-02
      4.4296663358571221e-02 -7.6307409294910896e-03
      4.5192496437693679e-02 5.0172664812133750e-04
      -1.1174508520757428e-02 6.2568845933372351e-03
      4.1092296689052774e-02 -4.6304900749902518e-02
      5.9172859289303131e-02 6.3740697342260901e-03
      1.4877881807191816e-02 -1.8232946504251696e-02
      5.5134757998377762e-03 -3.7230063243298896e-02
      -7.8072683156022671e-02 -9.1344747559353023e-03
      4.7690418891707248e-03 -2.6532322937738943e-02
      2.5506164663900545e-03 7.5730382370817612e-03
      4.1993049640063070e-02 -2.6729448415924416e-03
      4.4033212386113726e-02 -1.9080994933704080e-02
      1.8548603888353908e-02 5.1214785734693014e-02
      5.4574637254275037e-03 4.3628231873982445e-02
      3.4237297215265222e-02 -5.6234181953247468e-02
      2.0778675917743360e-02 -5.1818014647924737e-02
      -1.0330930631489056e-02 4.5178482988770731e-02
      -1.6806467756649637e-02 -1.5821294092398411e-02
      1.1439588391444327e-02 2.3206898824639291e-02
      1.2345341162666232e-02 1.3762654949837498e-02
      6.4598992224674844e-03 2.0934174049856053e-02
      -4.8813614947013820e-02 1.7289463817237734e-02
      6.0676679629372288e-02 2.1845527100665528e-02
      -5.2000777559290577e-02 -6.1826046225218400e-03
      -2.3864009008242636e-03 3.0525829837054000e-02
      -6.3689153247090246e-03 -3.0572057663968481e-02
      -1.9856881642214469e-02 -3.2926495693206187e-02
      -1.6109607496585219e-02 -4.6685564405564055e-03
      -2.9565598204083735e-02 -4.3202583191470009e-02
      3.3986330749827424e-02 -1.1951998137641896e-02
      1.5254008430679474e-02 1.0259610076909346e-02
      -4.9854957842663363e-03 -5.0997214945046630e-02
      -7.7524632272126838e-03 2.2561772134538922e-02
      4.8043359133369918e-03 1.5949353939113356e-02
      -4.0726415240469969e-03 -8.6235733155661659e-03
      -2.2747378631722735e-02 2.6552883952661390e-02
      1.0855033567965032e-03 4.6473044281209096e-02
      -9.9714784329211423e-03 -1.0673853482741760e-02
      -1.1722884733449682e-02 2.3652474221964020e-02
      -3.7251027628304477e-02 4.8758744327524223e-02
      1.0042169404579337e-02 1.2221087209760072e-02
      -6.9930859206892518e-04 -1.3311856888494436e-02
      -1.0979806833225686e-02 -4.3002340949258228e-02
      -4.9290294826045472e-03 -2.1712294207023471e-02
      -3.4800913841718079e-03 -1.8674859269061869e-03
      1.3040572005690195e-02 -1.1249694038928222e-03
      -2.0395108375700606e-03 3.0490650496779566e-02
      -3.5959809360808608e-02 2.3379522087300843e-02
      4.0556850488443076e-02 2.4034167127398854e-02
      4.2978345505125214e-02 2.0565203393669976e-02
      -2.5492908309029956e-02 -2.2833071898304288e-03
      -4.6786998907200693e-02 1.0625033784606791e-01
      3.2910809081184975e-02 3.5463318893223968e-03
      -2.0653931561169906e-02 5.0256295084296502e-03
      6.9668360544271248e-03 9.6960436415456114e-03
      3.5603213485125330e-02 1.4745641624723617e-02
      -2.6067770989640577e-03 -2.4305040140029793e-02
      3.2516047227038568e-02 3.1453225673469615e-02
      4.0353700426341621e-02 -3.9793307339187102e-02
      -6.8889972696025495e-03 -2.1254226436340354e-02
      -2.5743743712263014e-03 3.2376312687137027e-03
      -3.8632986873465905e-02 -6.6136739771400457e-02
      -1.6373382970030659e-02 -2.5287206862541860e-02
      -2.1139501219594976e-02 -3.1052185954556163e-02
      -2.8601812966370717e-02 2.4355890839931123e-02
      -1.2319195438281480e-02 6.2913557189449090e-02
      6.1871477465688149e-02 -1.8652943972080559e-03
      -4.1621658031708642e-02 5.4210061768856046e-04
      2.3574412776552194e-02 7.1399211312269829e-03
      1.9753417456528331e-02 -4.7009004372284410e-03
      3.2542326303170804e-02 -4.3713263881455834e-03
      3.8298453152859104e-02 -1.0808117510982809e-02
      3.6420250094816781e-02 -7.1251185677876803e-03
      -1.6533329984643106e-02 -3.3846694385379511e-03
      -1.1277653463992513e-02 -6.4748959770736886e-02
      4.4069450486635804e-02 1.0416296152215294e-02
      1.3629326166835825e-02 -1.5248822049580828e-02
      -6.3092717272703715e-03 -2.0873837901293591e-02
      -1.6309283462692267e-02 -2.9210537400902990e-02
      -4.2396346095499388e-02 -1.2090684842368783e-02
      4.1065725604953725e-03 6.4343515423383258e-03
      -7.7100072463044548e-03 -2.2612060644819445e-03
      3.8095099822897951e-02 -2.2414025977799078e-02
      1.1005727112400991e-02 3.1225544158634520e-02
      1.5977207009819965e-02 2.0060510495974366e-02
      -1.0706995681598334e-04 -2.7533977207864126e-02
      -4.1651744283730035e-03 -5.7057009696187447e-02
      -4.9433175144436934e-03 2.0785387826315140e-02
      1.5753823776191042e-02 -2.7256474996920393e-02
      -4.5199545784818272e-03 1.7534464585569939e-02
      5.1462929394361515e-03 1.5137248708551893e-02
      -1.4160293326964130e-02 -1.6166584209910625e-02
      -3.2995788249100100e-02 5.9939458941104390e-02
      5.8932496979568011e-02 2.3499166502617207e-02
      -4.0653977510188677e-02 9.7857178942898273e-03
      8.0706534046878537e-04 9.5797766925552995e-03
      -8.0719292562415456e-03 -2.3695392323708458e-02
      -7.9719236876067093e-02 -2.0014505878691875e-02
      -2.0828134422089108e-02 -1.4149478676738828e-02
      -2.3151042962509898e-02 -3.0039530141751009e-02
      -2.2360687414545383e-03 -9.5378492954457834e-03
      8.5084529757210758e-02 4.1843798223098215e-02
      1.6082398194183336e-03 -4.0070722808881271e-02
      1.1826824606932027e-02 3.0443294386333676e-02
      -5.1334194596947664e-04 1.6844166769281431e-02
      1.1798173925939159e-02 6.0436406297105130e-02
      2.7454573369784093e-03 1.5948716059494588e-02
      -6.8786272454943098e-03 3.8031349536362904e-02
      -1.6013576265572118e-02 -2.9959134824147079e-02
      -3.4649011021285444e-04 -1.1222607181499934e-02
      -4.7704655114602382e-02 2.7391785254818633e-02
      2.4052863749130127e-02 2.5246250014727710e-02
      -2.3484567815741913e-02 -2.3904290603935313e-02
      -3.8726150046621919e-03 2.4932174137594740e-03
      -1.8103225441972601e-02 -4.6217045186011871e-02
      -8.0548528681928470e-03 3.0490515289001364e-02
      2.0442697498995032e-02 -1.5021586658913741e-02
      -1.2293427747753395e-02 2.6434832890684663e-02
      -1.6659111105190649e-02 1.1156871474510730e-02
      2.7403395719998926e-02 4.1740659095316102e-02
      2.2549158870923441e-02 -6.3412029994492922e-03
      -1.9047075219560613e-02 -2.0253862270890849e-02
      -4.7258247734084907e-02 9.5030971495494138e-02
      5.2823656135048635e-04 4.7335511043798420e-02
      -3.0422772709572908e-02 -9.7172018850173007e-03
      -2.3523251027157445e-02 1.1278014806929164e-02
      5.5584850574852122e-02 1.1823338630514811e-02
      -5.6221521504373874e-03 4.7578966349268005e-03
      3.4258371900310204e-02 1.3777731638304147e-02
      3.0817634868302829e-02 2.6002344471964317e-03
      2.0962048432020173e-03 -3.7390823761046889e-02
      -1.6766888369112887e-02 1.5333525553162631e-02
      -9.2420321093424455e-03 -6.2461820111645347e-02
      -2.5206428039764802e-02 -1.7746867943669167e-02
      -2.2188217402296141e-02 -5.5744675026011589e-02
      -3.2616970750381093e-02 1.1619488176272693e-02
      6.0924708235261610e-05 4.2055243768824038e-02
      7.4144187846102785e-02 1.5278493338982860e-02
      -3.0417971638284292e-02 7.4550194256772073e-03
      1.1315127275438864e-02 1.4177170937439594e-02
      2.6128443236156380e-02 -7.6964368902633449e-03
      2.1374924189289359e-02 -7.6142622141125334e-03
      3.1566103231444188e-02 -2.8432309152840646e-02
      5.4568909762060580e-02 -2.8539247428104663e-02
      6.1406830723828749e-03 -1.8833850417418019e-02
      -1.5917882785623488e-02 -2.1835459093218768e-02
      1.5936520603664989e-02 4.0448548622011981e-03
      1.4672620568725921e-02 3.4074642073823043e-03
      1.2487658647264536e-02 -3.9737069209036637e-03
      2.0372817966539812e-03 -3.7375659354029873e-02
      1.7641379733530224e-03 4.8974708965735204e-03
      -5.2035041060344194e-03 -5.1715205215473778e-02
      -1.2428834099260686e-02 -2.2581314020022804e-02
      2.2433838656228021e-02 -8.5316076779232003e-03
      8.5297563970047428e-03 2.3505518373648452e-02
      1.7249940060866442e-02 -2.1801039029784464e-03
      -2.3109856980223588e-02 -1.2428102828878469e-02
      -1.9355163608092120e-02 -5.9827073486348956e-02
      9.7149760586569739e-02 1.9522743800304453e-02
      3.2283133908161982e-02 -4.1012040922882589e-02
      2.7628229324947037e-03 2.2090341091047398e-02
      1.8085078678587337e-02 2.7144657958701583e-02
      -2.0283861859673007e-03 -3.0550742957029833e-02
      -2.4011611426418892e-02 3.0876823495356562e-02
      2.7657609103530125e-02 2.4922554774145386e-02
      -2.9554712244948642e-02 1.2532217326414838e-02
      -2.7498066810758871e-02 -2.7652313061643636e-02
      -2.4610616279710814e-03 -2.6833169768088708e-02
      -5.6085684677235771e-02 3.5067390307397151e-03
      -5.7967103230994028e-02 -1.0420375732956426e-02
      -2.7102369691382959e-02 -4.7504029677633973e-02
      1.5893604641569366e-02 7.0656480859405020e-03
      2.5623991217637442e-02 9.0434026770511364e-02
      6.5855749521497951e-03 -2.5415061632024519e-02
      8.5076652885077261e-04 1.7302436090286102e-02
      1.1240494152957782e-02 3.9561775904288984e-02
      -7.6043559016105164e-03 1.7810500833162771e-02
      5.2902968363491938e-03 2.2629106784701095e-02
      1.8913718217826076e-02 1.4549978175056792e-02
      -3.2992610632214502e-02 -9.9117873637132210e-03
      7.4110899953756691e-03 -3.1552757889275584e-02
      -5.2751834484893255e-02 2.2601650945268521e-02
      1.8918900636305042e-02 5.0114401763083297e-03
      -2.2674412254088651e-02 -2.4011771612790993e-04
      7.8100546044426377e-03 2.8930901699747484e-02
      -2.0568416103448721e-02 4.4403471548171321e-03
      -2.9851920229932865e-02 -1.0150862250999114e-02
      -5.6441219828504141e-03 -2.4693308064818054e-02
      -2.0402903044357802e-02 1.1701167244202197e-02
      -3.1281706060586091e-02 3.4964775213700824e-02
      -1.4265341533688700e-02 3.3505993321639511e-02
      9.3074027453318928e-03 -2.8858708956400143e-02
      2.0115615228295317e-02 -3.5544617164966321e-03
      -4.0195355419715202e-02 1.1230257466455727e-01
      -1.3649137205959762e-02 1.7842510160746169e-02
      -3.6284278900755411e-02 -1.7958312217268588e-03
      1.5263956279645840e-02 -1.0974595226141559e-02
      6.7793048112981067e-03 4.2887114541332871e-03
      -7.0196928892655381e-03 -6.9155791267259828e-04
      9.9851887501203416e-03 2.7156760649519633e-03
      2.0157779688911314e-02 -2.7646604054974391e-02
      4.2942448277661971e-02 -2.3908997707347071e-02
      -1.3659322133654849e-02 1.6132083729248774e-02
      -2.4338193281334803e-03 -7.6807236946168103e-02
      -3.4464840165703760e-02 -4.1777375251023253e-03
      -1.9426982416257683e-02 1.9926705013337691e-02
      -3.0616353597678059e-02 3.6194275929126606e-04
      -1.3733526960440256e-02 3.3784309445637727e-02
      5.2539172770371914e-02 2.2102212422667272e-02
      -1.8863464212103855e-02 3.0523299299167254e-02
      1.4402435103443911e-02 -1.9631876174192403e-02
      1.8565638671738494e-02 -1.1908349149072942e-02
      5.1126236702507884e-02 -2.6980775955236073e-02
      -1.0179440168064154e-02 -3.5939477664730627e-03
      7.2672618192034227e-03 -3.6764260542225487e-02
      -2.3105943706901926e-02 1.7190867104056962e-03
      -2.9343058757066022e-03 -1.3211949957081930e-02
      3.2116163665563628e-02 6.4530553851734835e-03
      3.9356678727099505e-02 -3.6840738623472682e-03
      2.1812093220315201e-02 3.2904005942370890e-02
      2.4852415086238221e-02 2.5725510385552590e-03
      -4.8127072865104502e-03 -2.4657568603690418e-02
      -5.4716306241947687e-03 -1.1737833162876944e-02
      1.0080782924056090e-04 1.7340859813270285e-02
      -5.0023453000825446e-02 -1.9285369446337918e-02
      2.4751747271194093e-02 -7.8539796787735761e-03
      8.4062404898187105e-03 3.8237164002463773e-03
      -4.6857605382213875e-02 -4.8951743485428724e-02
      -1.5997689988313319e-02 -3.0585876657933685e-02
      6.7231155180661806e-02 -1.1137317039374588e-02
      -2.5503063806446347e-03 -6.6602639769799393e-03
      -2.5334286229117707e-03 -2.7900897884949278e-02
      -1.9564643096979265e-02 -2.2170114359602402e-03
      -1.4069589677373946e-02 2.0455394631457530e-02
      -4.2591034905613420e-04 1.1031787795595077e-03
      4.0133616248178038e-02 1.9610274464897100e-02
      4.0067490627419076e-03 5.9522838737476904e-04
      -8.5168753193448909e-03 -2.8309175860543705e-03
      2.2440348617657008e-02 2.4606688601921563e-03
      -3.2855656040549928e-02 -4.7598845752218684e-02
      -3.3544535879851241e-02 -1.4995700565434153e-02
      -2.0874990048329885e-02 -2.6388459342941147e-02
      1.6052878997125371e-03 -6.6758367290075168e-03
      1.0774832624012080e-02 1.4818301009795906e-02
      1.6559137404559719e-03 -2.6387007687457595e-02
      3.0393698633227446e-02 3.2180122983574581e-02
      -1.1898342958095071e-02 2.2303648934620647e-02
      -5.1247615712412611e-03 1.5019215974844057e-02
      -1.9341462233450804e-02 1.4174534905649266e-02
      -4.1019893786534548e-02 2.3938522298498429e-03
      -3.0191459899261277e-02 6.1140230824692906e-03
      -1.1879680975755574e-02 1.3100131622013258e-02
      1.8626499529064970e-02 -1.2947452713843252e-02
      -4.1594327605209685e-03 2.8750255675613019e-02
      -1.9654828950466861e-02 4.4479260390929316e-03
      7.4312466296031819e-03 -1.8064002903546088e-02
      1.9166862000166082e-02 -8.2174520416726637e-03
      1.4206599619201940e-02 -6.8331409297363805e-03
      -2.3108941670930517e-02 1.5433709961962461e-02
      -2.1636593041229044e-02 -5.8061009038037147e-02
      -2.8372866528677373e-02 2.2955427416206211e-03
      3.8773377498030580e-02 2.2888992888519807e-02
      -2.6900979920441836e-02 9.6568458312606877e-03
      -5.8165996788372316e-02 -2.8731964867254663e-02
      -3.5468515482172509e-02 7.9242940538396769e-02
      -1.0485641779577582e-02 2.8396927945368907e-02
      -6.7594653425157381e-03 -3.2186418495980626e-02
      2.9486559050966228e-03 -1.7488588118629019e-02
      -2.8356398117341163e-02 2.2022904803372279e-03
      2.1213990478952272e-02 -2.9318452809768067e-03
      -1.6063612894896818e-02 7.3270482898875125e-02
      2.8205482791617199e-02 -1.5764280168238869e-02
      1.8471473052728286e-02 4.8044918964840949e-02
      -2.5092210176770567e-02 2.5845957420728080e-02
      2.0967467175600420e-02 -4.1640542697083331e-02
      1.8863051470743033e-03 -8.1064292255468143e-02
      -3.0021283020062059e-02 -7.3989785922301292e-03
      -2.3828520014339914e-02 2.4722163364535296e-02
      3.1475312938894100e-02 3.4992052539397626e-02
      3.4788098174333318e-03 1.7191625267582694e-02
      1.0432483671191158e-02 7.5323948767842250e-02
      -1.0840685592797435e-02 -4.8460853551507664e-03
      7.2815589384792087e-02 6.0161798665667489e-02
      3.0635441371356271e-02 -1.7470849201396743e-02
      -7.6865977389371733e-04 -8.8192513814215855e-03
      -1.4438549978139167e-02 -4.2701872771781876e-02
      3.9841221421439144e-02 8.8438276002919310e-03
      -2.9581019997212622e-02 3.3552762192503589e-02
      -1.3422934429909623e-02 -1.3053687448065336e-02
      1.7241052470903415e-03 -6.6747359153506089e-03
      4.3954002984624950e-02 2.0387956544214637e-02
      -5.1466556652889177e-02 3.6358796833633994e-02
      -6.8812186943788864e-02 -1.4460618662838895e-02
      -5.5755924658362203e-02 -1.8315533531639890e-02
      1.3220645848094438e-02 -3.6828097560476945e-03
      -8.4658814236683283e-02 2.5699155550513133e-02
      -7.6801472588954159e-02 1.0158757683221761e-02
      8.5194217631492809e-03 -4.4869202181832928e-03
      -1.1045090991404048e-02 -2.7077424690856101e-02
      2.5367828827840564e-03 -2.3330458928499647e-02
      8.8557855576887432e-04 -5.3332698408110170e-03
      1.0599868494992868e-03 1.3253110143802553e-02
      -1.6897947642522934e-02 7.3561712920315381e-02
      3.3055348165620817e-04 2.7152344492250364e-02
      -2.3269687242962436e-02 -2.0235498482631942e-02
      -2.1246850278421322e-02 -4.5868967868249282e-02
      2.9102468695055197e-03 -4.2359844593211862e-02
      -3.7632156601053332e-02 1.0116609966221133e-02
      2.6851048696090826e-02 -2.6042372414796011e-02
      -3.5889977760457060e-03 3.8155537767259613e-02
      -3.3233759779040195e-02 -1.3325333274735087e-02
      -1.2887081108267003e-02 -1.9586092924501045e-02
      1.1832280965297126e-02 -2.5118198735979529e-02
      8.8799691700099052e-03 -7.0643633503092848e-03
      2.1257266537661149e-02 -9.5927311235186989e-03
      -2.4400486487415215e-02 2.4847770162695827e-02
      3.3848818344309001e-02 1.6875879741248760e-02
      -1.5823657798150360e-02 4.5725156550383471e-02
      3.7214116301704271e-03 -9.4483564749032918e-03
      1.8099380911760058e-02 -1.2338084235013808e-02
      3.3393311233614068e-02 -2.0434119380508358e-02
      -1.7197535204532977e-02 -2.0491284631019529e-03
      5.6778715381644741e-03 3.8837405604583701e-02
      6.5955071814981031e-02 -4.3449961679845529e-02
      1.8046611903031164e-02 2.6866163458142495e-02
      2.2457792983450905e-02 2.1750923667808841e-02
      5.2369304627331616e-02 7.0588147876852409e-03
      8.6008532420425669e-03 3.0868333850734962e-04
      5.0135145589871493e-03 -1.7378091145866425e-02
      2.2484582366185470e-02 -5.9162155663037799e-02
      4.8979983977091154e-03 -2.9947718978525072e-02
      -3.1146683053755751e-02 4.6901793626738372e-03
      3.3115110217516980e-02 2.1750704908450984e-02
      -1.0066942151991037e-02 -1.7622584950905035e-02
      6.6284381901300246e-02 -4.5151095765748751e-02
      3.9481092004854834e-02 -4.6789493697921621e-03
      -4.4294990888884824e-03 2.7137525926839360e-03
      -7.8663643944641373e-05 -4.6836504848198068e-03
      -3.4498204770849906e-03 1.2180863294188823e-03
      -4.2906359919444295e-03 -1.9449909752313917e-03
      2.9909704882622547e-04 1.7768484712696012e-03
      3.9951902542655028e-03 1.1874384443957414e-03
      3.3425340597871046e-04 3.0630592397158430e-03
      1.1239385831826195e-03 -2.9405788540911868e-03
      -3.2177526068619768e-03 3.7767380277239546e-03
      -3.4675452741078131e-03 -8.9219784239875455e-04
      -5.7023583401520390e-04 -2.3245408346488127e-03
      7.8861987990807984e-04 -2.6117477508819918e-03
      4.4356991975370123e-03 -3.5855366667424528e-03
      2.4216811053808522e-03 2.4287684686802964e-03
      2.7077570236381881e-03 4.8927980192230418e-03
      -5.0627460253129214e-04 -8.2243414458874661e-04
      2.5728529540919236e-03 1.8187054090596007e-03
      2.3956193096730220e-04 -3.8636385632149460e-03
      -4.8682135780117337e-03 -4.1984235093635398e-03
      -1.6803219807217668e-03 -3.4061417460952799e-03
      4.9303575057924555e-03 1.0322625298978313e-04
      2.2275771015580078e-03 -2.5292348987189981e-03
      2.4335818592757185e-03 -4.8476726635895678e-03
      -1.4213231652305465e-04 -1.6844398816169908e-03
      -4.0788173174394958e-04 8.0061329825606268e-04
      4.2907483303621201e-03 -3.8245926103690848e-04
      -2.9161431362819887e-03 1.7391460107321741e-03
      -1.4994083285473103e-04 2.5491722647163068e-03
      -3.3439278421429734e-03 -1.5079500660636924e-03
      2.4652123616214494e-04 -3.3589499216226193e-03
      4.1785198447804881e-03 2.3784550632362369e-04
      -3.3128719365588854e-03 4.1467892886423519e-03
      4.5300244791053922e-03 1.5730352711142497e-03
      4.2464399949260689e-03 6.8564299380608927e-04
      -4.4734233043846102e-03 2.3035674316445368e-03
      4.0542044688994441e-03 -2.2050087471490033e-03
      -3.8082310452576267e-03 -1.3242387019078762e-03
      -8.5703240788172620e-05 4.1790232745207305e-04
      -4.3859117789445184e-03 -9.7886432217794654e-05
      3.8096315466101534e-03 1.3166832152260739e-03
      3.9001798040830911e-03 -8.7691322855022106e-04
      -2.2334106748155705e-03 2.1387270353332272e-03
      9.4741477303509898e-04 3.2776809843691524e-03
      2.5597349874420259e-03 4.7629358835966406e-03
      4.6522053134242366e-03 2.1436730477212740e-03
      1.3837672011595039e-03 3.9629123883329681e-03
      -3.4570566913050115e-03 -7.3036556521611780e-04
      1.8337400409721544e-03 3.0219425674972073e-03
      -1.5074255485661866e-03 1.7534316582259201e-03
      3.9830719100564715e-03 -4.5698646951901822e-03
      -6.9498440742623939e-04 9.0902932686618668e-04
      -2.9508905783461525e-03 9.8938735833807253e-04
      2.5705384226829189e-03 -1.8384329511515489e-03
      2.8037539685193034e-03 -2.3221290729142862e-03
      3.6590683656271641e-03 4.4210986381445945e-03
      -1.9563056610467072e-03 -8.4975820291929469e-04
      -2.1582372773941076e-03 1.6586959104027824e-03
      -2.9541098831063002e-03 3.1393123480079883e-03
      -1.4527274982215194e-03 4.2888376479896214e-03
      9.1682784693748233e-04 4.1888922583394831e-03
      1.1607947752610202e-03 3.6248578324600653e-03
      1.6688871508270067e-03 -1.1319837821455296e-03
      1.4170945042756451e-03 3.7609660191393344e-03
      -2.2091600413880314e-03 3.5484135709873761e-03
      -3.1486441220529905e-03 -2.4051165621599921e-04
      4.2556117191602134e-03 -4.5844282996170055e-03
      -3.5405616062984678e-03 -4.3628375376788212e-03
      1.7787263956908312e-03 -3.0177816311435205e-04
      3.0163448924826496e-03 -1.1833579501520056e-03
      3.6598303789603316e-03 4.0435933906859513e-03
      -2.0736736152141746e-03 6.8325989996337488e-02
      -5.6156962165290897e-02 -5.7158966786950927e-02
      -4.4094803037255180e-02 -1.5042965749458379e-02
      -9.1896165439411412e-02 -7.2535578190371000e-02
      7.0924283253046727e-02 -1.5457356626658259e-04
      -7.3179877907867980e-02 1.1792826855549318e-01
      1.0605946909061243e-02 -1.2113768471380547e-01
      -7.5537834142104784e-02 8.5281843591670931e-02
      6.6272716074578547e-02 6.5750309493084469e-02
      -6.2720162177916775e-02 6.9081200372091050e-03
      6.3652887971523603e-02 1.0568154739774624e-01
      1.0691803651339221e-01 -2.7487714350212803e-02
      3.1674244110308190e-02 8.6901784241509100e-02
      -5.3492306050760413e-02 4.9129505715204630e-03
      -2.4385244980068981e-02 -5.7395594204904067e-02
      3.6698872140155256e-02 5.3558359755207008e-02
      2.8018599120579784e-02 8.8449088767570544e-02
      -2.3961072459069647e-02 1.1507890871917269e-02
      1.9062650806193460e-02 -5.0456343855591994e-02
      1.0758759826751516e-01 -4.4891994702457180e-02
      -5.4591435814225986e-02 -4.7894804690472373e-03
      -9.4113830918449770e-02 -4.5595014526766458e-03
      8.1299897867213047e-02 3.6609514263629947e-02
      -9.5525247788634301e-03 1.0647869084069776e-01
      -1.0284003034174717e-01 -9.3252889178692705e-02
      3.9584567951064242e-02 -6.1580381206719437e-02
      -1.4772978532399793e-02 4.8180828549972986e-02
      5.6368723290222966e-02 3.0075042583298437e-02
      5.3137529064965994e-02 -3.0343693077940596e-02
      -3.7775415547826853e-02 -8.0471715234653865e-02
      1.6037129978482625e-02 -1.9220339581582976e-02
      -1.2297106915019466e-01 1.3594853377882524e-02
      -1.8214821083016020e-02 -1.0655468202024497e-02
      -1.4273227823329342e-02 -1.7242132168265911e-01
      -7.3773531326403477e-02 -2.0691056796729251e-02
      -1.0460831029860356e-02 -3.5731171150795750e-03
      1.2234152399730612e-01 -2.5834135813168537e-02
      -4.2317950284178570e-02 -7.3392457632686856e-02
      2.6148883760018646e-04 -5.3767019717990701e-02
      -4.3229789029197704e-02 8.5333122888856250e-02
      6.7313768332199816e-03 -7.0886282953550150e-02
      8.3331203429445860e-02 2.5480073344694223e-03
      -1.2064548579852885e-01 -3.8892401812664554e-02
      4.2601378569668988e-02 4.6344393321816293e-02
      4.9053076104660871e-02 -6.8724697670515741e-02
      5.4193005255910526e-03 4.1948636704056394e-02
      3.8021926061922909e-02 9.8394592101396408e-02
      -6.9360362580123638e-02 2.1545708824029342e-02
      8.6271343631117187e-02 -5.7560097515453316e-02
      -1.4565119544344389e-02 -3.0808958662091469e-02
      -7.8107762612394008e-02 6.9236387483810377e-02
      6.5132229427848520e-02 4.3754965324956263e-02
      5.9016024337416935e-02 -2.1237807726414589e-02
      -5.0151454942793730e-03 2.7580753117333393e-02
      -3.3513694848818477e-02 5.7598201318248096e-02
      -4.9255955120660770e-02 -4.3689820633650185e-02
      2.5445477306473958e-02 -8.0511039884789207e-02
      -1.8084886671536300e-02 3.9788591581950118e-02
      3.1132356791179341e-02 -2.6701709354664861e-02
      3.2953799168657656e-02 -4.3391091290053627e-02
      -7.4725328380808864e-02 3.7038241621928272e-02
      -6.7127404088955497e-02 -6.5430936064313572e-03
      -6.0530944446747304e-03 7.9932000130407743e-02
      3.4003327282952987e-02 6.1565640462196043e-02
      -7.6539056869766198e-02 -3.7959745528983638e-02
      -1.1003925368926278e-01 4.8243593207142089e-03
      -2.3559472258359960e-02 -7.3040810460707595e-02
      1.7285209463593281e-02 -1.0482205253905252e-02
      -3.5497481020395072e-02 -1.3361783414934634e-02
      -1.7782918813247500e-01 -2.7616595913577697e-02
      -4.1547585829534411e-02 1.0414064830802993e-02
      -6.6825495677420603e-03 1.4698247363021744e-01
      6.8619445326113006e-03 -5.7533027525400675e-02
      -4.5273656294324789e-02 2.2316979842663089e-02
      -6.4782247756864961e-02 1.0199184174588616e-02
      5.5636417425345933e-02 -5.7298463754398045e-03
      -2.6128268237244002e-02 8.1194883204275439e-02
      -4.5457009001113047e-02 -5.5697588918940839e-02
      -2.5126489413135576e-02 3.9573334753863959e-02
      -1.5396117576446886e-02 2.6253639884289335e-04
      -6.4579366727330945e-02 -1.1490157335834184e-02
      -2.0805671897486791e-02 8.4562433987405941e-02
      5.1167709597572768e-02 -5.8647644550520926e-02
      1.8395398870283318e-02 4.9592257884713178e-02
      -5.2004393772903175e-02 -2.9025700722264250e-02
      -8.5016013247413841e-03 -1.1734852078994616e-01
      1.1077109860798623e-01 3.3635666033814987e-02
      4.0670712212119958e-02 3.8027219321135598e-02
      -2.6142632240872810e-02 1.0790621096866829e-02
      -3.9202418683504710e-03 7.2446058416116600e-03
      4.5328323236581064e-02 -1.3781167101590546e-03
      -3.7371100274931610e-03 8.2517586279773181e-02
      -7.9805094570652352e-02 -4.2666511656524138e-02
      5.6990363977805741e-02 4.6989128629860259e-02
      -3.2109688226498435e-02 -2.6177245104001406e-02
      -5.0380397735459923e-02 -6.7915132480097548e-02
      2.7527800291775359e-02 -5.0779284777716108e-02
      -3.0374917317623644e-02 2.7461108429347506e-03
      7.2555830836518939e-02 2.9376077666049421e-02
      1.1092209853772635e-01 -8.7671977235636633e-02
      -5.0406542076932501e-02 -8.6954532882950825e-02
      -2.6543329531735745e-03 -3.4712888554096710e-02
      -3.5875023862194731e-02 2.1275595371071564e-02
      -1.3731680188872922e-02 -3.5468375858906921e-02
      2.0939735541064086e-03 -1.1129585182412345e-01
      1.2639816234665119e-03 -5.5134540457305918e-02
      3.9169740530785396e-02 1.5005564827268416e-02
      5.0814533579749237e-02 1.8056258592623029e-02
      -6.7264866992762309e-02 -5.5140621375356032e-02
      2.2513664610196622e-02 -3.1896761991139243e-02
      1.3375485598251479e-02 5.4224043431116732e-03
      -6.0986398583226572e-03 2.2812878093445448e-03
      4.8777341430272188e-02 -5.2037024115870134e-02
      -1.4001645888476627e-02 -2.1846637160617490e-02
      1.7949871861294306e-02 1.7902554985991807e-02
      1.9411853544469070e-02 -6.0154046194898267e-02
      -2.0226357320054740e-02 -2.3602189214296170e-02
      1.0947057186035501e-01 4.1783223856538494e-02
      -4.3160275008609153e-02 3.4924504354513976e-02
      7.5644976456337568e-02 -7.0407647123306341e-02
      -4.6050347410565913e-02 -2.3084503057942234e-02
      -1.1349137272913351e-01 9.6984794059739074e-02
      5.2787302673603237e-02 3.4909063960194005e-02
      8.9673450335054448e-03 -1.8223787273687217e-02
      -1.2088335227407718e-02 -1.3643241256335842e-02
      2.7202327839075842e-03 5.2154178920383189e-02
      -2.2180422194337985e-02 -5.3850508924906761e-02
      1.0628947351791593e-01 -5.8636214478706879e-02
      -3.5056211640628901e-02 9.9334062152401110e-03
      7.3823954502299838e-02 -2.6147982728146037e-02
      -2.9948424351104216e-02 -1.9381195278796687e-03
      -4.8943337304137496e-02 2.3121066209640322e-02
      -5.8199351154681889e-02 -3.3114809710144050e-02
      -1.8272116648675649e-02 5.9933292067690373e-02
      5.1236056287221457e-02 8.7046507926797731e-02
      -1.0735494153634843e-01 -5.5294372893376915e-02
      -6.1666579308606931e-02 7.3579139813882361e-03
      -3.0506027023854725e-02 -5.1535903319840315e-02
      1.8041843216164727e-02 7.1954209854801915e-03
      -8.7874391320669432e-02 -4.0894668823792807e-03
      -8.0238076116634624e-02 -1.5182608312009273e-02
      -4.8005378613688483e-02 4.8176136592336619e-02
      3.7353181019138051e-02 -9.5036975876808677e-02
      -4.4472975243571106e-02 -1.6298414887380885e-02
      -3.5129020933549929e-02 1.8457179749632742e-02
      -7.9250958225570864e-02 -6.2285867603978258e-02
      -1.1574842337896893e-02 -1.6399498341428086e-02
      3.0143415589962079e-02 9.8374392196257709e-02
      1.6976426388932882e-03 1.2167747599897532e-02
      -2.1365660237281831e-02 7.6811155378969917e-02
      -2.7652342931626648e-03 2.8463057929206999e-02
      3.1831417262121030e-03 1.2405250448085220e-02
      1.4687619311683893e-02 1.0599462404458256e-01
      -2.9433955997690983e-02 3.2435598453492032e-02
      -1.3314288431781346e-02 3.0898014368013749e-02
      -7.8464586010971518e-02 -6.7234462398395325e-02
      -7.7929275764961688e-04 -9.9801150137526592e-02
      -2.8032502261818609e-02 5.2938758646295589e-02
      5.0514340457830036e-02 4.4205812375079701e-02
      -3.9675889249244603e-02 -1.5311398368289219e-02
      -2.8214178869585795e-02 4.0293319968458335e-02
      1.0258857905619605e-02 -2.2585096488709010e-02
      -3.8877970590833325e-02 1.8807943691633005e-02
      -2.6055463579303360e-02 -3.2467668611820238e-02
      -1.2325331498190126e-02 3.8538830947537787e-02
      5.9807455452840054e-03 1.1011857484570894e-01
      -4.5810000264086236e-02 -7.0897734860065786e-02
      1.8877385430966342e-02 4.1133818730231503e-02
      -1.0938428272532949e-02 3.4329769955389465e-02
      -4.4061996739577017e-02 7.1521110829128182e-02
      7.3558460512262031e-02 -2.3879149422678259e-02
      -1.8627102831505931e-03 -5.4973851216528674e-02
      7.1590065763833116e-02 -4.4473836698979662e-02
      -5.3653559553186569e-02 2.4586951507771411e-02
      -1.9952803780436318e-02 -3.3893460490884916e-02
      1.7381948258402936e-02 -6.0844445228158177e-02
      -1.8305563454671082e-02 -6.0668426275317586e-02
      -8.9600824086746300e-03 -3.8381747349927831e-02
      -5.6135476926062168e-02 -3.8218673117894938e-02
      -4.6547949467070818e-02 -2.7305276633547884e-02
      1.0114656978530347e-02 -6.5334909506588768e-02
      -4.2078367825048618e-02 -1.5169009919291593e-02
      -7.4108610391058760e-03 5.8551881028638147e-02
      7.9537160084431346e-02 -3.0395014645284608e-02
      1.6004978188772452e-02 2.3581758234053575e-03
      7.2549478576256793e-02 3.6365434291489732e-03
      2.3796503695816637e-02 1.4017216901472646e-02
      6.9752480959608888e-04 8.8746607522971963e-03
      9.5223037390743337e-02 -3.8248415765419583e-02
      4.2075716692279538e-02 -3.3905555730879403e-02
      2.3337210273940898e-02 -9.9090640350098291e-02
      -5.4370305983446471e-02 -5.7857056368112981e-04
      -8.9914096134146776e-02 -2.9708261367188408e-02
      4.9006119703801511e-02 6.1388359607196824e-02
      5.3625102806268338e-02 -3.7094401453867550e-04
      -1.2177497191065203e-02 -3.6176311890019991e-02
      5.5038248153818720e-02 -1.4500461503728551e-02
      -3.5373221860503803e-02 -4.1629950128717452e-02
      1.5693022803533626e-02 -1.9809592438126425e-02
      -3.2123639344792967e-02 -2.0660325576640572e-02
      2.7443716768042400e-02 3.7852727209630281e-02
      1.1433391189713916e-01 -4.9371866946343677e-02
      -5.6057178852146179e-02 3.5460626359801163e-02
      3.3136194994180072e-02 8.9435591133689429e-03
      1.9139612325742492e-02 -7.2977372580488170e-02
      4.6947973936827155e-02 7.1844911992434923e-02
      -2.5221866667728920e-02 7.5586771870869117e-03
      -5.5809509550542181e-02 6.7193121433139949e-02
      -1.3620087245903127e-02 -8.4217149038667088e-02
      4.1319706097917110e-02 -4.2720235429201163e-02
      1.1321519981972660e-02 1.3460041680820552e-02
      -4.9228120593223207e-02 -2.4829432021753152e-03
      -8.6103314313039220e-02 -1.4310866132414297e-02
      -3.5328081012440324e-02 -3.8983701970366505e-02
      -8.0938132936260662e-03 -7.7432836158914109e-02
      -1.9911680219010009e-02 5.6558479322116592e-02
      3.2658074317127361e-02 -3.1635031521590216e-02
      3.7615989286186279e-02 1.0450378590983795e-02
      1.7635497878311698e-02 3.2863392764745467e-02
      -4.1880095817514840e-02 -1.7182111576012609e-03
      -3.6142773568531343e-02 7.6365199848927338e-03
      2.4249720583948486e-02 3.7332643933207163e-02
      -6.3398407000604786e-03 1.8267386217663148e-02
      3.9649852837888404e-03 1.3534530060096692e-01
      -1.1587809800617747e-02 -1.0318586437395014e-02
      1.2257010260398844e-02 5.9567926057663666e-02
      -9.8451954733819305e-02 -1.5786629120141553e-02
      -4.6666541515356486e-02 -1.6269327537777242e-01
      2.0512971604318307e-03 6.0990810067020167e-02
      4.7387740131184977e-02 4.4526518933742029e-02
      3.2761541471786532e-02 -3.3565106526777355e-02
      -9.9161649125337360e-03 -2.5543137314976361e-02
      -5.6772521075640230e-02 -2.4965290502283473e-02
      -6.2773244736730877e-02 6.3816379113853766e-02
      -7.7332339237065256e-02 -4.8060633465397296e-02
      -1.0416050563749200e-02 6.8689488485951980e-02
      6.4305971607677342e-02 8.2947752965140620e-02
      -1.6220692248762460e-02 -1.9498991170795656e-02
      3.1627271182633997e-02 -7.7704978576579519e-03
      3.8752324448276793e-04 2.6383446171160795e-03
      -4.9840664912263895e-04 3.4778623096255269e-02
      1.3345744708712579e-01 -5.7701818787090513e-02
      -2.3054792814952232e-02 -2.8374185897074779e-02
      -2.9057970425755340e-02 -2.5105711122215681e-02
      -8.8023944182051950e-02 8.8123690967627493e-03
      1.5306519345540457e-02 -2.3047962676101524e-02
      -1.0478808569180369e-02 -6.1113394158620389e-02
      1.9931186043485212e-03 -7.0505434557152679e-03
      -4.6897182735740625e-03 5.6823698096925210e-02
      -1.8066405917741623e-02 -3.5586507359978606e-02
      -2.5186985961268678e-02 -2.7025078626127619e-02
      5.9480287838902836e-03 -5.3890855417487692e-02
      -5.0585911896671831e-02 2.5096501766228640e-02
      6.0465730629062700e-03 2.7447764843243710e-02
      4.5318360735477757e-02 -2.0925975432182130e-02
      9.8282508285341443e-03 2.0597089541655445e-02
      4.1673755092618482e-02 -3.0995983928701486e-03
      4.0067445949976487e-02 1.1649033174789108e-02
      3.9337602893459847e-02 2.9784464372052959e-04
      9.6986675626638472e-02 -3.1387129942996451e-02
      -2.0607308241189198e-02 -2.4987725487393048e-02
      1.1430191855798336e-02 -1.0254965674839382e-01
      -1.6611987293662473e-03 2.2781909954333077e-02
      -8.8862908979426697e-02 2.5641885515700721e-02
      7.0023762687115451e-02 6.2341893844253857e-02
      4.4079228149411780e-02 -1.3689525031281468e-02
      8.5590480070278658e-03 2.0774853188945504e-02
      -7.3866917271222677e-03 -2.0885086508907851e-02
      -3.1895940549035627e-02 -3.1148292176534132e-02
      -9.2669378948680766e-03 -4.6162694764910472e-02
      -7.1102930440521794e-02 8.1728168932207051e-03
      6.4217732596941329e-02 -2.4328832015234222e-02
      1.0787767953283822e-01 -6.2776729525047231e-02
      -2.1465817125370837e-02 -2.7551282474719989e-02
      3.7812596827246921e-02 -1.1841208309509936e-02
      9.7511400854138411e-03 -2.8772375155177655e-02
      6.9890100381105706e-03 7.3196586502529332e-02
      -2.6772595393043958e-02 4.9494570149599690e-03
      -2.7579217451095026e-02 4.6291531146089283e-02
      -5.1167461216193165e-02 -6.7961704991140473e-02
      3.6981260656832840e-02 -1.0227532170771844e-02
      7.9843379714302255e-03 3.9540449346873851e-03
      -2.0279987472108685e-02 7.4199530078471881e-03
      -2.0834595146138675e-02 -4.6990335970574556e-03
      -2.1437506975231641e-02 -4.1369340925883256e-02
      -5.2623094691386603e-02 1.2244604253688755e-02
      -1.8383755709734911e-02 2.1286769137790530e-02
      -3.8629821798627402e-02 -5.7779055783447567e-02
      4.9828715423972533e-02 -1.1267128144958630e-02
      -4.0232416821900076e-02 4.2932806700195530e-02
      3.7783765406480471e-02 2.4251049453869640e-02
      2.9798290496305564e-02 1.1614743843562356e-02
      -1.7129396716381098e-03 4.4702973004610465e-02
      5.1186173553431531e-03 4.3716666758829473e-02
      9.7498636233551289e-03 2.7704770517221339e-02
      -1.5494477612077175e-02 -6.0562907357441964e-02
      -1.8482459865007673e-02 2.7962296932964488e-02
      -1.3006892952611085e-01 -2.1215369929358310e-02
      1.5972479327919491e-02 -2.5971341030421299e-02
      5.4407609448618867e-02 4.6651462076082950e-02
      9.0276195248923732e-02 5.6586270380271898e-02
      -2.2347561191424621e-02 -2.6094383814862919e-02
      1.3064614464362469e-02 1.2243036276261626e-03
      2.4196641924630481e-02 1.4899541853381678e-02
      -1.3571245588358245e-02 6.0895604448349865e-03
      -9.1218195544326058e-02 -9.8574579364848050e-02
      2.4485283077741002e-03 8.0220238639533537e-02
      -2.8959876813511910e-02 9.2232072534798107e-02
      -7.6504866634882707e-02 4.3690440800384298e-03
      -2.9331752877199670e-02 4.4787942971384553e-02
      -2.5104747438735760e-02 4.6257088907440208e-02
      -4.5083554173416390e-03 1.8705171093473466e-03
      2.7620594041728362e-02 -1.1447335508874485e-02
      2.6606487807121125e-02 9.1691984344899093e-03
      1.3123557675909090e-02 -5.9668452813639576e-02
      -4.2979331416946230e-02 5.4630103159402700e-04
      1.3739032183933022e-02 -2.8233502211493382e-02
      3.2077406657742322e-02 -2.7074725376600595e-02
      -1.1119294643762373e-02 2.7062056761020369e-03
      -3.8644129423643807e-02 -7.5279959476910671e-03
      -1.6260855491045087e-01 -2.8944023640444624e-02
      3.1037957055208404e-03 -1.6993933776245678e-02
      3.3806261994268158e-02 -1.2727534110134813e-02
      -3.0152073248960149e-02 7.8065494656660253e-02
      -2.0161548695788293e-02 -9.1890121533372018e-02
      -1.2753782955325654e-02 8.4661329758623227e-02
      6.7114302354752079e-03 -2.9140575399582484e-02
      1.7857245878312774e-02 2.1392894080202039e-02
      4.9619485871987022e-02 -1.3423754953242517e-02
      2.4015815714000830e-02 6.7303756133737597e-02
      -2.2494340136093027e-03 2.0099875646078912e-03
      -9.4707196443113914e-02 2.4717849950500588e-02
      4.0601606107926562e-02 -1.7871424188964574e-01
      -6.7301158671354434e-03 -3.0156262456253781e-03
      2.1408762278843470e-02 4.9373988464924232e-02
      4.1990410726996719e-02 6.3476141679709636e-02
      2.4342428914264018e-02 -1.3341775625870240e-03
      -1.4202035793677898e-02 5.4492448872356554e-02
      -3.6875599528520847e-02 5.9736614041848331e-02
      2.3472850313972855e-02 -1.2212642152165594e-02
      2.0997559350169108e-02 -1.2403003769321297e-01
      -1.1597614065030677e-01 1.1739072906335954e-02
      5.1853777035531172e-02 1.2453979082373437e-02
      1.2561708114235068e-01 -8.5676014750770926e-02
      -6.6739602705605302e-03 -1.1131200915399672e-03
      -1.1946230912606355e-03 -5.5301513056471942e-02
      7.8918817195604826e-02 2.5020109643932656e-02
      -2.0219264227967777e-02 -1.4463131829635773e-03
      -3.6532674179729921e-03 4.3932467588366324e-02
      3.7059161768035302e-02 -7.4783331666743377e-02
      -7.2188233013635708e-02 -4.0361697958593123e-02
      -1.7330544779533615e-02 8.7503245456247054e-03
      5.7479982511802483e-03 3.9704326182844592e-02
      -3.0931849171381944e-02 4.4038244303065972e-02
      4.3253101439395814e-02 -5.8231567168870721e-02
      9.6808045996282961e-03 -1.1944341352502343e-01
      -2.3951469195897017e-02 1.1928648233856330e-03
      -4.3252373636232288e-03 -2.8962130168901073e-03
      -2.7678609998059680e-02 -1.9225952238059319e-03
      8.1727936422163014e-02 -9.0235125021194008e-03
      -9.5724367937026156e-02 -2.0295446724459123e-02
      1.0625626680816705e-01 -7.5844488697166127e-03
      3.0253895672187229e-02 1.0344455348559893e-03
      4.6452224070177309e-02 5.1476741902687119e-02
      -3.6101554106125720e-02 1.7485023556775860e-02
      6.0015568878151321e-02 -5.0391495458052028e-02
      1.7388036505131071e-02 -9.5179413604550789e-02
      9.9567997762848720e-03 3.1817637220811795e-02
      -1.8479297107884365e-01 -3.1872770769500410e-03
      2.1069599939722906e-03 7.7412934521348883e-02
      8.0175201049345154e-02 4.4041457565543701e-02
      7.6743076638641147e-02 2.0460854553969052e-02
      1.4144106156631416e-02 9.3183608817602979e-03
      5.7287022348279933e-02 -2.3155829500776274e-02
      1.1183771510006865e-01 1.6629118767362928e-02
      -8.1681047039181328e-03 -5.4688291812917513e-03
      -1.0436222327818127e-01 -1.4621368940183749e-01
      -2.8941359994448016e-03 4.7136034111007731e-02
      7.1114560726492923e-03 8.7865792915531732e-02
      -6.7605709472811679e-02 -1.0154535758943707e-02
      -7.6110929234046044e-03 -3.2177519771062264e-02
      -2.3384457965627773e-02 8.8342835403425246e-02
      2.4353538701241368e-02 -4.0837863549708996e-02
      -5.3710946962939266e-02 -5.4861524230024831e-03
      5.0860993107936986e-02 -1.0400483443048017e-03
      -7.9192560102297194e-02 -5.1936127973258674e-02
      -2.6808496873285206e-02 1.5122014759539473e-02
      -8.2724418891359807e-04 1.0860881213656182e-02
      2.4809853551392154e-02 -4.5484458566863749e-02
      3.9738036937320503e-02 -6.4966581530939210e-03
      -2.6821404606539038e-02 -3.9146208888015330e-03
      2.1635296373822253e-02 1.6843619427504980e-02
      -3.8217139233130533e-02 -6.3659334932129035e-03
      3.5028861383503002e-02 1.9537310280811553e-02
      2.1125512327306945e-02 1.0878988982335766e-01
      1.0624002448064987e-02 -1.1328965530211697e-01
      -4.2597297245140900e-02 1.2018780774042845e-01
      -2.7817792409001924e-02 2.3752743233918586e-02
      -3.5507134197251204e-02 1.5305647510067130e-02
      4.2060197628074281e-02 -8.4634430792309076e-02
      1.3432003305422600e-02 6.5394599520262886e-02
      -4.8757344766764833e-02 4.0753304315307125e-02
      -1.5728473215014224e-01 5.2182759551129720e-02
      8.0116357535677848e-02 -1.9699961629643759e-01
      3.0298646700668199e-02 -2.0005195420686909e-02
      2.1888065892594587e-02 1.4809754292327809e-01
      3.5979832023495424e-03 6.9283107255546608e-02
      -2.0205068147961157e-02 2.3895466706467128e-03
      1.1410837433890748e-02 7.8446859230942759e-02
      -6.3370737742241598e-02 7.6515516151268045e-02
      5.7975514813607285e-02 2.0797011789942844e-02
      6.5753204938645365e-02 -1.2941900368230339e-01
      -1.4879619729790286e-01 8.6939338485611094e-03
      6.2681036435087253e-02 9.3150825898981431e-03
      4.9819542813450430e-03 -3.6264466247699641e-02
      5.1741803592900435e-03 -1.4052398936533905e-02
      -1.1339963673182879e-01 5.8999956200258656e-03
      7.8850877748896112e-02 8.5977125634145182e-02
      -5.7247780410905481e-02 -1.8928156515081628e-02
      -5.8331890600962250e-02 2.6271022367999455e-02
      3.3675594289504285e-02 -1.2640869365051324e-01
      -2.4972598474059908e-02 3.9250940308330283e-02
      -4.9696164091264206e-02 3.4001311298380653e-02
      -9.3779239443425363e-03 1.5854119726774779e-02
      -6.1628222103370406e-02 5.8461338061348476e-02
      5.9196752554385293e-02 -2.1190993501482530e-03
      5.4530739340661251e-02 -7.1805475688495435e-02
      -2.7261567792928768e-02 -1.5523724710465821e-02
      1.8767844249952443e-02 -7.1109988390436942e-03
      -7.0077634281184326e-02 -1.8199529853874736e-03
      6.4449698018272134e-02 -1.5061157903507790e-02
      -6.5082675387428124e-02 -3.7069414644573744e-02
      8.7173162878508570e-02 3.8849437874609277e-03
      2.3204497327334529e-02 2.0501269620663145e-02
      2.9036739963580804e-02 4.4845773765693694e-02
      -2.5656298504778761e-02 2.4052641565640905e-03
      6.9693068214670556e-02 -8.1906244540371001e-02
      1.6748037633842600e-02 -9.0993745971670759e-02
      -1.7033188257502576e-02 5.1570003507389141e-02
      -1.7479093774851764e-01 1.9041019862921747e-02
      -1.6550665454389251e-02 8.5161731744854197e-02
      6.0065947553200293e-02 6.9789537374941972e-03
      3.2766638616918788e-02 3.8573456068317670e-02
      1.0793712336431156e-02 2.3456586452935951e-02
      6.0737671094019341e-02 -5.7286123971684165e-02
      1.1804146222717267e-01 1.6626809610807241e-02
      -5.6309866745275381e-03 -2.8032247290813998e-02
      -6.1216881149211269e-02 -1.4863154789718386e-01
      1.5752727890398881e-02 -3.8700034907500308e-03
      5.5952852815250474e-03 7.4702632889811771e-02
      -4.6904166917296160e-02 -2.2430215004535002e-03
      1.1679297381439529e-02 -5.2089752668924905e-02
      -1.3285561585824558e-03 6.2244325184031835e-02
      2.2817459691586800e-02 -4.7597257800114576e-02
      -6.4844799746558060e-02 1.0544184737292303e-02
      3.7074612898841973e-02 -4.1358885941939656e-03
      -6.0582541057993738e-02 8.0999339044466098e-03
      -1.7442687629603902e-02 -2.4665765634009896e-02
      2.3049881025141970e-02 2.8787449668781259e-02
      8.6987232713422111e-03 -3.1494969249681183e-02
      4.8968020298360899e-02 -3.0752180883644505e-02
      -4.8266201920859085e-02 -9.1925113315649582e-03
      4.5487281632548032e-02 -4.8303299926389605e-02
      1.8094923620995431e-03 5.4746620794591551e-04
      -2.0998548288867869e-02 -4.4582921065946107e-02
      -1.6184773516421124e-02 9.1028968994856851e-02
      -1.9078553796305658e-02 -5.9273733471507044e-02
      -1.0096378495495504e-02 7.9972530328140196e-02
      -3.1560902586720264e-03 -3.0583969559872946e-02
      2.9750092516994363e-02 6.5632339928859296e-03
      1.9468158737904320e-02 -3.4986818773077188e-02
      -1.6590671266211134e-02 6.7698712437317052e-02
      -9.8050471455411237e-02 -2.4892735890329285e-03
      -6.4385887032819042e-02 -4.6462419550066116e-02
      6.5160317204110210e-02 -1.7183465824042557e-01
      9.3575988449198129e-03 -1.7278524358630098e-02
      6.3467553202175064e-02 4.8806366142656148e-02
      -1.5136784336305938e-02 1.8798032723479675e-02
      5.4333823381409616e-02 -1.9979220617512880e-02
      2.5879610718360809e-02 5.8634974043748164e-02
      -7.7622748266264335e-02 1.3090649473793078e-01
      2.3656981675190161e-02 -5.7314033048524928e-04
      -8.5766821769827396e-03 -5.1375576743642154e-02
      -1.1264216302214557e-01 3.5842430219898129e-02
      -1.6802506604223593e-02 -1.0109257329900364e-02
      5.7353973046552362e-02 -4.2982406338306224e-02
      -2.2103670472471353e-02 1.5889135047844123e-02
      -4.4814963708599227e-02 2.9378387509109691e-02
      3.3510033561508008e-02 3.7189547648104108e-02
      -2.4546268623977439e-02 -3.2872178508344653e-02
      3.0371583631932692e-03 1.4148055927648303e-02
      -2.6035712620970597e-02 -4.4052097514452375e-02
      3.1409142913277642e-02 6.4037269287174686e-03
      -4.5365943819779909e-02 6.4334638646997358e-02
      6.2243314789611126e-03 1.1727300431392172e-02
      -3.4991315377832150e-02 2.8187582399591894e-02
      5.5085049164362073e-03 -6.2688081139125482e-02
      5.5031208252435881e-03 -1.7375116327147631e-02
      -3.1055323887263869e-02 -4.4762306950209612e-03
      1.2849774446325338e-03 -5.2402299141812048e-02
      -6.1141700804683161e-02 -2.0455093487173354e-02
      7.1578781110880119e-02 8.1942638638092232e-04
      -1.7365239233143738e-02 1.4615027809401845e-02
      5.8061013887034822e-02 1.8333662005316177e-03
      -2.4529678354880926e-02 6.1634769959403590e-02
      3.7058799972118028e-02 6.0678631215031836e-02
      -1.3124723785391633e-02 -1.5139256450352433e-02
      8.1968380519258338e-02 -1.3966406023795713e-01
      -6.2728373720679034e-02 -8.1997818590666266e-03
      -7.9269796963780656e-02 3.9911287092800798e-02
      -8.6759885802701331e-02 1.5416369419705245e-03
      -2.0908654042302039e-02 1.3651012690735226e-01
      -6.8243638134300776e-03 3.1343870719160609e-02
      2.7907292653357240e-02 7.5982196470203114e-02
      1.9654712768417695e-02 5.2782728158196714e-02
      3.3220493107515736e-02 -5.1564365344877433e-02
      1.8599920916669754e-01 -2.1055628991343223e-02
      -2.4733593138557611e-02 -4.1518000789685580e-02
      -2.0405431938551742e-03 -7.2228538198254547e-02
      4.9501144482197133e-02 -1.2244531667396740e-02
      1.3582987925227743e-02 1.2501944745779256e-01
      -3.1927584154595713e-02 -2.9987508440794307e-02
      6.2848733836377194e-02 1.4678863594018893e-02
      -3.5403396857894035e-03 5.1893069012647107e-03
      -6.9107115459115243e-02 -2.0892366648175113e-02
      -6.0768537235021972e-02 2.3760126528529324e-02
      -3.2940946665091418e-02 -3.8840374890318524e-02
      3.8954938236180507e-02 2.4279943037325905e-02
      -6.1328265937442242e-02 1.1264760940252872e-02
      2.3338937977787216e-02 3.0825419065479892e-02
      -1.3501457386641311e-02 -5.3729484123939859e-02
      3.0954110810595726e-02 -5.1784927258153604e-02
      -6.0769207884642275e-02 -3.1603656553882621e-02
      4.5558303765452071e-02 -8.4004641804562002e-03
      -5.4396875893000733e-02 2.4060188581941531e-03
      1.1073676751317769e-02 9.7426605441796384e-04
      -1.8094755206624971e-02 8.3847528476935829e-02
      -4.4361360518312860e-02 1.4010721310360470e-02
      1.8478668723920834e-03 2.0505590395244199e-02
      -1.7958115847405778e-02 -6.6403453685450475e-02
      1.0652437391151206e-02 -1.5297828213019598e-02
      -6.4061609192527591e-03 -2.5486892485969890e-02
      -2.8113524517035502e-02 4.7753782837308897e-02
      -3.2562351766383557e-02 -3.2521598902865538e-02
      -2.3099336661157040e-02 -3.6550662763621192e-02
      7.6891199526463352e-02 -5.2712948408097093e-02
      -2.3728378289532403e-02 -1.7132810605119852e-02
      1.6744132864508300e-02 2.5542471033411430e-02
      -8.3488939817259935e-03 3.1858070092065607e-02
      6.5371395556596087e-02 6.6753782234451973e-03
      5.6207859227404430e-04 3.0768403058987685e-03
      -4.3023818407036993e-02 1.0992583150892724e-01
      1.4936701330617291e-02 -5.2763618100996100e-03
      3.4972174646940364e-02 -6.0509393334455625e-02
      -2.8399792660113259e-02 5.6499392582708939e-02
      1.0598485031789780e-02 4.2546438252554108e-02
      8.0216847034833672e-02 -2.4389419684702884e-02
      -1.7408888462196136e-02 7.2209764875141774e-02
      -1.6584188327814116e-02 -9.1117794934528311e-03
      -2.1630990864983657e-02 2.5114956025525926e-02
      2.4681115036037579e-02 5.3531150155601741e-03
      -1.1079672659278950e-02 -3.3545460060599758e-03
      -9.9837604762633928e-03 -4.5560165156805443e-02
      1.7331450067956392e-02 -3.4363088539509146e-02
      -3.4878394743114209e-02 2.9590888224441489e-02
      2.0081853255942743e-02 2.6965160290469688e-02
      -6.4978499479223226e-02 3.3988434865075634e-02
      1.7458074990157439e-02 -6.1356270211829503e-02
      4.5705827273521182e-02 -9.7614600509049812e-02
      1.8542077090300757e-02 -3.3326190744234215e-02
      8.3037458573322395e-03 2.6811443319885487e-02
      4.5706098109059519e-02 -4.8965962874292002e-02
      4.7822009913489172e-02 -2.0436263639836041e-02
      -3.1561956673637245e-02 -6.1483131129177547e-02
      4.3341398797292076e-02 -1.9941210340995913e-02
      8.5208397564590921e-03 -8.3564626526533126e-02
      -2.8116420463787099e-02 6.6489441354609394e-02
      7.1931319076854487e-03 -1.4479774319122469e-02
      8.9067418871694795e-02 4.5195563694838958e-03
      3.7966121880943206e-02 -4.8824384018158584e-02
      -2.5436767077953611e-02 6.0197766207050148e-02
      -5.1846416649040078e-02 -2.6858947124791269e-02
      -1.1139323214157783e-02 -1.0076309719229733e-02
      -6.9729876663213635e-03 -1.6476285661699543e-02
      7.1824282955753410e-02 5.8753742871516912e-02
      1.1215796461967330e-03 -2.0403818211197564e-02
      2.6854304893426499e-05 -9.5789018135511578e-03
      5.4079414188612854e-02 1.7573397671830488e-02
      -1.7083559722438618e-02 4.0031170103813546e-02
      -9.5237100639045363e-02 -4.7849080794457273e-02
      -8.6937931444361054e-03 6.0102518922946456e-02
      3.8693867598797782e-02 1.5559820771753032e-02
      -1.9803097475178871e-02 8.7991043161237941e-03
      5.7529084347376976e-02 -1.7538028031812619e-02
      1.9867470384936716e-02 7.3894646967585256e-02
      3.9962455201941763e-02 5.1983708617144790e-02
      -2.9370665132585068e-03 -6.7706421570566236e-02
      8.6117119096459274e-03 4.5409497523346373e-02
      -4.9587251718306066e-02 -1.6164374746526568e-02
      2.0385839057796170e-02 -5.1714941600174709e-02
      7.1957639816559518e-02 9.1600664936525751e-03
      6.9524417437992194e-03 -2.9063696558368171e-02
      -3.8600100134038879e-03 3.8178991825489311e-02
      -2.2044589952004777e-02 6.4599459908329007e-02
      4.6120926508331259e-02 -2.5346355643657500e-02
      5.4638117105633424e-03 -5.5557154962143727e-03
      -1.1791046055188435e-02 -4.6320059769303638e-02
      -4.9161642652679428e-03 4.0469922908592956e-02
      1.5113210533543142e-02 -4.4115429427601660e-02
      2.0537465141651647e-02 -1.9073879820902674e-02
      -4.2648386051739769e-02 -5.8390135279267688e-03
      -1.6426468819501449e-02 3.9800191054253219e-02
      6.4491607711950102e-02 -4.6122171185505684e-02
      2.6883271257401524e-02 7.2831391937836831e-02
      1.1682625574797498e-01 3.0761225062076947e-02
      -7.7041240518283358e-02 1.8680385118983245e-03
      5.1538995856663036e-02 -6.0300968137785391e-02
      1.2686100728961976e-02 1.5530788090774421e-02
      -1.8838804570689611e-02 8.9286131359435396e-03
      1.2715092463602211e-02 4.0294134052622221e-02
      6.1181878163307044e-02 -4.3682408249261888e-02
      -8.8625659272920478e-04 4.2580116326851304e-02
      -7.2723749922641214e-03 2.1800248210705000e-02
      -5.0986255832939018e-03 4.1696056277613843e-04
      2.8365550469854926e-02 -7.0176370207087571e-02
      -5.7706985863487735e-02 4.2279854985782656e-02
      5.7058196804656937e-02 1.1386391322385132e-02
      9.3160579090352830e-02 -1.0028110033909454e-01
      -5.6519386187469808e-02 1.2005484936317274e-02
      -7.9692270930849275e-03 2.7725324418362129e-02
      9.9464480829696514e-02 2.8167956481836908e-02
      2.4488924165045139e-02 -2.8783941136259004e-02
      -1.7333373688469409e-02 -9.1760422696941027e-02
      -3.1179601575689397e-02 2.5490572468810924e-02
      -8.0930424554901126e-02 -5.2705726261471575e-02
      -4.3719688372850021e-02 4.6852889682723650e-02
      -2.4402934037967040e-03 -1.5844938995750173e-02
      2.8840309082398510e-03 -3.6257496976081355e-02
      -2.7594486114522254e-02 -5.2441034710123818e-03
      -2.2001080497665901e-02 -1.7539321922879505e-03
      -3.4635344423030786e-03 3.1350962297579115e-03
      -1.2685192622885204e-03 3.4127855102790931e-03
      3.7262906856386393e-03 3.8387974867066339e-03
      -6.8446600548566292e-04 -1.7017383343780807e-03
      1.0933893825237741e-03 -5.0769724157731882e-05
      -3.3830093635666449e-03 3.0559439401566125e-03
      1.9797527947827851e-03 1.1368185792216814e-03
      -2.5328976291776762e-03 3.0914463092867124e-03
      2.8963006874189868e-03 -2.3425318066443179e-03
      1.6666312855845408e-03 3.3702764647711623e-03
      1.0126568311895833e-03 4.0464834477974207e-03
      3.8949917857341691e-03 -3.0987817178481192e-03
      1.3927949201488447e-04 7.5974954433451235e-04
      2.3434780708560029e-03 2.0425997637354581e-03
      -9.0755468992997392e-04 -1.0364792342909708e-03
      -4.6615524069678962e-03 4.2341289121952995e-03
      1.7747823180023332e-03 -3.2449415867533238e-03
      2.6551059744635260e-03 -4.2696489977182370e-03
      -5.0586509045160940e-04 -3.1838892392222068e-03
      1.9116836203557140e-03 3.4653716641715386e-03
      -3.3207060835128968e-03 4.4087239206603420e-03
      1.8726169276144498e-03 4.0377183257365480e-03
      4.2826200504757841e-03 -3.3176367825905862e-03
      -4.2323428943688126e-03 3.5218008358850732e-03
      -1.1718600984471713e-03 2.9873823636395935e-03
      1.7715616191934516e-03 3.6557650127077060e-03
      -1.2959586310901253e-03 2.1391933513112459e-03
      -4.7019580740074911e-03 -4.1563581212314725e-03
      1.2161502965804957e-03 1.2295117136612620e-03
      -2.1406416644882578e-03 -4.2092738206626823e-03
      3.9768019922897689e-03 1.0426404909389965e-03
      -9.7610261795610400e-04 4.8545071682333015e-03
      -1.9492439179959852e-03 -1.7807376373545028e-03
      -2.5440836355595533e-03 -1.0515801079293439e-03
      2.9703139607227882e-03 -3.6883110991245680e-03
      4.7088493051453774e-02 2.1236276509853033e-02
      3.9938608981300805e-02 3.1696059832457615e-02
      1.9376418629661857e-02 -1.7874360435618880e-02
      8.3509872324332209e-03 -2.8532158731915783e-02
      6.6025426323863337e-02 1.9559834291719393e-02
      6.7616379534687354e-02 1.9248820325447192e-03
      3.0128527225320011e-02 2.5257393393315845e-02
      -4.2739730560706631e-02 1.0861303464996774e-01
      -1.1830018908565528e-02 2.5946132272504495e-02
      1.3531123135136994e-02 -6.0371691187076464e-02
      1.1911681732090887e-02 6.7214670320415865e-02
      -2.2333183848702139e-02 -4.1652720079244664e-02
      2.2286992337440473e-02 -2.3248169498980655e-03
      -8.4898758020342593e-03 -3.7609969108862815e-02
      -5.4274140011483498e-03 2.2635022651508661e-02
      5.4479181103006903e-02 -5.7992196343661394e-02
      5.2562492596743407e-02 5.9998857600548065e-02
      -1.6612327895552774e-02 3.0533062460220639e-02
      1.0241494879899908e-02 -1.0158951940727631e-02
      -2.2025037097929839e-02 -5.0511097156138156e-02
      3.3897841660720976e-02 2.2800885435222379e-02
      -8.0925920122297459e-03 -2.7601956698855130e-02
      -6.7271986389092235e-03 3.1480460755044570e-02
      -4.0963720044278076e-02 5.4296991002507164e-02
      -4.1855554761322314e-02 1.7062868674693643e-02
      -5.2461401801263970e-02 -2.4379346970312771e-02
      -9.3277693367460109e-03 -5.6866078521054263e-02
      4.7544421997946146e-02 1.4063257082622049e-02
      -5.6311153597963057e-02 5.0423768993082992e-03
      -6.8664531572568702e-02 3.4218607487796524e-02
      2.4604777624058181e-02 -7.8305949407046466e-02
      1.6827581883657832e-02 -6.4251649287425980e-02
      -5.5604699896827807e-02 5.0662080492752783e-03
      6.2093551978165355e-03 -5.1029135767809500e-02
      -2.8119788255447857e-02 2.2953773251414775e-02
      3.4815793861025429e-02 -4.1276120592239798e-02
      -1.6022521590710485e-02 -4.6265772988285131e-02
      3.3484786547381918e-03 -2.0562017413848659e-03
      -1.1953086994838495e-01 -5.9474539535014685e-02
      4.8496707124475028e-02 2.7528349579711386e-03
      -3.1432794452402740e-02 1.1320890390323313e-01
      4.4117465316813299e-02 -6.5334821725577655e-02
      -3.4356201052004681e-02 3.8946891911074102e-02
      2.6589042488615322e-02 1.0011585707441083e-01
      2.1935818896620770e-02 2.5635045642774703e-05
      4.1584355619131395e-02 9.8725850582722513e-02
      1.0382650904551410e-01 -2.0086081615957291e-02
      1.2995071238261413e-02 7.9118949883340423e-02
      -8.1232604841825734e-02 -1.7031176653179270e-02
      -4.1949845692039571e-02 -4.1829055732512672e-02
      -8.3183861979926055e-03 1.9823011092569554e-02
      1.9010351317106381e-02 8.3050383065818911e-02
      -3.1426230486874214e-02 -7.4549019999316723e-04
      3.2157238640724811e-02 -2.0347477313429632e-02
      8.2778515692642884e-02 -2.6297266036726545e-02
      -2.3066404250158670e-02 -1.9530485781943909e-02
      -7.1854017673948722e-02 -2.0219430307260065e-02
      6.6863230387296121e-02 3.6503020836163670e-02
