<?xml version="1.0"?>
<opencv_storage>
<OCRMLP type_id="opencv-ml-ann-mlp">
  <layer_sizes type_id="opencv-matrix">
    <rows>1</rows>
    <cols>3</cols>
    <dt>i</dt>
    <data>
      400 71 41</data></layer_sizes>
  <activation_function>SIGMOID_SYM</activation_function>
  <f_param1>6.5000000000000002e-01</f_param1>
  <f_param2>1.</f_param2>
  <min_val>-9.4999999999999996e-01</min_val>
  <max_val>9.4999999999999996e-01</max_val>
  <min_val1>-9.7999999999999998e-01</min_val1>
  <max_val1>9.7999999999999998e-01</max_val1>
  <training_params>
    <train_method>BACKPROP</train_method>
    <dw_scale>1.0000000000000000e-02</dw_scale>
    <moment_scale>1.0000000000000000e-02</moment_scale>
    <term_criteria><epsilon>1.0000000000000001e-05</epsilon>
      <iterations>1000</iterations></term_criteria></training_params>
  <input_scale>
    1.0870016481377768e+01 -1.0777228245177287e+01
    4.4138949068968083e+00 -4.1743358396808725e+00
    3.1580647828873514e+00 -2.8010566519345765e+00
    2.4548906637255494e+00 -1.9392192023523547e+00
    2.3799647614262636e+00 -1.8350080130779958e+00
    2.3059534333074012e+00 -1.7268715756179085e+00
    2.3064818248457577e+00 -1.7276663663209053e+00
    2.2765187134737324e+00 -1.6819820463489741e+00
    2.1735022931025041e+00 -1.5122250641190165e+00
    2.1212591777993448e+00 -1.4140912202678988e+00
    2.0996525930461529e+00 -1.3694123614122677e+00
    2.1084948257092626e+00 -1.3880701315402888e+00
    2.1687932387985422e+00 -1.5038200667225790e+00
    2.1946167327620216e+00 -1.5490667652290704e+00
    2.2282498428955755e+00 -1.6053217665018245e+00
    2.3234145284356007e+00 -1.7529464440227300e+00
    2.4707267319635267e+00 -1.9607064889310279e+00
    3.0444606046400922e+00 -2.6699171469346292e+00
    3.6644774913016427e+00 -3.3675233515347256e+00
    9.9204267721905790e+00 -9.8185790408807438e+00
    5.1919579501162740e+00 -4.9916222788377071e+00
    2.0001304292104183e+00 -1.0114859616632224e+00
    2.0259857169220132e+00 -8.5126923219384398e-01
    2.0786441186282509e+00 -7.5614306472421144e-01
    2.0780104852865313e+00 -7.5699124611083934e-01
    2.0531088056606674e+00 -7.9457608063116147e-01
    2.0364114465498617e+00 -8.2652136055896741e-01
    2.0537880048605635e+00 -7.9341746779075173e-01
    2.1107344685393659e+00 -7.1802467963116734e-01
    2.1840313195682244e+00 -6.5326949032649739e-01
    2.2181485084884462e+00 -6.2944345724784612e-01
    2.2012196652444636e+00 -6.4089034895340014e-01
    2.1159223405568963e+00 -7.1258914214509850e-01
    2.0891958229132115e+00 -7.4262970680667451e-01
    2.0937485632881092e+00 -7.3712315320744137e-01
    2.1097834793630819e+00 -7.1903971505112763e-01
    2.0843357005490457e+00 -7.4871627310067235e-01
    2.0001007240793069e+00 -9.9001409701514653e-01
    2.0922676006702248e+00 -1.3533730038941385e+00
    5.9409497491107865e+00 -5.7675663961836863e+00
    5.2996935821272526e+00 -5.1037595882327107e+00
    2.0009421760697981e+00 -9.6977258654484444e-01
    2.0946912168688430e+00 -7.3600524242501963e-01
    2.2201970738582011e+00 -6.2810397088905734e-01
    2.1926160610588017e+00 -6.4698487532453741e-01
    2.1427281845112818e+00 -6.8688910194449793e-01
    2.0562033158343396e+00 -7.8936955070904169e-01
    2.0382703762878949e+00 -8.2257341232474335e-01
    2.0748185255488529e+00 -7.6133322525907265e-01
    2.1092668915570512e+00 -7.1959359000807221e-01
    2.1180751167653584e+00 -7.1038221271141766e-01
    2.1094389204271966e+00 -7.1940894777286957e-01
    2.0773099602744609e+00 -7.5793417976100119e-01
    2.0931232746126627e+00 -7.3786881153723582e-01
    2.1418137785563238e+00 -6.8770776936342448e-01
    2.2534082893588745e+00 -6.0760663010455296e-01
    2.2653212615454521e+00 -6.0075828587991631e-01
    2.0901873348667541e+00 -7.4141493306209127e-01
    2.0006268817301311e+00 -1.0253530090583658e+00
    5.8959366603356598e+00 -5.7211465205610299e+00
    5.5798797375535987e+00 -5.3945059499869314e+00
    2.0309222197973851e+00 -8.3893557147242304e-01
    2.1063678513100581e+00 -7.2273516826874695e-01
    2.1958745161085438e+00 -6.4465343678581655e-01
    2.1732705393895619e+00 -6.6145741356319754e-01
    2.0568457447835753e+00 -7.8831122240667073e-01
    2.0001467196829514e+00 -1.0121863720439621e+00
    2.0152365335138596e+00 -1.1312894901770905e+00
    2.0040668977544107e+00 -1.0658380934475384e+00
    2.0019958764074062e+00 -1.0456843151889186e+00
    2.0018939183097526e+00 -1.0444764324045461e+00
    2.0021645952216942e+00 -1.0476200950427506e+00
    2.0082928939797657e+00 -1.0953061255896104e+00
    2.0001980825286085e+00 -9.8602451328711604e-01
    2.0344242488156743e+00 -8.3087773133370568e-01
    2.1550758812002946e+00 -6.7618022803838973e-01
    2.1658522580210509e+00 -6.6731934262016690e-01
    2.0654482430420367e+00 -7.7481113004645330e-01
    2.0022515340969944e+00 -9.5366208147265996e-01
    5.8196676096831865e+00 -5.6424392962726015e+00
    5.1514929923826411e+00 -4.9494503556990450e+00
    2.0302127075211622e+00 -8.4063311958094500e-01
    2.0924228254174873e+00 -7.3870804674013379e-01
    2.1474618478864995e+00 -6.8270906134216092e-01
    2.0789266966894093e+00 -7.5576623423885958e-01
    2.0076284292458473e+00 -1.0912383387480025e+00
    2.2292360500567421e+00 -1.6069322963207500e+00
    2.3797540853868360e+00 -1.8347083204156096e+00
    2.2592354429779213e+00 -1.6550091914443754e+00
    2.2700765496724009e+00 -1.6719850928201960e+00
    2.2815927693695235e+00 -1.6898104020921705e+00
    2.3223115573791748e+00 -1.7513106247971342e+00
    2.4849709891051797e+00 -1.9798932543256980e+00
    2.2324984584826888e+00 -1.6122455415077717e+00
    2.0195069262515672e+00 -1.1497608068421514e+00
    2.0285778529501117e+00 -8.4463626257047275e-01
    2.0470000457202611e+00 -8.0543513161285163e-01
    2.0156448807105116e+00 -8.8249857477641558e-01
    2.0000417303128279e+00 -1.0064807992259444e+00
    5.3480867888054684e+00 -5.1540651836515501e+00
    4.9696702289333770e+00 -4.7595670868288567e+00
    2.0444566778373439e+00 -8.1021235629371258e-01
    2.0961158595350300e+00 -7.3432966494496321e-01
    2.1254316400379278e+00 -7.0304247638813688e-01
    2.0371953714625080e+00 -8.2484205258200516e-01
    2.0642488316793304e+00 -1.2876255112822679e+00
    2.3482812165870484e+00 -1.7894504229754344e+00
    2.4939788014504307e+00 -1.9919609206647575e+00
    2.3007094669086454e+00 -1.7189635733264848e+00
    2.3008831022011984e+00 -1.7192260115939859e+00
    2.3668865849633298e+00 -1.8163240288924387e+00
    2.4669104744352151e+00 -1.9555437513345020e+00
    2.6425455610986148e+00 -2.1848477689669306e+00
    2.3677053332095728e+00 -1.8174985742119163e+00
    2.1065370572175603e+00 -1.3839868277059193e+00
    2.0020793762107871e+00 -9.5542765940524010e-01
    2.0205756856791264e+00 -8.6647711518193016e-01
    2.0030472596578428e+00 -9.4630061736402071e-01
    2.0053361933850162e+00 -1.0757660592152518e+00
    5.1334279613887484e+00 -4.9306134410547253e+00
    4.9155413476661609e+00 -4.7029069024735417e+00
    2.0318534884057402e+00 -8.3674206409141683e-01
    2.0726436513215187e+00 -7.6436056676374386e-01
    2.0869325950675854e+00 -7.4543624185335999e-01
    2.0216395057985741e+00 -8.6331865849190459e-01
    2.0480606048133856e+00 -1.2445706847568250e+00
    2.2346444285107250e+00 -1.6157286051338362e+00
    2.3208456985991428e+00 -1.7491343144304417e+00
    2.2022493275021100e+00 -1.5620753391175999e+00
    2.2309339525327787e+00 -1.6097002968153804e+00
    2.3000157233875274e+00 -1.7179146163264782e+00
    2.3212116534206606e+00 -1.7496778808717623e+00
    2.3516214871605619e+00 -1.7943015719025881e+00
    2.2151688939942735e+00 -1.5837601574548974e+00
    2.0787853334873900e+00 -1.3228306946802615e+00
    2.0005218700009553e+00 -1.0231068993712349e+00
    2.0038914872838660e+00 -9.3953361980220018e-01
    2.0020165902179645e+00 -1.0459260741835461e+00
    2.0273440581471940e+00 -1.1795966581260175e+00
    5.3358574777911238e+00 -5.1413562708489167e+00
    4.8815045842272076e+00 -4.6672454431153785e+00
    2.0040668977544103e+00 -9.3822880430687217e-01
    2.0262544546099930e+00 -8.5056407432526993e-01
    2.0402279820074614e+00 -8.1853880740823060e-01
    2.0136862514747684e+00 -8.8965490173588224e-01
    2.0175517805167935e+00 -1.1415493694122587e+00
    2.1044338228115000e+00 -1.3795705865772010e+00
    2.1565859005649095e+00 -1.4816732753217905e+00
    2.1070456665610515e+00 -1.3850501477561601e+00
    2.1211674655358812e+00 -1.4139077401775395e+00
    2.1413074239781333e+00 -1.4531447197212319e+00
    2.1272202226196861e+00 -1.4259172584661433e+00
    2.1176245793413777e+00 -1.4067827837613327e+00
    2.0618263910909977e+00 -1.2814765942090547e+00
    2.0145212172625233e+00 -1.1279831570645158e+00
    2.0033751746308512e+00 -9.4356682870201480e-01
    2.0044294301531687e+00 -9.3562391153706281e-01
    2.0091855806218741e+00 -1.1005442068961784e+00
    2.0563781168984194e+00 -1.2672972764482415e+00
    5.6908319378009091e+00 -5.5093213793971767e+00
    4.9376006705555735e+00 -4.7260054866691510e+00
    2.0009707460345632e+00 -1.0316459510210496e+00
    2.0026880016350157e+00 -9.4948064214095218e-01
    2.0137686011005820e+00 -8.8934284107896855e-01
    2.0052014307697896e+00 -9.3043289367533488e-01
    2.0090742247464477e+00 -1.0999038263521330e+00
    2.0295529519349520e+00 -1.1873200825629380e+00
    2.0169953444029436e+00 -1.1391405244199806e+00
    2.0043068499066452e+00 -1.0678153404422472e+00
    2.0061814394750987e+00 -1.0817735769784691e+00
    2.0009280514460110e+00 -1.0309314963414014e+00
    2.0000070391457707e+00 -9.9735037838587692e-01
    2.0000119759067112e+00 -9.9654536047168529e-01
    2.0034292074721405e+00 -9.4313007217600708e-01
    2.0154108554753258e+00 -8.8332605206811632e-01
    2.0386481851305756e+00 -8.2178522124106546e-01
    2.0204742238141726e+00 -8.6678320894738814e-01
    2.0003536326671565e+00 -1.0189827710068247e+00
    2.0565532229643941e+00 -1.2677610362812000e+00
    5.7774489084321656e+00 -5.5988404982972222e+00
    4.9599795589884366e+00 -4.7494278831656489e+00
    2.0047275230910375e+00 -1.0711613665887283e+00
    2.0020583401096008e+00 -9.5564856516017160e-01
    2.0189512394148266e+00 -8.7148639265085714e-01
    2.0058393388141078e+00 -9.2644834613123639e-01
    2.0015490844461543e+00 -1.0401405727800122e+00
    2.0092079349654486e+00 -1.1006723362730320e+00
    2.0020478623497411e+00 -1.0462888268976240e+00
    2.0007668920124195e+00 -9.7268797628173276e-01
    2.0037767136670239e+00 -9.4040437876967209e-01
    2.0192116960157804e+00 -8.7066712650905376e-01
    2.0285376014254375e+00 -8.4473650261227706e-01
    2.0317256266548211e+00 -8.3704095923378641e-01
    2.0545865075527638e+00 -7.9206691755004455e-01
    2.0700431001835380e+00 -7.6805786500638484e-01
    2.0689266089156448e+00 -7.6967220137881576e-01
    2.0582022941181024e+00 -7.8610079545795786e-01
    2.0054727004173891e+00 -9.2870805811807688e-01
    2.0144084144808412e+00 -1.1274552574761842e+00
    6.0046358499053465e+00 -5.8332034617577433e+00
    4.9535525397006381e+00 -4.7427022816374782e+00
    2.0037767136670244e+00 -1.0633723348973523e+00
    2.0021217707745600e+00 -9.5498598709802818e-01
    2.0222701120171642e+00 -8.6148846737563589e-01
    2.0065334168760764e+00 -9.2237116925264329e-01
    2.0009140337188933e+00 -1.0306934614801844e+00
    2.0148052117220510e+00 -1.1293042477514645e+00
    2.0147481855737182e+00 -1.1290398760545763e+00
    2.0000058681674076e+00 -9.9758050224430384e-01
    2.0051180895060967e+00 -9.3097246628931118e-01
    2.0159103414288246e+00 -8.8156835902141828e-01
    2.0323676902519390e+00 -8.3554717361378594e-01
    2.0315131351829070e+00 -8.3753927155885455e-01
    2.0410063544156598e+00 -8.1696759139720154e-01
    2.0412022184267800e+00 -8.1657507134664586e-01
    2.0556807404747821e+00 -7.9023602118262914e-01
    2.0679500287911385e+00 -7.7109798916453520e-01
    2.0104563206972963e+00 -9.0283844232028776e-01
    2.0083141137463856e+00 -1.0954335317625774e+00
    5.8250132413445250e+00 -5.6479581036014999e+00
    4.9249566942538969e+00 -4.7127671308320682e+00
    2.0023513969422089e+00 -1.0496811539282349e+00
    2.0026640606446158e+00 -9.4970030606875244e-01
    2.0203057033006817e+00 -8.6729353729766834e-01
    2.0015400017476654e+00 -9.6151959133442755e-01
    2.0390756288630061e+00 -1.2181765696022042e+00
    2.1218103686381102e+00 -1.4151929347635892e+00
    2.1370010513388435e+00 -1.4449223281142729e+00
    2.0496216984834339e+00 -1.2489475859082639e+00
    2.0205418359177738e+00 -1.1539626980769291e+00
    2.0078949627152709e+00 -1.0928887278315844e+00
    2.0004907092706250e+00 -1.0223986719833318e+00
    2.0034563860389092e+00 -1.0605446251623665e+00
    2.0005983131733731e+00 -1.0247614268827272e+00
    2.0000873092926215e+00 -1.0093877007907739e+00
    2.0187248593342848e+00 -8.7220370984387641e-01
    2.0373811375822406e+00 -8.2444722928117420e-01
    2.0019445617788909e+00 -9.5686437786720890e-01
    2.0100311805753126e+00 -1.1052968782792150e+00
    5.5566468666742601e+00 -5.3704424700000333e+00
    4.6786053713359541e+00 -4.4540927592150918e+00
    2.0029963586969832e+00 -9.4673867571356429e-01
    2.0146628594483516e+00 -8.8601939689085707e-01
    2.0361369207919866e+00 -8.2711456529807137e-01
    2.0002425540499109e+00 -9.8454665799180641e-01
    2.1312312590853035e+00 -1.4337686818532114e+00
    2.3346151870975946e+00 -1.7694761895056808e+00
    2.3565825026990752e+00 -1.8014848593132737e+00
    2.1737342576452274e+00 -1.5126372025890915e+00
    2.1439533468909446e+00 -1.4581553735458541e+00
    2.0984381922175346e+00 -1.3668048508889503e+00
    2.0717038164881987e+00 -1.3060169981668019e+00
    2.1357160268222843e+00 -1.4424521094756575e+00
    2.1371994404784775e+00 -1.4453030014771111e+00
    2.0784325743012366e+00 -1.3220068306260260e+00
    2.0001304292104183e+00 -9.8864446754719604e-01
    2.0264086760089950e+00 -8.5016130518453281e-01
    2.0041113600600036e+00 -9.3790284782136746e-01
    2.0000359815941930e+00 -1.0060164837630037e+00
    5.2526601483332822e+00 -5.0548295406010393e+00
    4.6759378871953032e+00 -4.4512835868126936e+00
    2.0456408077291495e+00 -8.0796794620655299e-01
    2.0847038315540662e+00 -7.4824731478607420e-01
    2.1013679697645968e+00 -7.2829162131246172e-01
    2.0075675825806685e+00 -9.1670968688955778e-01
    2.1552910043977644e+00 -1.4792918994309261e+00
    2.4641302150794595e+00 -1.9517764588583584e+00
    2.4305215669909082e+00 -1.9058103993102664e+00
    2.2389802022262324e+00 -1.6227376410874863e+00
    2.2122186859457593e+00 -1.5788438124289323e+00
    2.1453913410859990e+00 -1.4608657384278063e+00
    2.1295981854047903e+00 -1.4305819624760407e+00
    2.2810985899415788e+00 -1.6890496999463598e+00
    2.3050744020297183e+00 -1.7255485444655503e+00
    2.1900120386358251e+00 -1.5411429740105953e+00
    2.0012634987698088e+00 -1.0361830908095844e+00
    2.0215006603175851e+00 -8.6372574066401386e-01
    2.0119132641726818e+00 -8.9664631400751604e-01
    2.0015764933387219e+00 -9.6107534358316182e-01
    4.8422355001984041e+00 -4.6260692597350541e+00
    4.6184666501351259e+00 -4.3907132191819862e+00
    2.0806346561753570e+00 -7.5350703692035215e-01
    2.1343408564111725e+00 -6.9454095696573059e-01
    2.1507091741136488e+00 -6.7989600780464354e-01
    2.0312169299989478e+00 -8.3823723233028447e-01
    2.1173547737834633e+00 -1.4062371796122148e+00
    2.4942461254409469e+00 -1.9923182945686744e+00
    2.5532909580215568e+00 -2.0702597928173403e+00
    2.2820876259442486e+00 -1.6905717768847577e+00
    2.2176045600027177e+00 -1.5878038417276350e+00
    2.1600740034577099e+00 -1.4880565173202727e+00
    2.1594160820989678e+00 -1.4868559919308733e+00
    2.4129697942326902e+00 -1.8814706799072407e+00
    2.4221259482235564e+00 -1.8941980466007153e+00
    2.1705058776944020e+00 -1.5068854106475671e+00
    2.0002497954284806e+00 -1.0159303090635137e+00
    2.0200375840455242e+00 -8.6811051094262326e-01
    2.0143802847237819e+00 -8.8705695431226639e-01
    2.0012389822636694e+00 -9.6541486028684564e-01
    4.8273992286858478e+00 -4.6105031622914385e+00
    4.9567627217647461e+00 -4.7460617109249368e+00
    2.0646892471892873e+00 -7.7595542361779879e-01
    2.1157440578472078e+00 -7.1277315964272359e-01
    2.1381941667976205e+00 -6.9098522993234912e-01
    2.0428375644341448e+00 -8.1334108359031609e-01
    2.0372417660374937e+00 -1.2124984302538295e+00
    2.3469135543960329e+00 -1.7874606924558551e+00
    2.4714934669339987e+00 -1.9617425938369875e+00
    2.2217081843525670e+00 -1.5945862640491026e+00
    2.1367038145773871e+00 -1.4443516384154447e+00
    2.1161900855891354e+00 -1.4038769387729979e+00
    2.1451853421067812e+00 -1.4604780123560066e+00
    2.3258148693156335e+00 -1.7565013207301248e+00
    2.2524973462907010e+00 -1.6443568411582306e+00
    2.0560288195540473e+00 -1.2663705020197065e+00
    2.0029584661999205e+00 -9.4706733798055986e-01
    2.0257946565598246e+00 -8.5177315989855351e-01
    2.0142400613937173e+00 -8.8757607965440066e-01
    2.0001175861037770e+00 -9.8921492103125430e-01
    5.2220293028914266e+00 -5.0229428241042982e+00
    5.4976383641272042e+00 -5.3092892357218773e+00
    2.0225179153501118e+00 -8.6077746553053847e-01
    2.0724416618896946e+00 -7.6464467130628544e-01
    2.1088375494191860e+00 -7.2005527122860669e-01
    2.0474756799831981e+00 -8.0455945366971560e-01
    2.0000768624482763e+00 -1.0088056386036552e+00
    2.0547011171207989e+00 -1.2628270333394411e+00
    2.0738624373518193e+00 -1.3112054468941425e+00
    2.0066087773582901e+00 -1.0846659050295246e+00
    2.0000579653877559e+00 -1.0076425382202125e+00
    2.0000873092926215e+00 -1.0093877007907739e+00
    2.0032156695094754e+00 -1.0583374975606641e+00
    2.0314707285556701e+00 -1.1938317714415574e+00
    2.0134678966349568e+00 -1.1229804222205577e+00
    2.0016790566004024e+00 -9.5985463586202246e-01
    2.0509897105847754e+00 -7.9825115740143415e-01
    2.0692539169229356e+00 -7.6919722543363245e-01
    2.0242560174715707e+00 -8.5591307325435950e-01
    2.0000083165790583e+00 -9.9712030733125967e-01
    5.7566964564354475e+00 -5.5774014923983533e+00
    5.7931681683159502e+00 -5.6150761949792098e+00
    2.0001150973645774e+00 -9.8932905035174856e-01
    2.0440488111944428e+00 -8.1099387312299986e-01
    2.1056926775482645e+00 -7.2347509978976876e-01
    2.0634354637503147e+00 -7.7786447058899855e-01
    2.0111109750687093e+00 -9.0000057997220639e-01
    2.0000851666780810e+00 -1.0092712610027992e+00
    2.0000402532067798e+00 -1.0063647000216833e+00
    2.0409574679259936e+00 -8.1706573912067837e-01
    2.0799203996881674e+00 -7.5444799824886866e-01
    2.0773798466933338e+00 -7.5783986217183852e-01
    2.0541294142979232e+00 -7.9283850735273398e-01
    2.0061267673467946e+00 -9.2472979147742429e-01
    2.0128767398075884e+00 -8.9278014356444546e-01
    2.0422388682762884e+00 -8.1451619414756793e-01
    2.1057769300441147e+00 -7.2338259287938333e-01
    2.1186171853808489e+00 -7.0983084726481427e-01
    2.0350051207846596e+00 -8.2958912179639943e-01
    2.0050025553415649e+00 -1.0732742367127157e+00
    6.0950230895229867e+00 -5.9262832646890358e+00
    5.8519741328771815e+00 -5.6757871160723656e+00
    2.0688612543228735e+00 -1.2990940405936742e+00
    2.0033215740922525e+00 -1.0593178100863867e+00
    2.0199375192183915e+00 -8.6841701858656650e-01
    2.0123511617845953e+00 -8.9486835029180001e-01
    2.0027241151438893e+00 -9.4915123163786697e-01
    2.0002354192391221e+00 -9.8477388041441605e-01
    2.0023178673171858e+00 -9.5300075216872870e-01
    2.0820743870521614e+00 -7.5162669215362088e-01
    2.1460104833353761e+00 -6.8398050126377252e-01
    2.1594160820989678e+00 -6.7256009016809482e-01
    2.1032672096054870e+00 -7.2615973680346324e-01
    2.0112344426614488e+00 -8.9947582583901675e-01
    2.0148337674262917e+00 -8.8539730499601543e-01
    2.0310062702725227e+00 -8.3873600733367526e-01
    2.0459004937684631e+00 -8.0748050979683883e-01
    2.0415462059550307e+00 -8.1588843355994967e-01
    2.0004654754727227e+00 -1.0218088736178585e+00
    2.0815687761669190e+00 -1.3292842017372319e+00
    6.2690158103464242e+00 -6.1052215917464165e+00
    8.5240121689936892e+00 -8.4050358773281868e+00
    2.8816142006172623e+00 -2.4780751950169209e+00
    2.6446360230429233e+00 -2.1874913603909656e+00
    2.3603922305759761e+00 -1.8069838549103088e+00
    2.3286025800265611e+00 -1.7606212493694884e+00
    2.2668991603819393e+00 -1.6670298935788284e+00
    2.2691202979460514e+00 -1.6704955290681394e+00
    2.2566161526790682e+00 -1.6508777990876284e+00
    2.0897289010684665e+00 -1.3477534070681505e+00
    2.0334531355165342e+00 -1.2003917892497249e+00
    2.0301298132108916e+00 -1.1892968342820986e+00
    2.0757127280843828e+00 -1.3156077499665060e+00
    2.2336411680420443e+00 -1.6141014069903550e+00
    2.2140927039234768e+00 -1.5819691092515880e+00
    2.2001937134817409e+00 -1.5585868721295848e+00
    2.2313598662500680e+00 -1.6103937020640848e+00
    2.3015784422910972e+00 -1.7202765620977234e+00
    2.5871111840374224e+00 -2.1140957005099894e+00
    2.8683226970977804e+00 -2.4621782616741417e+00
    9.0780779347320184e+00 -8.9665523493070598e+00</input_scale>
  <output_scale>
    1.0526315789473684e+00 0. 1.0526315789473684e+00 0.
    1.0526315789473684e+00 0. 1.0526315789473684e+00 0.
    1.0526315789473684e+00 0. 1.0526315789473684e+00 0.
    1.0526315789473684e+00 0. 1.0526315789473684e+00 0.
    1.0526315789473684e+00 0. 1.0526315789473684e+00 0.
    1.0526315789473684e+00 0. 1.0526315789473684e+00 0.
    1.0526315789473684e+00 0. 1.0526315789473684e+00 0.
    1.0526315789473684e+00 0. 1.0526315789473684e+00 0.
    1.0526315789473684e+00 0. 1.0526315789473684e+00 0.
    1.0526315789473684e+00 0. 1.0526315789473684e+00 0.
    1.0526315789473684e+00 0. 1.0526315789473684e+00 0.
    1.0526315789473684e+00 0. 1.0526315789473684e+00 0.
    1.0526315789473684e+00 0. 1.0526315789473684e+00 0.
    1.0526315789473684e+00 0. 1.0526315789473684e+00 0.
    1.0526315789473684e+00 0. 1.0526315789473684e+00 0.
    1.0526315789473684e+00 0. 1.0526315789473684e+00 0.
    1.0526315789473684e+00 0. 1.0526315789473684e+00 0.
    1.0526315789473684e+00 0. 1.0526315789473684e+00 0.
    1.0526315789473684e+00 0. 1.0526315789473684e+00 0.
    1.0526315789473684e+00 0. 1.0526315789473684e+00 0.
    1.0526315789473684e+00 0.</output_scale>
  <inv_output_scale>
    9.4999999999999996e-01 0. 9.4999999999999996e-01 0.
    9.4999999999999996e-01 0. 9.4999999999999996e-01 0.
    9.4999999999999996e-01 0. 9.4999999999999996e-01 0.
    9.4999999999999996e-01 0. 9.4999999999999996e-01 0.
    9.4999999999999996e-01 0. 9.4999999999999996e-01 0.
    9.4999999999999996e-01 0. 9.4999999999999996e-01 0.
    9.4999999999999996e-01 0. 9.4999999999999996e-01 0.
    9.4999999999999996e-01 0. 9.4999999999999996e-01 0.
    9.4999999999999996e-01 0. 9.4999999999999996e-01 0.
    9.4999999999999996e-01 0. 9.4999999999999996e-01 0.
    9.4999999999999996e-01 0. 9.4999999999999996e-01 0.
    9.4999999999999996e-01 0. 9.4999999999999996e-01 0.
    9.4999999999999996e-01 0. 9.4999999999999996e-01 0.
    9.4999999999999996e-01 0. 9.4999999999999996e-01 0.
    9.4999999999999996e-01 0. 9.4999999999999996e-01 0.
    9.4999999999999996e-01 0. 9.4999999999999996e-01 0.
    9.4999999999999996e-01 0. 9.4999999999999996e-01 0.
    9.4999999999999996e-01 0. 9.4999999999999996e-01 0.
    9.4999999999999996e-01 0. 9.4999999999999996e-01 0.
    9.4999999999999996e-01 0. 9.4999999999999996e-01 0.
    9.4999999999999996e-01 0.</inv_output_scale>
  <weights>
    <_>
      5.1461932650137432e-01 4.7072437491857820e-02
      2.0627539756907037e-02 2.2385769503237729e-02
      -2.4198039056400427e-02 3.3583291681957381e-02
      7.6512650024053455e-02 -3.3830383037423126e-02
      -5.4701838569174557e-02 -2.2716583269404320e-02
      3.0731495675852222e-03 -3.3689179594511856e-02
      -7.2975995688951314e-02 -5.2041468051813086e-03
      5.2221526886445734e-02 3.8169477544665681e-02
      3.6956063667341991e-02 3.0774327674225402e-02
      2.7145633165792132e-02 1.5407681159300119e-02
      1.0039777817865907e-01 -7.9559725297741780e-03
      2.8235001378114757e-02 1.3515292209909033e-02
      -1.9839178406486767e-02 2.3361566359512902e-02
      1.5027933972767912e-02 -6.8565203899565693e-03
      -2.9622009670907321e-02 4.8127360863751316e-04
      4.7345493503901048e-02 3.3161772659319765e-02
      5.6063036383172379e-02 -8.9772677915303089e-03
      -1.7379546736468899e-02 -3.4128760908364739e-02
      -1.6676884083086083e-02 1.8693448886826229e-03
      -2.5373628528832071e-02 8.8798338179565187e-03
      -2.5669597685840696e-02 9.4442159793854518e-03
      -1.9614856340072050e-02 -3.6151999260505330e-02
      -5.8768204164165415e-03 1.5719259513974286e-02
      3.9438541186581173e-03 6.5765604777825526e-03
      -1.5666663319183070e-02 5.5830659521093950e-02
      1.4332425743632445e-02 1.6170876017165145e-02
      2.4402088432623929e-02 5.7457998120275570e-02
      -5.7630776708436228e-02 1.9008060232344359e-02
      -3.0984907942398620e-02 4.0821557151967114e-02
      -2.7427453503941258e-02 5.1407619257638924e-03
      -4.9345235335911751e-02 3.9332641524790879e-02
      -5.8826833824479022e-02 -4.1531356599828061e-02
      -1.6236119989814324e-02 9.2683714619912314e-04
      7.3596851732896110e-02 8.8053138201009545e-03
      5.4760038013333422e-02 5.6418803258852901e-02
      -2.5261412750903475e-02 -3.0045361392351144e-01
      4.3527143472979285e-02 -7.9527566060094798e-02
      -4.4066271185761278e-03 -8.0207980762660544e-02
      1.0356684832250007e-01 1.6138501808192673e-01
      -2.7044469169518706e-02 1.6428110447889532e-01
      9.7695584251567810e-02 -9.9060985328840140e-02
      -1.1631067652239122e-01 2.8602398640517727e-02
      7.0426906830065153e-02 7.1873857587889832e-03
      1.9595598599127784e-02 -2.0378566770755085e-02
      -8.4854007079255903e-02 4.6335225962294273e-02
      -3.0914230825230858e-03 7.0210711206389692e-02
      3.7742051863852086e-03 -1.2905003622001173e-02
      6.1923537867839391e-02 8.6206306237996230e-02
      -1.6772835285003285e-02 -3.5743559161193761e-02
      8.8870892783613920e-03 4.5536496135901584e-02
      4.0534225143872595e-02 4.7995120786349980e-02
      2.3898723987460267e-02 3.9030598244419734e-02
      9.7137531469446384e-02 8.1155170981296834e-02
      -2.9541217829346503e-02 -1.0505287031639322e-01
      1.0039743666731434e-02 -5.6515584101717552e-02
      8.0819374734445698e-02 8.6734426636305914e-02
      1.6037601791752712e-01 2.2420935862206434e-02
      -1.8204044228808877e-02 3.5570346484537087e-02
      7.0800025243083084e-02 -5.0066679725731110e-02
      -1.5074516148765111e-02 -3.4001874219900606e-02
      2.1839818286808900e-02 4.7687391382074729e-02
      -5.7723909310164502e-03 3.3027600054358598e-02
      4.6152692905905644e-02 -2.4634140494791679e-03
      1.7567171828975836e-01 -1.8126845851147863e-02
      -1.2998332981771034e-02 3.8940187261107984e-02
      2.8555971213916238e-02 5.5970481782854020e-02
      -1.0733508195458472e-02 -8.9741522180242811e-02
      -1.5620710199535696e-02 1.6569947707031060e-01
      7.7835862483842416e-02 -6.5733256344112145e-02
      -1.8708676385827774e-01 9.7051696986146421e-02
      -5.6179183779858581e-02 2.5105052193563574e-02
      -5.2384504553177336e-01 -1.7509335484003880e-02
      2.4462271206087377e-02 9.2465407355864174e-03
      -1.3327234931324486e-01 2.5450956230800310e-02
      -4.9146597319984893e-02 -7.1948173935054746e-02
      3.2984779852236655e-02 1.0947638957297370e-01
      -1.4597336000738487e-01 -1.8518509719929074e-02
      3.4812992732127117e-02 -1.1661260647101249e-01
      -1.0611263788106072e-01 5.3568164818625821e-02
      -2.5855830418908592e-02 -1.2754625295380917e-01
      -2.4900681548403022e-02 1.3436775694340646e-02
      4.5073050021040839e-02 -2.7481363310583762e-02
      -3.8607025171705320e-02 -5.0772068917317129e-02
      -1.4633496141580149e-01 2.7374080609802975e-01
      -9.7449461065415480e-02 9.3657723452579209e-02
      -7.0418025580463200e-02 -1.2982831573481563e-02
      -2.2188920444918780e-02 4.5665566592537225e-02
      -1.6541711779082863e-01 -1.9947262335658633e-02
      -1.7677029206226744e-02 1.2396477002857691e-01
      -1.2927608980893732e-01 1.1035234975396173e-03
      1.5936947999878745e-01 -3.4218923143669554e-02
      -4.9904399356302523e-03 -1.4480986191870210e-01
      4.3464601379369444e-02 -5.3223907015604553e-02
      -4.0552051955823412e-02 9.3382910188792356e-02
      4.2193636483178814e-03 -7.5778236408589994e-02
      2.9307574493598523e-03 -5.3914933993615001e-02
      1.4181548744917957e-01 -3.8508697311909541e-02
      -8.0041676763522418e-02 -8.6072253664844153e-02
      -4.1810167299925699e-03 8.2454124899055126e-02
      1.3290574221184456e-01 -3.1838164938037467e-01
      -8.0531809165069829e-02 8.7957162854766652e-02
      -9.8659800798773702e-03 1.0161868333507328e-01
      -7.1686223711373051e-02 7.0606630390889231e-03
      1.9137685430218113e-01 7.0520017254343901e-03
      4.9151588249194113e-02 1.3287941921425220e-01
      -1.7208699254775590e-02 -1.1834364451943930e-02
      6.9488496215142220e-02 -7.8035454095019816e-02
      1.1964929609222376e-01 -5.1133317813649444e-02
      -2.4686547468935737e-02 -4.9754569182818675e-02
      5.1508489988356651e-02 5.6931813085987798e-02
      4.0877549863679905e-02 -5.4262904018480371e-02
      -1.5827021504425648e-01 -1.0929301310136158e-01
      1.4090872257296339e-01 1.0907469632719508e-01
      -6.6922578058164511e-02 6.1187657039444444e-03
      7.7967533158209520e-02 -3.6333562291524242e-02
      -1.1009282180102356e-01 -1.0693625182330938e-01
      4.1448170890736040e-02 -1.1411889703380240e-01
      1.6621412121294744e-02 -5.0517108006902386e-02
      -7.7719309336991588e-02 -1.4299155469155290e-02
      9.2582067691197043e-04 9.2016905466783608e-02
      -4.9662442647002619e-02 1.6263169853805881e-01
      -1.4813755078266549e-01 5.7681048076878946e-02
      9.5646166232897327e-04 -6.5195896851318255e-02
      -9.4155749244132739e-02 1.1165569556584456e-01
      4.7569348697131052e-02 -1.1933082285734219e-02
      -3.9775689704189911e-02 -3.8827227747981190e-02
      -8.7998294776659880e-02 6.0285337783036429e-02
      2.6084623310017162e-02 8.1577664740426683e-03
      -6.8128112757143838e-02 -4.1264402261710804e-02
      -6.3680214951437886e-02 1.6554822791278964e-01
      5.1109963449135071e-02 -1.4223243296567523e-01
      4.7524573273311506e-02 -6.7180583946561845e-02
      3.1872815965749014e-02 4.6287002313795067e-02
      -1.1560753558056291e-01 1.1072723977869811e-01
      -2.4980159360273209e-02 4.7127947936827945e-02
      -1.1329403863213740e-01 1.1201312491147374e-01
      -4.8168392545369088e-02 -7.0626772124417272e-02
      -9.2261867290695937e-02 8.2810733841478246e-02
      3.6359086581126909e-02 2.2867533498030534e-01
      6.5581892599241465e-02 -4.9577092154387992e-02
      2.6214088710474598e-01 -3.5481074908203784e-02
      4.1478219409947024e-02 9.7938106872668601e-02
      4.1149034802545298e-01 1.5562521389879251e-02
      6.6108780329975275e-02 6.1775504876476213e-02
      -7.8848985239889410e-02 -2.4942020710969393e-02
      5.3374950710828660e-04 9.8895006363573734e-02
      -5.9058752329024217e-02 -2.1042469600850239e-02
      1.9785298103872372e-02 1.3322496736208238e-02
      6.4000101863355724e-02 4.0841725380327681e-02
      1.8748665453515077e-02 1.9549780957968350e-02
      -1.8184243825490901e-01 4.6814732281875659e-02
      -3.8137592696402565e-02 2.5788248742174374e-02
      -5.1318690114743173e-02 -9.0947726502743035e-04
      -2.9216219961579578e-02 -3.6853545225755688e-03
      -1.2309783500552021e-01 2.2308060063238913e-01
      4.7772321413692635e-02 5.1128128304192477e-03
      5.5138477244094430e-02 -5.9974408692078415e-02
      3.6342256442310837e-02 9.9552928809006676e-03
      -3.1747419986702920e-02 -5.2432688225830533e-02
      4.5508534933541948e-02 -1.0665147316924804e-02
      -6.2218464132061503e-03 -9.3983493173273841e-02
      1.8649519613893443e-02 7.6750607261418163e-02
      -2.3616017720717861e-04 -1.2291689692365622e-01
      -8.4885930725730072e-02 5.3363119629747220e-02
      7.8710438140960418e-02 -4.2625716847938713e-02
      -6.4103602673952374e-03 3.8253367948815578e-02
      -1.3362883798828873e-01 -5.5369506259093933e-02
      2.0514605884294781e-01 1.0193668903216529e-02
      -7.0186156796662222e-02 -3.3963558812752953e-02
      6.0761455630257324e-02 -6.8809163597919179e-02
      5.9625871357295461e-02 -2.5784048517284064e-01
      -3.8022586998820843e-02 -2.7401520510147472e-02
      -3.8334764391124376e-02 5.4275876381383217e-02
      3.8164416469228066e-02 6.0344543460203640e-02
      -9.3592818840959411e-03 1.4064391172134796e-01
      -4.2164172094593159e-02 1.3920539570006379e-01
      -4.9408453701284848e-02 1.0918198484812157e-01
      3.6631485767044822e-02 -7.9267637002621377e-02
      -4.8465615935520248e-02 -1.8146419283571610e-01
      7.2595872542838003e-02 3.0778313993902365e-02
      -2.3089490967683327e-02 -1.7860851937191606e-02
      -1.2154934883779190e-02 2.2469705333613924e-02
      9.1692723134220014e-02 7.6469265767293529e-02
      1.1261012199271139e-02 -5.6619375976785381e-02
      -3.6584646126192458e-02 -4.9380605604659393e-02
      -4.8029495125857836e-02 -1.2697580906310157e-01
      6.2168097612071892e-02 -6.9426283954805851e-03
      2.1732554725299450e-02 5.4475826766442375e-03
      -1.9310703414981222e-02 -1.4645429803242084e-02
      2.2048186901511665e-02 9.3072960863027133e-04
      -6.7221125989599229e-02 7.3134039194257941e-02
      5.4919254934577291e-02 3.2125310021775086e-02
      6.6177773175681173e-02 7.7529957424683088e-04
      -5.4734452204898733e-02 1.0259465247304796e-01
      -2.2234153165575681e-02 -2.8252111240941010e-02
      -9.5205751683338960e-02 5.4686908236719095e-02
      -8.5792926085293930e-02 -5.1873033184970614e-02
      4.3264026705521520e-02 -5.5099848468568260e-02
      2.2462278739061206e-03 5.2868440337900495e-03
      6.2208871808405057e-02 1.8673514686118421e-02
      -9.4899427689701735e-02 7.0071512010478447e-03
      1.7784236527969392e-02 -1.5877871134669867e-02
      -8.6645551981179292e-02 4.8180888862717989e-03
      2.7190017755993907e-03 -8.7759307657399779e-03
      -4.3874040510806810e-02 3.1183751544976435e-02
      -3.6420601676724472e-02 -2.1821214168596167e-02
      1.5606632646742413e-01 6.6128287805567653e-03
      -5.6994459470600068e-03 -3.6039531713760294e-02
      6.7503657555074495e-03 -1.8514997522775811e-02
      1.8019168720150833e-01 -2.9473722044409380e-02
      2.5607719095849860e-02 1.1126404017191723e-02
      -8.3944397859030975e-02 -1.0336228432530443e-01
      1.1400797024030462e-01 -2.5835146788332125e-02
      -6.9899184179044982e-01 4.8264779069108490e-02
      -5.7220864734142632e-02 3.2349106469799487e-02
      2.2466285228933850e-02 4.2549502247959871e-02
      -5.8101380007817879e-02 1.0263889688876326e-01
      -1.1031416566023236e-01 -1.9853523964847873e-02
      9.9340544633340355e-02 -1.4771200297783174e-03
      -4.4697502003882457e-02 1.0270272200321273e-01
      -1.2309184457937684e-01 -6.4550276759819419e-02
      -8.5718429338401403e-02 1.1642321005465332e-01
      2.1539912212182433e-02 -4.3213073972396699e-03
      -1.0958530344537427e-02 3.9335793187380223e-02
      -1.1946082217457259e-01 3.9033827083965113e-02
      -5.8535453430035467e-02 -2.0205086164454378e-02
      -5.1314965880587891e-02 -6.0110399881830673e-02
      5.0497473867466357e-02 2.6609934544442156e-02
      -4.4376977436612706e-03 -1.3187255385336352e-02
      6.8413919804129364e-02 -1.5177050118971844e-02
      1.0714430584285574e-01 -9.2326400421281471e-02
      5.5296985778871946e-02 -1.0796963996292226e-01
      9.3452719675345252e-03 5.6368540387642822e-02
      1.9912452576012020e-02 8.6403957005900100e-03
      1.9019881541977826e-02 7.5409335885406534e-02
      3.2021802238808336e-02 -8.1067788007031502e-02
      8.3926417358321292e-02 -2.2539501554134901e-02
      2.8815691902520070e-02 9.4708998106631595e-02
      -4.9653690871401882e-02 5.0069225052374886e-03
      -5.3848792867293029e-02 -7.1006870564614660e-02
      9.1699598396124085e-02 -5.6392200903557343e-02
      -7.6915393285246006e-02 7.7785826240680811e-02
      -8.4041923660806168e-03 -5.3060559476801300e-02
      -5.6957879374100254e-03 -1.5984764029235751e-02
      3.6457441733569081e-02 1.2314266387196172e-01
      -1.1155973135002886e-01 5.3203083815357731e-02
      -6.2529238827601127e-02 -1.5478985400491266e-01
      3.2736201338592008e-02 -3.6945902883712044e-02
      -9.2410652313041783e-02 -7.9966780243205904e-01
      3.1141843608351760e-02 2.9009850005113417e-02
      -2.3963440693699919e-02 7.1028415009766433e-03
      -1.6929952882031751e-02 4.7726890675919745e-02
      1.2952522509044823e-01 -9.6246532699192450e-02
      -1.5231470584243670e-03 1.7981851377634418e-03
      7.9441796353882672e-03 -4.8113392654514572e-02
      1.2892558347263633e-01 -4.0212515845787999e-02
      -4.2092379833749451e-02 -8.9874062588507553e-02
      7.3601109812838086e-02 4.5575672694772369e-02
      -2.1075490442808122e-02 -4.4299709071287753e-02
      1.7044498912520656e-01 -3.9558326613053217e-02
      9.0415792979799195e-02 -3.9079435101749965e-02
      -2.0500028061743121e-02 2.1248562010578832e-02
      -1.5862638608048502e-01 -9.5525009710286206e-03
      1.4928166644966065e-01 3.4015957174273949e-02
      -2.4826869084260017e-02 7.9175505061667581e-02
      2.8708721088591547e-02 4.5318764623770505e-02
      -5.1935424065338555e-02 6.5267755858087417e-02
      -2.9618300220398096e-02 -9.2489656004600320e-03
      -1.4815169130575984e-02 -2.9976095696055867e-02
      -1.9031166352071954e-02 4.3531840588786645e-03
      6.2536498586976644e-02 3.9009960969066407e-02
      -2.3269936738364663e-02 8.6699529010372686e-02
      -7.3425068846409468e-03 4.7426013707189553e-02
      3.8579483291783338e-02 -5.4769052578354523e-02
      -2.0562268761870003e-02 -7.6437139611940139e-02
      -9.0946608440806119e-03 5.0886505129469302e-02
      -6.0005966146426989e-02 7.2278784433286156e-02
      7.4331289159921890e-02 -4.7164211496609931e-02
      -4.0758601118440459e-03 9.5794952643774564e-02
      -5.6995549706756146e-02 6.4742503600837650e-02
      5.9487923047476965e-02 -1.5108727714141063e-01
      -3.8033364023112332e-02 -9.3046383458597406e-02
      -7.0842655367040791e-02 -5.8698443178419095e-02
      7.0192980525451379e-02 -8.1255757989852878e-02
      -1.2956199044064320e+00 -5.8686652230638778e-02
      2.7463090994970209e-02 -6.6351186351295582e-02
      -2.0340583099773064e-02 4.6069434967250723e-02
      3.9538920511300285e-02 9.4674849559193600e-02
      -3.8399731744037900e-02 -1.0843768757611318e-01
      -6.2988987427216536e-02 1.2635346135495209e-02
      -5.0634629507165699e-02 -1.0242503388424138e-02
      7.2383361109452204e-02 -3.6465398456294103e-02
      -3.6518362611432591e-02 7.1705946154891287e-02
      1.1312896942806643e-01 8.2701452644526732e-02
      -6.9758949036103399e-02 -1.5566586031709264e-02
      2.9739542516676390e-02 4.5692086960329179e-03
      3.6065920389299108e-02 -9.6167416649256057e-02
      -3.9124640575903945e-02 -7.8993366617055250e-02
      -2.3191482971429145e-02 5.0035402361734600e-02
      -1.8606299700864885e-03 6.0851204278743798e-02
      4.5508062926107221e-02 -2.3716476204905391e-02
      -4.7948950496106684e-03 1.0168786117831065e-03
      7.2101137623157788e-03 -5.9519136672483153e-02
      1.1548741959979333e-03 -7.2566714199117061e-02
      1.3471659805709369e-02 -5.2237874611896370e-02
      2.4032354872541625e-02 9.3211966741542140e-02
      6.5785799043879226e-02 1.4871503410714823e-02
      -2.1734819507302543e-02 -5.8637058740674299e-02
      1.5751935786577739e-02 3.6433645406853364e-02
      5.2129588084296206e-02 -4.9612109368301086e-02
      -4.0759048571389546e-02 1.0755028554010272e-01
      -1.9849940331279604e-02 -7.6572802540079865e-02
      -2.4240154576568359e-03 1.3496515980730744e-01
      1.0711789490347495e-01 -7.2819998310082595e-02
      7.9733986667016685e-02 -6.1453457478885816e-02
      1.1807208522343326e-02 2.1537130092853816e-02
      -4.3573572230457158e-02 -2.1356559974457470e-02
      -3.3816218251268085e-02 -1.8598951758600074e-01
      -3.3078215313240150e-02 5.2914425839222637e-02
      -9.5883226261502079e-03 -6.6601753056795321e-01
      -4.2499346932570681e-02 1.2533423532984788e-02
      -8.9504994830342605e-02 -1.5248337453272520e-01
      3.8958712482577353e-02 -1.0948770728893985e-01
      5.2839470224244685e-02 4.2822092618126209e-02
      1.7304969877505175e-01 -6.3525505897433263e-02
      3.8101653495397396e-02 -1.2261583565640588e-01
      1.1059710804544542e-02 1.2157430291044212e-01
      -1.0147598796501628e-01 3.3056223097025314e-02
      4.9306904528663653e-02 1.2600315984934173e-02
      3.5000376733628796e-02 -2.6561411281512463e-02
      7.1070379906363251e-02 7.6516510868285037e-02
      -2.4873288361903351e-02 4.6786818860637722e-02
      -9.2391666856367419e-02 -7.9652334914825138e-02
      4.3053136889443747e-02 -2.3658115471437022e-02
      4.1819735743742363e-02 -1.1645702978190151e-02
      2.0864305783748632e-02 5.9638169231405599e-03
      -6.6430635223399578e-02 1.8979717081185669e-02
      5.0249146795969826e-02 1.2756658154109993e-02
      -1.9557468402546647e-02 -9.2790257357813419e-02
      -6.9328781543886841e-03 2.6686445930523068e-02
      -7.4165497792728447e-03 -1.2677127719523704e-01
      6.4336483355308685e-02 2.2552787283691346e-02
      -1.9241529864193696e-02 -5.2430446088021790e-02
      4.9852615111520109e-03 2.7707736276155966e-02
      3.3994121484314920e-03 4.6426962854376502e-02
      -9.7634839906978119e-02 8.0057435620282405e-02
      1.7252019548170083e-01 -6.2763183566894327e-03
      -7.9055272526028203e-02 8.0700578121831471e-02
      6.1647952272777834e-02 6.1808900127994816e-02
      -4.9234291160426602e-02 -4.1885828373404613e-02
      -7.6903891160171850e-02 8.9699376388538352e-03
      -3.8909143363456723e-03 7.7667727367840712e-03
      -3.1722396570287338e-02 6.1485677219808674e-02
      -1.1768125428332719e-01 -2.6658080693292174e-02
      4.1416756276361055e-03 -4.9652313827282482e-02
      -5.9417740216631632e-01 -6.5013090434159496e-02
      1.7320438474218075e-02 -5.3569751637310127e-02
      -1.0080217096856360e-01 1.7353063348708005e-02
      -1.0167932920128184e-01 5.4757612484396520e-02
      8.6020212973530477e-02 1.6416745253201448e-01
      5.5727667742709276e-03 1.8242458987656154e-02
      -1.7716926285966661e-01 1.1661522116639443e-02
      1.1269159913327023e-01 -6.1704191420548782e-02
      -4.6326384263595984e-02 4.8955294777951679e-02
      3.9370426347828294e-02 1.8047698291222266e-02
      -5.1055793590968840e-03 2.1774408257725766e-02
      9.4508838184566998e-02 4.9385306454409307e-03
      5.6616062828814491e-02 -5.1057257669851475e-02
      6.5012450664765856e-03 5.1438155683268247e-02
      -3.8925472404550999e-02 -1.0158911020777494e-02
      -2.2429551868695583e-02 -2.9492264357810171e-02
      -2.9226081326775767e-02 -3.1227548184611906e-02
      -1.0994967782900334e-02 5.1056115994394982e-02
      3.9704352717973450e-02 -3.4334056465405223e-02
      -4.1419165247302540e-02 -5.7934745861641084e-03
      -1.7639229772482105e-02 -6.0266804724505636e-02
      -4.8472055694480383e-02 8.3947620382280180e-02
      -3.2172137215228692e-03 4.8843457562868425e-02
      -6.0284863270642468e-02 2.0985816132541833e-02
      2.7357390936695987e-02 -4.3025139587990133e-02
      -3.2487656953542277e-02 -6.0796047452373332e-02
      2.5455508135586169e-02 1.4320462000474712e-01
      -3.1678468053985456e-02 -4.1863535874375808e-02
      2.0882407556433513e-02 -3.3726170358976633e-02
      1.4680086390642435e-02 3.2897080312738580e-02
      -8.2405896981338836e-02 -1.2904891149952394e-02
      -6.5784835531327241e-03 -5.4592360459167537e-02
      3.0693736772903855e-02 -7.4606900944274690e-02
      6.0876580542619539e-02 -5.9404543720368574e-02
      -4.6344238863421490e-02 7.5461134621996065e-02
      -7.5825718136262377e-02 -1.0837387855350904e+00
      1.2386037378796585e-02 2.9253979615938678e-02
      -4.5616108325484642e-02 -4.4673980939938303e-02
      5.2270301447669698e-02 -9.5292520167106747e-03
      -2.0319216169606316e-02 2.7673352118075284e-02
      6.5367885986157420e-02 1.1516643140768537e-01
      3.2858165502852102e-02 -1.6602089828555228e-02
      -4.1195857667091738e-02 1.2667181471485747e-01
      -3.5751467971317355e-02 5.7205858887168858e-02
      -2.2423722751930539e-02 3.6261774299403103e-02
      2.5217865635035606e-02 -3.1034452977483112e-02
      -3.5238556908557865e-02 2.0151881391106564e-02
      -1.4200363397932564e-01 4.2271854526396133e-02
      -3.2482403978649897e-02 1.7537787854037200e-03
      -2.6290499654315579e-02 -1.2985758579396284e-01
      -6.1136254656427427e-02 -6.0263592215278631e-03
      3.2941948055229313e-02 -3.8723146723691620e-02
      6.5623290999829179e-02 -4.8646489289291391e-02
      -5.3364647940939971e-03 -8.5740639532596360e-03
      3.0010930471031951e-02 -4.2983232554401056e-02
      -7.4764999623540329e-02 5.8263313194747632e-04
      7.4242451883475913e-03 6.8347197146314029e-02
      2.3350614701440186e-02 9.8863769149305676e-03
      1.5915017933396838e-01 -5.1509746583356206e-02
      2.4885555563530910e-02 5.6309754114806418e-02
      -2.9672140042029928e-02 -3.9710239081770765e-02
      -3.1532988874651315e-02 1.5917675261702229e-02
      5.6557261091767064e-02 -5.4653221100865894e-02
      -3.1957801265967686e-02 -4.3914910499424913e-02
      7.0161717746843280e-02 -1.9124509071029750e-03
      6.1516735090808634e-02 6.4308721785513154e-02
      5.4917342493256471e-02 -2.9975062338944421e-02
      -8.5309032362959503e-02 1.1300190217089723e-02
      -5.8908733710637297e-02 -4.3021113717213533e-03
      -1.8987681570764026e-02 2.3073350134442137e-02
      1.7883075974880095e-02 -1.4133521031623004e-02
      -1.0488381715870043e+00 4.9009715598520437e-02
      -1.3277391665629600e-02 6.1018350238703757e-02
      4.2332902124682104e-02 6.3298663910581069e-03
      2.7153749402073372e-02 -4.5419096888930588e-02
      -2.4721692088955174e-03 5.2606691516374057e-03
      2.5076517296871055e-02 -3.2659903784542609e-02
      5.5921260568343326e-03 -1.3876314399720836e-04
      6.7169985797246479e-02 -8.6700029075173300e-03
      2.7792269938858853e-02 -3.0120633315240179e-02
      -2.0274655479847255e-02 -2.0723890669966296e-02
      3.7402076870116045e-03 1.7379682830431079e-02
      5.7528788544721710e-02 -4.7573228220330832e-02
      -2.4412365722979005e-02 2.1298596159452031e-02
      4.7607109766269222e-03 5.4051792872027257e-02
      -3.0341308247300788e-02 -1.3027437304696116e-01
      5.1009645213006940e-03 4.5490235729909757e-04
      6.0192511893949092e-02 -6.6602127566910294e-02
      1.8590927216708360e-02 4.0956605784019384e-02
      -3.8423992644180449e-02 1.6328317848354310e-01
      -9.7451671119617167e-03 -6.4498231215641397e-02
      2.9861996206717319e-02 7.8235872194992052e-03
      9.3346728246682664e-02 -1.1468552951450699e-02
      -5.7974016839376322e-02 9.9218546482496506e-02
      7.8874279507432449e-02 1.2970240467334981e-02
      5.2625931001024889e-02 -6.2202610985004729e-02
      -8.7661008433072243e-02 3.2578065601947204e-02
      1.1867034033030420e-01 -7.5486630148952405e-02
      5.2406589141349900e-04 -2.1376308748776453e-03
      5.4945154107401877e-03 -1.9060102032969050e-02
      -2.4262200804165114e-02 5.9907754365505668e-02
      5.2399266194669957e-03 3.9459780728485737e-02
      -4.6827899373689835e-02 1.4032445170136007e-02
      -9.6454553994091891e-02 -2.8325881840652815e-02
      -2.9086985932201468e-02 6.4228968418665239e-02
      -5.5862455286646209e-03 -6.6670477119848956e-02
      -5.5532035812242170e-02 -1.0808149418805106e+00
      1.0203513694634929e-01 -3.7909767929254434e-02
      1.3179026517969980e-01 4.4344007184714769e-02
      -9.3970534783909543e-03 5.1636142440051304e-02
      -1.1154868666924303e-01 -7.9999676248006982e-02
      -6.4165502920716738e-02 8.8823618651267644e-02
      -3.2031240370170109e-03 3.9129374322452858e-02
      1.5365734869697670e-01 -1.1943884712074112e-02
      5.7259090547047309e-02 -1.6717443634259033e-02
      -7.2881429341882811e-02 -1.8473780886933470e-02
      -4.1158307706232439e-02 1.9856506139721796e-02
      -2.9165404940438414e-02 -7.1258996508472450e-02
      -4.0139940036773250e-02 3.2074454909634516e-02
      1.7900180867840964e-02 1.4872242394891684e-02
      -3.5986468802642307e-02 -5.5136639801129901e-03
      -2.0230081051182047e-01 3.0269177371179210e-02
      -3.1910015680409319e-02 7.2113410727158059e-02
      -1.3687172167995923e-01 5.4657115230334327e-02
      6.4001366382164804e-02 2.9243524281091709e-02
      1.3788032377409506e-01 -2.5711851079399772e-02
      -1.2742276859180852e-02 -2.5364890698579830e-02
      5.8666950371126632e-02 1.0536972562108521e-01
      -5.4405792333990795e-02 -6.7516682139130563e-02
      8.3156044530107096e-02 1.3074254316347944e-01
      -1.7645999497020622e-02 -4.0138104827734292e-02
      -2.7973172444154353e-02 -6.6455170028051250e-02
      8.1157619974354708e-02 6.5181347074375229e-02
      -8.3671354905880554e-02 -2.1758158376035747e-02
      -1.1984778083485657e-02 -1.0234218319440049e-01
      -1.3427925675256237e-02 -9.6782737073538554e-03
      1.7925514178131097e-02 -4.6846920790943651e-02
      2.4305302153735348e-02 -5.8952408313761140e-02
      -7.8459338409592377e-02 -9.0347645949061889e-02
      -4.7420275633601898e-02 -6.2828877354021428e-02
      9.1961193822959461e-02 2.6100117778307130e-02
      -6.7618800272645940e-02 -3.7580841267227075e-03
      -1.1114389880463573e+00 2.1687149505286087e-02
      -5.5243431614456912e-02 9.8998076008190924e-02
      1.0946244343195158e-01 2.6083184987780422e-02
      5.9679183273383313e-02 -6.0491350768526707e-02
      -4.9422549738499001e-02 -1.9686205733407472e-02
      -5.3477095922415518e-03 -8.1873189666242328e-03
      -7.4457709883476400e-02 1.1038607013521118e-01
      2.8947020619711366e-02 5.0913826095257755e-02
      6.9433068827093283e-02 4.3057310861077773e-02
      -6.6032354828130611e-03 -6.0008418115823858e-02
      2.5576850600932392e-02 1.7254165517405707e-02
      5.0061767637438005e-02 3.7951021687704138e-02
      2.6169011272795369e-02 -1.1176761927639786e-01
      3.2231684175330254e-02 -1.2486940060733846e-01
      4.1555396437179065e-02 -8.0038105631985712e-02
      1.2890935296799787e-02 -4.5505083626790392e-02
      1.4527968395684984e-01 8.9345294100795693e-03
      -6.2257255028239304e-02 -1.0664518148789036e-01
      6.9935509236454307e-02 1.1994803765212936e-01
      -2.0572430800505068e-02 7.8584577673942307e-02
      -5.2803583070272976e-02 1.2974336883816401e-01
      -6.2021539661297934e-02 5.2385110292755251e-03
      -5.4996424569413338e-02 4.5131511786567581e-02
      2.5916637941999110e-02 1.1239069646502810e-01
      4.5198456847963121e-02 5.2154559461077915e-02
      -2.4364219546114066e-01 8.1339902971158964e-02
      1.5889115252110769e-02 2.3745409521461102e-02
      4.3947400224635755e-03 3.2494581236644587e-02
      -1.3109430099707867e-01 1.1187168419629311e-01
      7.8646483395252043e-02 3.6728839783100230e-02
      -2.0868709794876244e-02 2.5195033524246711e-02
      -2.0471692238051075e-02 -2.9668872164511025e-02
      -2.2754465983131503e-01 -8.0249240048379897e-02
      4.4480742769056579e-02 -2.0741688263504122e-02
      1.9326258820165356e-03 -6.4978863590146568e-02
      -2.1293969542337726e-02 -6.6727486522174295e-01
      -9.9402079242294165e-03 -1.1353944625933152e-02
      8.9182862693619580e-02 1.1630110831510790e-01
      2.3450248781406481e-02 -4.9140622755700324e-02
      -2.0450740423894425e-02 -5.5835750970153586e-02
      -4.8123429297433150e-02 -1.2213557469800239e-02
      -1.0076123368551725e-01 4.8975473487772127e-02
      1.3548872042415663e-02 -5.1230418271345966e-02
      -8.5281420766432012e-03 3.8960315434717001e-02
      1.2142558614446988e-02 5.4376133841845175e-03
      -4.5901238600244400e-02 2.9031577736458808e-03
      1.0359065292821726e-02 -2.6806914991067469e-02
      -6.3298304715371109e-02 1.0035106606755548e-01
      -1.4792094444037535e-02 -2.0034835169470109e-02
      -5.7308786520264884e-03 -1.9243116003833698e-04
      -2.0128866123171225e-03 1.9995535975114782e-02
      -2.2597233193107198e-02 -1.7017601967194609e-02
      1.2061721433080319e-01 -3.8147514027763375e-02
      -9.4117949239470852e-02 3.7598129258150009e-02
      7.3484815261615558e-02 4.5818708275463561e-02
      -1.8315389500582226e-02 5.7804115403813507e-02
      -8.2794347425114417e-03 4.1610419545424944e-02
      -9.9042460651350521e-03 3.3158559473358572e-02
      -6.0710921879442908e-02 -5.2536838240728280e-02
      2.9705980882452628e-02 2.4138574517801742e-02
      4.0282735557663631e-02 -3.0705702841420813e-02
      3.5362043948056629e-02 5.4196201219018176e-03
      -3.7736962932587735e-02 -1.2046770650196409e-02
      4.8774715901464046e-02 -2.1198485024018776e-02
      -5.3424991933524499e-02 3.4641379769257886e-02
      -2.6723448903869729e-02 9.8578366922791420e-03
      4.6315050732653573e-02 -3.6612750385709505e-02
      -4.6979798112821741e-02 -1.3550495996274453e-01
      4.9977098975752442e-02 4.5546347617125039e-02
      -4.0815086668766543e-02 1.5577019231219014e-02
      1.3555680513957699e-03 7.1526556390830269e-03
      -1.3691928748205531e-01 -1.1398808961315629e-01
      6.8125365101641105e-02 -9.3279878659064924e-02
      3.0234076057352888e-02 -1.1034296405923323e-01
      1.4948085229506688e-02 6.9549110972549053e-02
      -5.0882886767109475e-03 5.7411743493972378e-02
      1.0124855527991872e-01 -5.1222104049185738e-03
      -1.6078973953221411e-02 9.3560697652381744e-02
      2.8643965782409572e-02 -5.9259719029464315e-02
      1.6079261383529445e-02 5.4398335171562118e-02
      4.8119145932756804e-02 3.8861264422073140e-02
      -7.7342407473257269e-02 5.8797899670448621e-02
      4.4734941320806715e-02 3.9004553696677213e-02
      1.0623886107696784e-01 -1.6190464350565134e-01
      -1.2947100997762354e-01 -9.5086050793708847e-03
      -6.5705194118149887e-02 1.2522427748539647e-01
      -6.3790222566627822e-02 -1.3254025881254761e-02
      -2.5217142246968194e-02 3.7678402361540707e-02
      -3.2722623901379304e-02 -1.9424673249707383e-01
      3.8349813447598406e-02 1.3338576253872541e-02
      -2.4939953097988202e-02 4.3237381037641742e-02
      -8.1186529133594018e-02 1.5624318131389811e-01
      1.8110968586501804e-02 -3.3324631466777388e-02
      9.0207546458443061e-02 -1.3339428799389996e-01
      -7.0770866114156478e-02 -1.5338968091097435e-03
      -3.0695854011684860e-02 -5.4050949273450270e-02
      -1.2894347386779814e-01 9.6657512098055731e-02
      3.3279206264561753e-02 7.0539734876570795e-02
      1.2817410230730590e-02 3.9305914551986995e-02
      -1.7341072194021860e-02 9.5809839596619789e-02
      6.1817450076232128e-02 2.0506711460494497e-02
      3.9576169076351204e-02 -3.3377394728679628e-02
      2.9177150925658642e-02 7.0267728351586109e-02
      -2.1215152172036231e-01 -5.6109400289408223e-02
      6.9231916322642792e-02 -1.9631475828584885e-01
      -3.1767181918282181e-03 -4.9818489999257261e-02
      -2.0838039632678156e-02 6.7500850658347367e-01
      8.8762820539848838e-02 3.8279523759951764e-02
      1.0740022578035073e-02 2.2232232840657196e-01
      -7.2238124214806881e-02 -1.4972691418437250e-03
      -5.2968375025761204e-02 1.8480922865701837e-02
      -9.9640102713086154e-02 -3.4571853966279535e-02
      -3.4124801652555665e-02 -3.7282321124298759e-02
      -4.9464610165772277e-02 -3.9726679502999962e-02
      5.7131656534988938e-02 1.1898033757078422e-01
      6.4427603603771033e-02 -3.9234101135431611e-02
      -4.8564484891655053e-02 1.6229715576441964e-01
      -1.8205318639421622e-04 -4.9693542681378877e-02
      -1.6908707447940857e-02 1.3229424258357705e-02
      -6.6016839251331436e-02 -7.1730466063701093e-03
      4.1782728685803546e-03 6.7700963699783873e-02
      9.6073676764163299e-02 -4.2023145160757662e-02
      -2.6423641487697495e-03 1.3870701669490086e-02
      5.0624037396546188e-02 5.8993652944207440e-03
      2.1824896678206283e-02 -5.0736437449141386e-02
      7.3530419550778908e-02 1.4354228791012524e-01
      5.2438901387902156e-03 2.5239360147279736e-02
      -1.1780368744331794e-02 -4.6787824396433475e-02
      1.2644238300214078e-02 6.3981244431988811e-03
      6.0919018047470477e-02 -1.1356624252472085e-01
      -1.9007657441558478e-02 2.1651621240100088e-02
      4.3210606501291798e-02 -3.0232991808628956e-02
      -6.3088456159587263e-03 -6.7014819367102893e-02
      4.0159033806284689e-02 9.5683880825278081e-03
      1.2784633069412490e-01 -1.9741877870821618e-02
      -9.7889052770365720e-02 6.9388171279590988e-02
      -1.0089209117563809e-02 -6.1025154157053688e-02
      6.8004825629383600e-03 -2.0635145689245578e-02
      -1.0007642846550512e-01 7.8533177959374992e-02
      -4.1708645959554848e-02 2.6563201146859363e-02
      -1.0903073419331645e-02 2.0255959256012392e-02
      -8.2647398098908101e-02 1.5648344274483712e-02
      1.4163831151734321e+00 1.7491980437610122e-02
      1.1749667248103365e-01 -1.4867665455820240e-02
      2.2990795252753440e-01 4.3510434833245543e-02
      -7.8025353959954455e-02 -2.7778602329110461e-02
      3.5955792047069335e-02 -7.9648217995203135e-02
      1.2085739749472958e-02 -9.7940776300631735e-02
      -2.5122862777947137e-02 -7.8312302428745081e-02
      -2.5132791495096213e-01 -4.4178322536554231e-03
      5.3342958085195367e-02 -1.7650029238410694e-01
      -1.4883948395375180e-02 -3.6409391294757017e-02
      1.2549743673313624e-01 -6.7166963192372572e-02
      -1.6759745603100461e-02 -3.5181171044207184e-02
      -3.8649271896827930e-02 -2.9458027524015846e-02
      5.0309099196350193e-03 1.3765997156718626e-01
      6.6820599931550165e-02 2.6909616687321090e-02
      -2.3300546339477773e-03 4.5057432925352130e-02
      9.7960513653026465e-02 -2.8625944101600007e-02
      -1.1324567516322261e-01 8.1017263562799480e-02
      4.7131114446663805e-02 1.3521230720231616e-02
      8.1900454428086147e-02 -4.9033366670313973e-02
      4.5064850203445493e-02 7.3970287809173817e-04
      -5.1967089282305985e-02 -1.8125451555273689e-02
      -8.1215456314322129e-02 -2.7144426289448020e-02
      1.1343378284581619e-01 -2.7007311122867608e-02
      9.1921462098871712e-02 -3.2486935905367588e-02
      1.3577560438872378e-02 -5.4493631346390868e-02
      -2.5429081264694561e-02 2.3338775039357315e-02
      -1.5258724894897316e-02 1.2280689911047139e-01
      1.0258204667733695e-03 -3.0689196107634594e-02
      -6.7562533642223782e-02 1.0732837011077048e-02
      -3.1332825032707218e-03 -3.6634595038084583e-02
      -8.9788323745511101e-02 -2.6999237526590902e-01
      -1.4906070526780567e-03 1.3906336366987961e-02
      -3.0712526391768722e-02 3.1143917915778339e-02
      -4.6609291350890626e-02 -2.9221036195400937e-02
      -3.7978887311053274e-05 2.4803866584612750e+00
      5.4878415064278208e-02 2.5305075480822659e-02
      1.4080310569203437e-02 -3.1977258418541036e-03
      -4.3663309119148862e-02 -1.5039490115710772e-02
      1.8757769414303221e-02 1.9072227245695000e-02
      -1.0879991802705763e-02 -3.0659749699539007e-02
      -2.0779547373019455e-02 5.2257966744973593e-02
      8.7637047257150234e-03 -1.7599575034858413e-03
      -1.3714202197365657e-02 3.3609084921745483e-02
      -2.0500259691085498e-02 -9.8788669619353092e-03
      2.6544799211514036e-02 2.5108744548969081e-02
      6.5508864989325122e-03 -1.7235233429172960e-02
      -4.1836747838353568e-02 5.3993586339431736e-02
      3.2023526637974246e-02 -9.4085914785405171e-03
      3.4574870087242714e-02 8.1942297574669719e-03
      4.3695836789125475e-02 7.3791709048247681e-02
      -7.4190911844317753e-02 -1.5548081982177777e-03
      6.7028855746499000e-02 2.9437449111975763e-02
      -1.2038230150365823e-02 3.7053070902562428e-02
      3.9220557518463948e-02 1.5505511391302020e-03
      -3.7492375940227071e-02 1.0159757290054227e-02
      -3.4323540993914756e-02 4.6863274197337323e-02
      -7.5702625808391454e-04 1.4763353189286121e-02
      4.6066012255548457e-03 -3.3725904253568799e-02
      -7.9495883178189522e-03 -3.1488442635222227e-02
      -1.7915466366073898e-02 -3.7284291358992673e-02
      8.2809139566926246e-02 -5.1832490374091079e-02
      -1.7323602476610814e-03 5.0164129701047076e-02
      3.8995436593366142e-02 4.3468773845485404e-03
      1.8296892974923182e-02 -1.5704006016924933e-02
      6.8217382020531450e-03 -2.8482740552202908e-02
      1.9601627211192324e-02 -3.3637353986554881e-02
      3.0089935012188967e-02 -4.6445183645393287e-04
      6.5559770306562348e-02 3.2196134728938574e-03
      -2.4768494174483555e-02 7.5205179335234199e-02
      -3.2381176102580234e-02 -4.6465556598059374e-03
      1.0589512525407521e+00 -3.6819766554075220e-02
      -1.0403760892366166e-01 -6.1789413308616079e-02
      -1.4308645147719626e-01 2.5007942113040249e-02
      5.5288303933603643e-02 1.5603652281779512e-02
      -6.1358669750362473e-03 1.0525620374856547e-01
      5.8379934515392487e-02 2.0551670974897396e-02
      4.4912441830486954e-02 6.3349495358506161e-02
      6.4170397953477509e-02 -8.4254300863926393e-02
      1.8518720401562963e-03 -5.1741237110436128e-02
      4.3962686667444621e-02 2.5747104015909048e-02
      -2.5963365009287059e-02 3.8876692124026710e-02
      1.5500690825922689e-02 -2.8573644841844083e-02
      -9.7005840557111103e-02 -1.4562920974539350e-02
      6.2525762279759083e-03 3.5078971627822197e-02
      -3.3956897524529371e-02 -3.8155149852230459e-02
      -1.2453854159613484e-02 -3.9287092048132341e-02
      -2.3916235956624898e-02 1.9232606679207342e-02
      5.9854690230349256e-02 9.7085367369970796e-02
      -4.8191083532571281e-02 -1.0463394101106871e-01
      -5.3599861656906410e-02 -2.0409341555326369e-02
      -5.2599300898303662e-02 -1.8030748425265010e-02
      8.3459932010106125e-02 5.9097654216464041e-02
      -7.6884539418507702e-02 8.0612262089110154e-02
      5.3479657572905376e-02 8.1813214229975437e-02
      -1.1028942415947898e-01 1.1157234014648405e-01
      -3.7491502418896858e-02 -1.4546931793386531e-02
      -1.3243330252443295e-02 2.0574247513723738e-02
      -3.7244284768458681e-02 4.0200457128733359e-02
      -4.7621157361444677e-02 -1.3014142314795699e-01
      -6.0943035753106015e-02 -2.3848739701412949e-02
      8.6048144002612903e-02 4.0341733836850760e-02
      -1.4051083380187041e-01 -5.9167928419211289e-03
      6.3464458623188440e-04 2.9131738583425128e-02
      -7.6536256211939685e-02 -1.6828025510347314e-01
      1.2579170410982782e-01 -7.3451414637776019e-02
      4.6245660599020293e-02 -8.9755501391721310e-02
      6.9706623809849863e-02 7.1344880500515129e-02
      2.3202615296644129e-02 6.0938195913063042e-02
      -1.6329782605129545e-01 -4.9934536964050528e-02
      -6.9474014622375596e-02 -7.9055822334950440e-02
      -4.8654772144347644e-02 -1.6655526747036825e-01
      -1.6812454964966809e-02 4.8882964761585612e-01
      -1.3013863289660393e-01 -2.0032684906947021e-01
      1.2981849670787907e-01 -1.4284830317849717e-01
      -5.5701387879331188e-01 -1.8404040061204013e-01
      4.3057024020871443e-02 5.2628400120758749e-02
      -3.8664744361363877e-02 -3.1496928059803908e-01
      -1.5294599848220850e-01 -3.1243931227220173e-01
      3.7645221560594533e-01 -2.3576385910036003e-02
      1.7126690767530794e-01 1.0327295279658046e-01
      -2.7914298960357337e-01 -2.2037113154483399e-02
      4.0109321931364197e-02 -3.0436637535860261e-01
      -3.4459191160828843e-02 5.5262245909244986e-02
      2.9630894582419598e-01 -1.2738040597647302e-01
      -1.2267005947075986e-01 1.5583428317564865e-01
      -1.2587117986223487e-01 -1.3478502938546624e-02
      -2.2834005034716146e-01 1.5155484474395944e-01
      -3.7258423685236915e-02 3.5228754483671444e-02
      3.9348095012339802e-02 1.6925175253495323e-02
      -1.3547309454050260e-01 -2.0489396312507649e-01
      -1.4279379037635148e-01 1.8583976150501966e-01
      3.4477781763663159e-02 2.8179226920463561e-02
      -1.6729433403281699e-01 -1.5243423338512816e-02
      -2.0204211859344824e-02 2.5563454792846263e-01
      -4.4865637853186241e-01 -6.4525235228210812e-02
      2.2379050526072031e-02 -6.8686353058631522e-02
      9.4258739980234610e-02 -1.2067618107498022e-01
      9.6160401506173679e-02 1.7875474637790609e-01
      1.3459360007634211e-01 -1.7181081899978308e-02
      3.0294762988595947e-01 -9.2296734328591354e-02
      1.4116397372645442e-01 3.8733438653702978e-01
      -2.4716299661823636e-03 8.0705064883133615e-02
      2.5592594759653978e-02 3.7186531641129179e-02
      1.0141864896208588e-01 -1.4011209814332212e-01
      -2.8904603738205855e-02 2.7547061764740782e-02
      -6.2943630314400700e-03 4.2932973613782427e-02
      -1.1027928502731280e-02 6.6251117665059745e-03
      2.5330549062363955e-01 -1.9461159576656931e-01
      -1.4687048289419793e-01 9.8388398712848199e-02
      -9.3159654530840380e-02 -3.2954879864358894e-01
      -1.7275288243317019e-01 1.3251420475643656e-02
      7.8245493736784869e-02 -1.3979969066771622e-01
      -2.3490174292715416e-01 -5.3180424284969767e-02
      -2.3819704168255043e-01 2.6839649642323959e-01
      2.2063019331048542e-02 1.4229321611101181e-01
      -1.0019605545297167e-01 -1.0214199477289639e-01
      4.9953359871924147e-02 -5.5833529772901021e-02
      -2.3647486172352977e-01 -9.2746055054397383e-02
      7.8828144259910068e-02 2.0171543231086828e-01
      -9.9347861917021801e-02 -1.2397003031977230e-01
      9.0044401297038876e-02 -1.1450242325023577e-01
      7.0610023139424882e-02 -9.6532793085829890e-02
      6.4650748167733224e-02 1.7940970419890054e-02
      7.9144453941128901e-02 5.4795149472893344e-02
      -5.7109582257544138e-02 -1.3012452350923112e-01
      -1.4401029439053251e-01 -1.3407638381512341e-01
      2.8091302629383464e-02 7.2977146183601543e-02
      3.4544273983336787e-02 -1.7523046543130724e-01
      7.1208461881538884e-03 -9.9596267734447463e-02
      1.9481051122069176e-01 -4.4584840771028728e-01
      3.8909385088172814e-02 1.7672291227637513e-02
      -4.3728261382923898e-02 2.8686307565650025e-02
      -1.0354326078429671e-01 8.2148200703288238e-02
      2.1722147486141433e-01 1.9316962714044483e-01
      6.0294849069490689e-02 1.8459315329606629e-01
      -6.8283124042784082e-02 1.8493827093806806e-01
      2.3036929825095523e-01 -6.3585471523137260e-01
      -4.9468122362137774e-02 -1.4207034379744959e-01
      1.3648320316776064e-02 1.4484264583965517e-02
      -8.4952515704120060e-02 2.5509414387946145e-02
      -5.8598444099993131e-02 -1.7284951893617448e-01
      -5.0029082144846804e-02 -1.1212630813826124e-01
      2.2123714839036385e-02 1.9863385844075054e-01
      -2.4960726175612122e-01 8.0835286786525087e-02
      -5.4384703486587367e-02 -8.2961599660908325e-02
      -2.2667779022494541e-01 -1.2991683261998932e-01
      -1.8468561257008728e-02 1.4481315200605521e-01
      -1.6500193119939818e-01 5.5511921043254933e-02
      7.2262032132488857e-02 -8.3570974065016485e-02
      1.5105838098704741e-01 6.9346072977128803e-02
      -1.9538538938328593e-02 1.4790743505493715e-02
      -1.0280601015386384e-01 2.6091555893174928e-01
      -2.2839562658671986e-02 -1.7884351338047075e-01
      1.1382467776162003e-02 7.5178540992274043e-02
      1.6074969633027897e-01 3.9931458283168379e-03
      -1.7130276770610783e-01 1.3619182014321674e-01
      -1.3313363352924476e-01 1.9436417618967992e-02
      -5.2757842194149009e-02 9.1136291850218321e-02
      -7.3741998418768492e-04 1.3621959399260519e-01
      1.9116768420921104e-01 9.0636865088077802e-03
      -1.1690751073582675e-01 -1.9411073623799924e-01
      -1.3669750811436085e-01 -2.1973279476664463e-02
      2.5788322721343615e-01 1.6159451086791088e-01
      -1.8121546662257595e-01 3.3360930469268850e-02
      8.3833190940211147e-02 2.1474218675811810e-01
      -1.1711024786742356e-01 1.6721199077183422e-02
      -3.2670378905194905e-02 6.2341416591017981e-02
      -5.7867921241255886e-02 -8.0270765790817544e-02
      -3.8133445041269379e-02 3.2066686181797455e-01
      8.2343709637516818e-02 -1.1013582826920616e-01
      2.2183872524377979e-01 -2.0999980899570134e-01
      2.7178797727260134e-01 2.7744760637313176e-01
      -6.2072291786392031e-01 3.4668782976235150e-02
      -1.7986628949727021e-01 1.5303205859542238e-01
      -7.9487449466437363e-02 2.9750590576343893e-02
      1.0112694966512797e-01 5.6908861495560188e-02
      -5.7713276717911328e-02 -5.9380507749667563e-02
      -1.0321184270595112e-01 2.2487843123807444e-02
      1.5381545926703874e-01 -1.4541384372160604e-01
      1.0900212117705110e-01 7.3567032174483380e-03
      -1.8218838685631063e-02 1.4254906003603707e-01
      -3.1118775602735502e-02 1.2924080701521823e-02
      8.2825214124202254e-02 9.3365808524877747e-02
      1.6729742002779453e-02 4.3241976949605201e-02
      -1.4874032866298351e-01 1.1888693203465876e-01
      8.6645461660875459e-02 4.8344333766655303e-03
      -5.6328365026879379e-02 -1.8663125936679001e-02
      1.1985862452450843e-01 -2.2659721915009614e-02
      -9.9736239490330975e-02 1.5352686706004104e-01
      1.2704294530000249e-01 1.8739392672169407e-02
      -9.8795377902939532e-02 -1.9083277283761834e-03
      1.8500431797107926e-02 4.5813968702091569e-02
      1.3097499700922957e-01 -6.4645913321264500e-02
      -2.2647107562769150e-02 3.6631311483414183e-02
      1.1041118259769331e-01 2.1510422408941307e-01
      -5.4952046756379318e-02 -1.2391340250914373e-02
      -1.8583103232667317e-01 -1.5449078764975584e-02
      1.4138095749308063e-01 6.1253957322765028e-02
      1.1656104469966580e-02 -1.4817444739240263e-01
      6.7352963400083621e-02 -5.6136960114151938e-02
      5.1249403272592031e-02 -2.0060815911678165e-01
      2.5469791448403875e-02 -1.5727170942182483e-02
      7.0164191540288523e-02 -1.2280711714706004e-02
      -5.2557489957370364e-03 1.4399443204631684e-01
      1.3678889428736735e-01 1.4762745774170782e-01
      2.4872455895255299e-02 1.1277671990638463e-01
      -1.2218623442040027e-02 2.1441845184070168e-01
      1.0499515111073682e-01 -8.5491290187489632e-01
      -1.1744587698066380e-02 -7.4306796630302929e-02
      2.3250275522056503e-02 -8.7419409679549212e-02
      -4.1678409388463664e-02 -1.4191941493816615e-01
      -5.4014040619829021e-02 -1.4116897631034719e-01
      7.8662419774978357e-02 -9.1760977763945192e-02
      7.4941285287325174e-02 1.7393257630797698e-02
      -2.9541316729993824e-02 3.3150295138332050e-02
      3.6688113902199733e-02 -3.7887212106779096e-02
      5.6090638553754665e-02 6.1997866881810986e-03
      8.6692969143223747e-02 4.4149138603559429e-02
      8.7523959565920587e-03 4.5718924645194670e-02
      9.3875400949809021e-02 -9.7612443471046154e-02
      1.1664657208112024e-02 1.1222078937836633e-02
      -4.8087861285397646e-02 -3.5352946423133386e-02
      -1.1311068146996185e-02 8.0702780968243709e-02
      -6.0487052070334682e-02 6.7911830006333426e-02
      -7.7954533113324051e-03 4.5706579402812364e-02
      -8.1106367432036586e-02 -9.6513278423522059e-02
      -1.4606701519724133e-01 -1.6522862416253486e-02
      1.1733098040016392e-01 3.2397206608377249e-02
      -1.4882901052177938e-01 -4.6026761144210102e-02
      4.0333507691932093e-02 2.2532806097130362e-02
      -5.3980491514860347e-02 -1.3773671310143083e-02
      -1.1301431804231819e-02 -7.8340049196719927e-02
      5.1676551479363848e-02 1.8396705483571180e-01
      2.1169516441675553e-02 -1.6945330496394760e-02
      -4.4683433144538792e-02 1.7643378691230205e-01
      -3.7510117519198811e-02 1.7827710333908436e-01
      -3.5341414561067715e-03 1.8143455463447372e-01
      -1.2192991390160661e-01 1.4455706606822726e-02
      -3.1217697243787135e-02 -2.1025718800951096e-02
      1.2513678618938745e-01 -7.6455633084617863e-02
      1.2911106933256106e-01 -3.3686026333624018e-02
      -4.6035378487284694e-02 -8.7798901291970349e-02
      2.0316228119116035e-02 1.1799885725276603e-01
      -1.5781722229335338e+00 1.2931987212081744e-01
      -1.0811399445448570e-01 4.5460327381468286e-03
      -7.8832581263987733e-02 1.0011801510702276e-02
      1.4280136058387749e-01 8.9375328445569557e-02
      -1.3714187236415853e-01 -8.9480411841471097e-02
      -1.6384185977977483e-01 2.4544010256194879e-02
      -3.0139237277644639e-02 -1.8734396806172204e-01
      -7.6424347299121842e-02 3.5465263210383235e-02
      -5.1183814461541310e-04 1.4590409583509467e-01
      -1.6332004987963156e-02 1.0209881114166840e-01
      5.3015782340973833e-03 1.1750449601997436e-01
      -4.7913391907433128e-02 3.6116608687734607e-02
      -9.0545460026189850e-02 1.0304539372222099e-01
      -9.8940116136767092e-02 3.1283618322395881e-03
      2.0884129073937724e-01 -6.6607443542986255e-02
      7.9896138812845848e-03 -6.9466412308451408e-02
      8.3997607095584875e-02 -3.1844956271069313e-02
      1.8995318275344319e-01 -2.6039553337142032e-03
      -7.0413571110738288e-02 -1.2499856890929474e-01
      -1.5980296922388537e-01 1.3988161050195436e-01
      1.0568860540456426e-01 -9.1934255120845049e-02
      -2.9993603824556365e-02 -2.9185032088834748e-02
      -2.3273745797891907e-03 -7.7657481691214308e-02
      -9.2190705840304546e-02 3.1236884532918476e-02
      -7.3746490271702062e-02 1.1237842160500768e-01
      7.3756405949087681e-02 -3.9856984440622426e-02
      -1.1453953674872985e-01 -1.3440087368861622e-01
      1.5203356579381566e-01 -3.8709973880199179e-02
      1.4832699692273996e-01 -1.4455811557466292e-01
      1.5414504585161160e-01 -5.6884400732141113e-02
      1.0238830236286632e-01 -1.8147879258248109e-01
      -1.1873808215898143e-02 3.2397295626206774e-01
      -1.3664219071123110e-01 1.0719791371993648e-01
      -3.7047767417559718e-02 -2.1248215313743654e-01
      -1.4499086596304236e-03 2.0629942986918913e-02
      -3.0456241540329061e-02 -1.6130495311503055e+00
      4.7806589968534825e-02 -4.9180817674584841e-02
      8.4857003885075721e-02 5.7944743607223063e-02
      -9.5345154500284968e-02 8.1555795445165169e-02
      1.2333167915345937e-01 -2.2595076787978599e-01
      -7.0207020507513831e-02 -9.1958817147135566e-02
      2.5608034712622768e-02 -3.5702819471496547e-02
      -9.2414896788027168e-02 -9.3536853066161885e-02
      2.4429130937290842e-02 -1.2905051425499905e-01
      1.2281990573952517e-01 -1.1210732140266434e-03
      8.7774930619577834e-02 -7.4763148673421251e-02
      8.4221562215077719e-02 -6.5195786285594665e-02
      -4.1285976753971054e-02 -6.6798059057892809e-02
      6.2399388084362899e-02 3.5391637404764177e-02
      -1.4563837877139435e-01 1.5884639958391944e-01
      5.1994981174096788e-02 -4.9374982609176762e-02
      -1.8720461905978644e-02 9.5025757189034929e-02
      -1.5702752422958716e-01 3.3929802893583286e-02
      2.1395893068806144e-02 5.1771296834325894e-02
      -8.6365360207976902e-02 -8.3328218850671154e-02
      -3.2962547890543863e-02 1.2300701775724171e-01
      -6.4613342769661852e-02 -6.4794250206042320e-02
      -3.9126559616760044e-02 -7.9548912512313833e-03
      -1.4461257169699296e-01 -4.5731870228053490e-05
      1.2478246691796412e-02 7.9977255360427699e-02
      5.7910148248340933e-02 2.0876266001704138e-02
      -4.0771618798009206e-03 -1.7612653272100101e-01
      -7.5366541703729278e-02 1.5105802825989431e-01
      1.8933567114366796e-02 1.8113776750092409e-01
      -3.2272503965643448e-02 -2.7756953112559872e-02
      1.1793167723309059e-02 5.5775634117445766e-02
      -1.9646325726504094e-01 4.7965807665409380e-02
      1.4950307925219530e-01 -1.5739223881967246e-01
      4.6810936013005115e-02 -1.5955776405128516e-01
      -2.5727910633691781e-01 -1.0703903697832524e-01
      1.1586268448706298e-01 -2.7807256388458881e-05
      -1.8517844632597316e+00 3.2913657463260705e-03
      9.2714475669979396e-02 1.7366511042718952e-01
      1.0949885820248952e-02 4.9878791909220991e-03
      4.5844648246798479e-02 1.1481839171020759e-01
      -2.2663395569656430e-01 -1.4340436636848666e-01
      -1.9260661610281352e-01 -9.6697261707764756e-02
      -1.3685956431826404e-02 -1.1453410677313013e-01
      2.8129858562550011e-02 1.8534912548332697e-01
      1.8905087128516428e-02 1.2125828149142243e-01
      5.5176651563525067e-02 9.3505549878428323e-02
      -1.0318569283326859e-01 1.1158447906177106e-01
      -2.2302219469167142e-01 -1.9174133563600482e-01
      -5.7160324420116759e-02 4.6316582355194466e-02
      3.3707413334128168e-02 -1.8600330660242531e-01
      1.4936327689037171e-01 1.1038191257969532e-01
      -2.9501875752208910e-02 5.3233088469099327e-02
      4.6746668718762652e-02 -2.3035081327501827e-01
      1.0904193136263718e-01 8.7718524770233147e-02
      -6.6996814759462051e-02 -6.3323584127180227e-02
      -7.5187776593874482e-03 -1.5705971198204726e-02
      1.3421119337362225e-01 -1.3386382777855912e-01
      -5.5537059789005999e-02 -3.1672119354550152e-02
      -3.0833585821698591e-02 -1.6379844991950579e-01
      4.0171650310160512e-02 -6.3437631157919325e-02
      1.8459699802542386e-02 8.5879252579456195e-02
      1.8315135525918569e-01 -1.6776888266202199e-02
      -1.9282083937958824e-01 -3.0281051215590975e-02
      1.7940340098302565e-01 1.5668912344752175e-02
      1.4915756761150481e-01 6.4170883600461012e-02
      1.6228837426786383e-01 -1.3382539088726014e-01
      5.3085291236972323e-02 -1.7913036444558383e-01
      1.8084604170824008e-02 1.7368914437798166e-01
      -5.0303258904375404e-02 7.2764776680355997e-02
      -1.1332082457114587e-01 -2.1833269364666416e-01
      8.2526577807283605e-02 1.2043593917366184e-01
      7.9351213329897752e-02 -1.1823664149253861e+00
      6.1984735013003611e-02 1.6180314720274737e-02
      2.2329324752547441e-01 -1.5690598749370788e-01
      8.5835948897560563e-02 -3.0284781336426054e-02
      1.9991891572926593e-01 -2.3997350368877712e-01
      4.5650160542549563e-02 -1.3627196612138645e-01
      -2.1168884900338752e-01 -1.9479136846524384e-01
      -2.5008363064232403e-02 2.4789414786119951e-01
      6.3908465066503412e-02 -1.3512416578083872e-01
      1.7748521827724592e-01 1.1701385366003045e-01
      5.3054250813317050e-02 -9.5934689358139896e-02
      1.3776522573080971e-01 -3.1712975160740048e-01
      -1.1515575901715658e-01 -1.0303231642231109e-01
      1.3405642081305241e-01 9.7796101123791820e-02
      -1.4137470317810483e-01 1.4877337822386494e-01
      1.4699675831286091e-01 -1.3017907368488835e-01
      4.2226785868729813e-02 2.6842676502182611e-02
      -3.2582840401714858e-01 1.3223813570570112e-01
      -5.4889079842443726e-02 4.9295240656963141e-02
      -9.1258799865245099e-02 -6.9615235602228848e-02
      2.0387352447906409e-01 2.2329104647305040e-01
      -9.6411639514334097e-02 -5.8454756873530377e-02
      1.1754834583381749e-01 -8.3327391108570986e-02
      -3.7676413803854930e-01 -1.0539600026314186e-01
      1.8189175597792404e-02 -1.4618538520402171e-02
      1.0311864626890499e-01 7.6797209976281519e-02
      3.7509949057741472e-03 -1.9272946860303575e-01
      -2.4777314878909600e-02 2.5301039035858752e-01
      1.5788512813891060e-02 3.4680959442795652e-02
      8.6216808414391467e-04 1.8913008797966160e-01
      -1.3724543953780358e-01 -1.4490663567863871e-01
      -8.4296184274794184e-02 -2.2356277365889850e-02
      2.3511063034968710e-01 -7.0068192905964014e-02
      3.2845250199715799e-02 -8.0987371247573606e-03
      -2.6729280591188409e-01 1.8755534675722940e-01
      2.3130010349150634e-01 -1.3980782431881320e-02
      -1.1832915028721989e+00 6.9159371767467809e-02
      -1.7845001036531836e-02 2.3424611744447674e-01
      -6.3908769551013808e-02 8.2313998576518707e-02
      3.5246936332265187e-02 1.5495330253813608e-01
      -2.1682023296019137e-01 2.1006536985798126e-02
      -8.5137834992997125e-02 -1.8055154252308345e-01
      -2.2515649481534886e-01 3.1764832639501132e-02
      2.7309861296779497e-01 7.4858359498751765e-03
      -2.3974072821510534e-01 1.9258325107926896e-01
      1.6721335295940304e-01 5.3534597163964880e-02
      -9.4559575296961740e-02 5.6447681742624350e-02
      -3.0134729538279309e-01 -7.5646916066526057e-02
      -1.0681333313240599e-01 1.4153054398931528e-01
      1.1142805259338077e-01 -1.5064871569997487e-01
      1.7444662807132547e-01 1.4569511672318466e-01
      -1.5272660474479749e-01 5.1519093196753372e-02
      -1.3092374636141964e-02 -3.3707464582621977e-01
      8.8286254941273248e-02 -1.9020061932601483e-02
      8.4076194665474835e-02 -1.0228943299405373e-01
      -3.6444103245144542e-02 2.8282114368341499e-01
      1.9668042209660822e-01 -9.8888932429161483e-02
      -7.5847112799465270e-03 8.8936488828633281e-02
      -9.7005015253907867e-02 -3.8890292763330231e-01
      -1.2957049021863304e-01 2.3079096077319821e-02
      -6.8786939273931494e-02 7.0103832561817195e-02
      1.3267041621243486e-02 1.8007022112417718e-02
      -2.4077402971738360e-01 -3.5593948256085001e-02
      2.2254917060625570e-01 -1.5598227126221095e-02
      -4.4124044391668220e-02 2.5013005525508407e-03
      1.6042969727581763e-01 -9.4822374517488192e-02
      -2.1765269841483639e-01 -4.2656692432201923e-02
      -3.5899552222853702e-02 2.3707189782280572e-01
      -4.0700619522008992e-02 3.9883032186027435e-02
      9.0181173602061612e-02 -2.0504053560631519e-01
      1.9069663034504233e-01 3.1286276956755243e-01
      -1.4450134120550490e-01 -1.4044569138957947e+00
      1.6782424972024527e-02 8.8215801131966573e-02
      2.6833056358204999e-01 9.4154661616135060e-02
      3.4008908594616999e-02 1.5745845903275912e-01
      6.7819882025846781e-02 -1.8537527854901206e-01
      -4.2072788396866748e-02 5.2999049197271643e-02
      -1.3893445757680153e-01 -9.0491398846615029e-02
      3.4368417302927223e-02 7.4023639716107606e-02
      1.6833875210373671e-02 -1.5463925766886646e-01
      1.4677631313689071e-01 1.6936157588105447e-01
      -1.9065156241608325e-03 -6.1379025822342538e-02
      9.4057453436615701e-02 -2.3147225107954256e-01
      -2.6872710241528508e-01 -1.2406223049498075e-01
      2.6718910094678233e-01 -2.3258960356435038e-03
      -9.2045012897237530e-02 4.8618452252743569e-02
      -5.1107387166853563e-02 -1.2255475458615614e-02
      1.1652784029428076e-01 -8.7618682371049778e-02
      -3.2503687168137185e-01 1.5234120701842260e-01
      -7.7276138414481180e-02 6.4206846142326399e-02
      1.0120705200451430e-02 6.0589533708248933e-02
      6.7839984568837247e-02 2.0454086971626020e-01
      1.9942705980342878e-02 2.1025414410055066e-02
      -2.2490947101841156e-03 -4.0088780014083315e-02
      -9.5999192615340373e-02 -5.4665999751840420e-03
      -6.8386809984277999e-02 -6.1783156839531235e-02
      8.0227247211194563e-02 1.5951459455249410e-04
      4.1498314112300330e-02 -1.9337508505985215e-01
      -7.2247086781288813e-02 2.2681354472319920e-01
      6.0242306901258758e-02 -4.2257434913011371e-02
      1.1455796093151847e-01 1.9379339453450725e-01
      -5.8981069354782686e-02 -3.3181340852945308e-02
      -1.3546119845669495e-02 -7.6497714664145247e-02
      1.5669151149727497e-02 -5.3581995647021492e-02
      1.0025096429568890e-01 4.8387253669938637e-02
      -1.6487386678759083e-01 2.5680300179965243e-01
      1.5966592826666501e-01 -1.2669894931795728e-01
      -1.1630884150223901e+00 1.3175629435595525e-03
      -1.1102377040076997e-01 2.3424111312846821e-01
      1.1170261326624029e-01 -1.5082640680705500e-01
      1.1074131120674663e-01 -4.4698823754501460e-02
      -1.7627479442427829e-01 -6.1464330297499530e-02
      4.7934294902333127e-02 -9.6719075161679671e-02
      -1.5371068554727640e-01 2.4463862947030440e-02
      -9.1232156535633990e-02 -7.3527358768155186e-03
      -3.1656482909385614e-01 4.0360846787392941e-02
      8.1291310676261538e-02 -5.3478639236767628e-02
      -1.1719429832212195e-02 -2.4982540007250732e-02
      -2.3046339606654662e-01 -1.1569766013176147e-01
      -4.6689964180898068e-02 1.1810132614718762e-01
      1.1842434001684533e-01 -6.6011209179813152e-02
      1.5262820133719343e-02 -6.1088595969774055e-02
      3.6177030497167945e-02 -2.8936369393664313e-02
      -4.9176301382291537e-02 -2.7486345449695027e-01
      1.3771752422584826e-01 -2.2648710690373000e-01
      9.0117787800798460e-02 4.3648601649235112e-02
      1.1213077212027973e-01 7.6125356719277226e-02
      1.0887406122990327e-01 2.8322219827228774e-02
      6.7089602514973173e-02 -6.3916669313919400e-03
      -4.9399437520672891e-03 -6.8828082657588968e-02
      -5.8040685300390242e-02 -6.9934395482208790e-03
      1.9320356616730792e-02 2.7840809029545818e-02
      -1.8541419369467424e-01 2.0009183159718685e-01
      -2.1803742318052330e-01 -2.0356509404672218e-01
      1.0063605368658464e-01 2.1499862610561568e-02
      -7.0843468708036358e-02 -5.3438276421863003e-02
      6.3033136132433429e-02 5.2326912391016903e-02
      -7.4741819126946066e-02 8.3632014471772209e-02
      -1.1409892169678508e-01 2.7154791823834692e-03
      -2.8635994533910158e-01 1.2899381347144506e-01
      -6.9586345194690535e-02 -1.4540906870523121e-01
      1.2235306737964784e-01 9.1008033390220122e-02
      -8.3905742846009435e-02 -1.1949343552231577e+00
      1.6475983311378384e-01 9.1023864509254274e-02
      2.8495246560320914e-01 1.7457701544721829e-01
      -7.1094055479029750e-02 6.4163603182804549e-02
      -4.1981114468102015e-02 -1.4922491360552584e-01
      -4.9745821444091683e-02 1.3725603977591117e-01
      -1.5213902338141919e-01 -2.6880495019196569e-02
      2.6674928493813821e-01 -1.1816731559428389e-01
      1.0561383228275182e-02 -8.5314216755327868e-02
      4.6225174007830133e-02 4.9705389034998979e-02
      -5.5206133053137180e-02 4.7941341036376213e-02
      1.8435604967905299e-02 -2.0910948455316006e-01
      -6.9611524628998278e-02 5.6623963792694104e-02
      1.2669322076769707e-01 3.8410667732994244e-02
      -1.0342800368910395e-01 5.4782113720864112e-02
      -4.4755739076849203e-02 -6.0231454884529193e-03
      -5.7868341109507976e-02 -2.9491670223488413e-02
      -2.8803097112079834e-01 2.2166355824001976e-01
      -1.4602604712274081e-01 6.0261797353033053e-02
      1.7406701326577920e-01 7.8864027763714623e-02
      1.3290954535522195e-01 1.8844436885570248e-02
      1.6071023606235779e-01 1.4346877084544332e-01
      -3.2014951226284304e-02 -4.1601033236517895e-03
      -1.7061403535054567e-01 -7.9773585627682470e-02
      -8.7021110031627845e-03 2.4519320177663711e-02
      -5.4240864243304071e-02 -1.9107232744760577e-01
      2.3896927361548789e-01 -1.8646920603285436e-01
      -1.1585303549351011e-01 3.2646529513426392e-02
      3.0112680008075349e-02 -1.3657188946883303e-01
      -1.6135177707805251e-01 1.4233116085104650e-01
      1.7201873210168445e-01 -1.6999547887817246e-01
      -5.2703543936130574e-02 -7.5492708413665149e-02
      -5.2819005673831375e-02 -3.2902862912501030e-01
      -1.1649452010482788e-02 7.7001831568837123e-02
      -1.3100618275722897e-01 1.9481141773327509e-01
      -1.9066538558470604e-02 1.9881037589693562e-02
      -7.5964040679758182e-01 2.3355414661123008e-01
      3.9364507922592627e-02 1.7901429542529054e-01
      9.8131171204205891e-02 -1.2143474665725462e-01
      2.2085277071674774e-02 -3.5660775537712644e-02
      -1.5321988831255462e-01 1.1607800597087639e-02
      1.3966288107632269e-01 -7.5166688870262705e-02
      1.1954706988521270e-01 1.5929141089423218e-01
      -1.1170684727485991e-01 2.3170349996946456e-02
      5.0682833148530837e-02 -9.3631409249848280e-02
      7.5813761948068390e-03 -3.6462641043387270e-02
      -9.3216775696518522e-03 -2.8587322506296885e-02
      -1.2017436048233736e-01 1.7495431508727104e-02
      1.6772330711930744e-01 4.9374672226362055e-02
      -3.0155082837867333e-03 -1.0203891713031794e-01
      1.2205357940091713e-01 -1.2152422455795217e-01
      5.5545049539638909e-02 -8.1019103897571804e-02
      3.0671641313993858e-02 -1.9067357840550822e-01
      5.6084936418358294e-02 -1.4716074412968388e-01
      6.3883495003115867e-02 1.3825452489077134e-01
      8.0106476857024655e-02 4.0157067857733424e-02
      7.8683916800918574e-02 9.0146260035094447e-02
      1.2929152482518641e-01 -1.0236078936138458e-01
      -9.3049909970224678e-02 -8.8748665576719926e-02
      7.4798650071634838e-03 -1.7120991006687864e-02
      -1.4829835188359641e-01 7.4276790113504115e-03
      -1.6282684229621688e-01 6.9409369297366269e-02
      -2.3544250765956939e-02 5.0968299142335437e-02
      1.3366902906389441e-01 -1.9067136749265728e-02
      -1.2341079606955824e-01 -1.4963698602095933e-02
      7.8678332457847600e-03 1.7640486889162751e-02
      -4.2440427011869779e-02 -2.8830468660165576e-02
      -2.1706574591234709e-03 -2.2610683487541813e-01
      -1.3642039777388990e-01 6.4348061877553875e-02
      3.4659185658995513e-02 -6.4621055707749953e-02
      -9.5806392012682720e-02 -2.9361835035548376e-02
      1.3193156460049391e-01 -3.4286870693913873e-01
      -4.1889377481149782e-03 5.5547747952486369e-02
      -5.4596360525936187e-02 1.1250088910530782e-01
      -5.6930649905468561e-02 -3.6829170990686978e-02
      1.0387136094933232e-01 4.4312611583104046e-02
      -2.5797444140131808e-02 6.5540008585401724e-02
      -4.2060355490810074e-02 9.9617597333559238e-02
      8.9042978603754888e-02 -1.0792429123342499e-01
      -5.8582047295017625e-03 8.6274963064531071e-02
      -1.1527765615007898e-02 3.1249878565290809e-02
      -1.0265533656787332e-01 1.3495351444465437e-01
      -1.7033089418474931e-01 -4.0808172982453400e-02
      2.6983694521491474e-02 6.6126511389634351e-02
      -5.2614952180071853e-02 -4.9811124034536240e-02
      -4.6608648398299223e-02 1.2765267651430548e-01
      1.4847592495873624e-01 -5.8068601295617785e-02
      1.9288063388003686e-02 -8.2483743441784385e-02
      4.8836547799729199e-03 1.1760954221024430e-02
      -1.1759865670541796e-01 -4.2264744842621854e-02
      1.6195464904201451e-01 8.9993015469753801e-02
      7.3053910094245139e-02 7.3699285413128812e-02
      1.8378958665583364e-01 4.4631168704089050e-02
      -1.1145167698603523e-01 -6.7009308022183654e-03
      -4.3578771173589333e-02 -7.3499703791566381e-02
      -6.7477367516877121e-02 5.9392631789674070e-02
      3.8801028516804711e-02 -1.9306672566981160e-02
      3.5238665629417326e-02 -4.6551731097538761e-02
      7.6731593804533010e-02 8.3222001361363679e-02
      1.4688390837803164e-01 -5.5911914197129917e-02
      6.1226272383988804e-02 -9.7158933512645259e-03
      2.7200008677165263e-02 1.8972034313266595e-02
      -4.1392539604157036e-02 -3.0770021915358142e-02
      -1.1861195511042370e-01 -2.9562520419531285e-01
      -2.4843666546877506e-03 7.7763507722544783e-02
      -1.2130505263087153e-01 4.5258722696525908e-02
      -1.4903590197168806e-01 4.8700356729047309e-02
      -2.3700640244019011e-01 -4.7149988102888833e-02
      7.4984542834407475e-02 -1.3700025305407648e-01
      6.5102619250427499e-02 -1.0395614072690237e-01
      -5.6271832756731394e-02 -1.7506828646501462e-02
      6.8487150389254417e-02 -7.8529407873179635e-02
      7.5705014860866768e-02 -1.2810769219663043e-01
      7.5057670393971168e-02 -4.3618797788645943e-03
      -1.6434809521007940e-01 1.4780395806067718e-02
      9.9960855760314576e-02 -3.1015792973248829e-02
      -8.6146929837245204e-03 -3.9698963345473764e-02
      2.3803986966763535e-01 -1.0587554054152162e-01
      -3.4434719719886701e-02 9.9655681069326790e-02
      4.7224222910554642e-02 -1.7712942644260804e-01
      -1.5046666241107035e-01 7.5762035410283132e-02
      1.6603954219727363e-01 1.8501574418500391e-01
      -3.9626377954260182e-02 -1.9352453077156447e-02
      -1.0251505336948193e-01 1.1212470193214516e-01
      9.5331461374715924e-03 -2.1919047499328961e-01
      1.9777061681817576e-01 7.2947591101634762e-02
      1.0161625656025150e-01 9.4223655988161827e-03
      -2.8501609883618020e-02 2.2691097317599654e-01
      -3.1071122035747942e-02 9.4305567548177094e-02
      1.1088269248191247e-01 -1.1703445909431937e-01
      -1.1582718996992641e-01 -1.3002081610755567e-01
      2.2058170526246018e-01 1.4244874091218758e-02
      -2.1820481663343083e-01 2.3438836355124715e-02
      6.2072707324182234e-02 6.8719677458153036e-02
      3.2462343513733831e-02 1.4732081471482047e-01
      -1.9589691247550745e-01 1.2744436710595677e-01
      3.3183821059136351e-02 -7.2670537704082688e-02
      3.8632122070873305e-02 -1.8570540168427480e-03
      -9.8753772750443981e-03 -9.1386680342570401e-02
      -3.1374071852734836e-01 -4.8019146741168292e-02
      1.9127500821130726e-03 -1.4162398837592174e-01
      -2.5753978831500452e-02 -1.0303453586873845e-01
      -1.1937639044353302e-02 3.9350716471460345e-01
      7.3238006414015927e-02 1.0092512592000650e-02
      8.3277359446988913e-02 1.6328895004818286e-01
      2.0707428087836651e-02 -4.7219525139043671e-02
      2.7246537519345450e-02 5.3676303353198972e-02
      5.1774157098961354e-02 5.1460764940612018e-02
      -8.8955324250714340e-02 -5.4289514582378191e-02
      -6.8034060906585550e-02 -2.0415465249974252e-01
      4.8900128417294049e-03 6.6242331574833418e-02
      3.2331468446135096e-02 -4.8144070092678348e-02
      -7.0692159230939924e-02 1.2655523942445351e-01
      5.8325812502286137e-03 -2.3150046046139270e-02
      7.2173248446236973e-02 -3.6720119389369588e-02
      -3.5093944374041924e-02 -1.4042926953790724e-01
      3.8508847022587306e-02 3.9560190705770319e-02
      1.3077569302257691e-01 -8.7775778362387744e-02
      -2.7194549341065821e-03 6.9273561374683532e-02
      8.3572894148643925e-02 7.1422469207550854e-02
      -1.0678517816908710e-01 -5.5592384033407535e-02
      -7.3542955910479478e-03 1.1249864794423003e-01
      1.0178020389498806e-02 2.2137520339364884e-02
      9.9090527072789814e-02 -1.0748461605149759e-01
      2.7720332766632647e-02 -3.7708264513282384e-03
      -3.6004808564306968e-02 1.8049301963348401e-02
      -1.4127852824062653e-01 7.7343175577495357e-02
      -1.9217923301082854e-02 -2.3097117707023905e-02
      -5.2649761907666154e-02 -1.7116322712006294e-02
      9.2075168270117788e-02 4.6602760691251202e-02
      1.4496608682985662e-01 -5.8211876793961503e-02
      -1.3149388644324874e-02 -1.7697379475099136e-02
      -4.2862896414694882e-03 9.3812605924561795e-02
      6.4967888489736961e-02 2.7578245001686628e-02
      -2.1988672541978055e-01 -1.3144437138751874e-01
      -5.1280303555009593e-02 1.4876656945859570e-01
      -6.4496920885619036e-02 -2.4533209378072001e-02
      -1.2994032951503340e-01 6.7913072611038255e-04
      1.1599239850587437e+00 -1.5098839116446389e-01
      9.9060585629338005e-02 -2.0231487113563618e-01
      9.3361404178161259e-02 -4.4376929035510812e-02
      2.6864106503278022e-02 -1.4358631480902304e-01
      -1.0473224736993221e-01 7.2240910682427190e-02
      -2.0436740409682536e-02 6.0971888396877515e-03
      -1.8972009899203474e-02 4.2679539219785304e-02
      -9.3286841109870691e-02 5.3166601225509431e-02
      5.8972881564478462e-02 2.9228363072368632e-02
      1.2039040170601346e-01 -2.1982008145020319e-02
      6.4640743629094402e-02 -2.5737232056914562e-02
      -1.3227117529295831e-02 8.2343206783690739e-02
      -1.9172099730549973e-02 -1.3357920377227911e-01
      4.1885690434805729e-02 -6.9974599819553479e-02
      1.0301477522815676e-01 2.8545444245810109e-01
      -5.5991600280071517e-02 1.2298495033177539e-01
      2.3843049335176691e-01 -2.2960332251756515e-02
      1.4612136273506274e-02 -1.1415227408287469e-01
      1.4924874060311516e-01 -1.4573424703461062e-02
      9.3959305084022310e-02 8.7578111615148974e-02
      5.9735177782489636e-02 1.2986754307274062e-01
      2.5041803362696506e-02 2.7097963029441216e-02
      -3.4508957898420560e-02 -1.3770826377525999e-01
      3.0102872730220217e-02 -3.0858846352205292e-02
      1.6271560146731617e-01 -1.4645164741595534e-02
      -1.5432622510297533e-01 -5.0765722232238193e-02
      -6.4323927266867434e-02 1.4135077721954811e-01
      1.8331283400646974e-02 1.0708602659482723e-01
      -1.2371568458377498e-01 1.8024365484711885e-01
      -1.0699749622869753e-01 -8.2247855374106893e-02
      1.4274772720657106e-01 -2.7321047999363007e-02
      7.6865773013869945e-02 -7.9875437378209319e-02
      -3.2793112192597590e-01 -8.5593413256859652e-02
      -9.0235508526304603e-02 -1.2434304123390677e-01
      1.3885402797847500e-02 -5.2412356186456260e-02
      -4.9680125303132011e-02 2.6447012510176640e+00
      4.2992245571946003e-02 7.2379732902912733e-02
      -4.1931356630197904e-02 4.5102942047797939e-02
      -2.1816334254210982e-02 7.1855617363853166e-02
      5.4382683776757080e-03 -1.0129397114051137e-02
      -3.4976202875467481e-02 -1.2991827772113115e-01
      4.7006221476094887e-04 -7.4101324982759245e-02
      5.5606625597876665e-02 -1.4568524260341228e-01
      -7.8981454324264247e-02 2.7116809623653999e-02
      -4.9134728944381811e-02 2.7209873506990605e-02
      1.8321781369490446e-03 3.3565474134213825e-02
      1.4226147020112276e-01 3.8078516422086310e-02
      6.6808463690850611e-02 2.6073935298468842e-01
      -8.6460024227463059e-02 3.8445896890182837e-02
      -5.2296254143504662e-03 9.6941800189490515e-02
      6.8943544666684772e-02 -2.8315854892445196e-03
      -5.7200345054239467e-02 5.7738538970238139e-02
      4.5953725012480261e-02 6.7292704340933415e-02
      -2.3251105313880466e-01 -2.4698306576465205e-02
      -3.4794694273884985e-02 1.1375075726236203e-01
      -1.0489620084217806e-02 -2.7354206363148462e-02
      -1.9915065749048371e-02 1.2240478781539431e-01
      -3.7930995071471608e-02 -5.2375059157553805e-02
      -7.2589495464627604e-02 -2.7121612795553432e-02
      6.3399268993981212e-02 1.2520637443094162e-01
      1.0613903857534780e-01 1.6297836911930059e-02
      -1.6849289275037042e-02 6.8455304877655374e-02
      -7.6990907952962520e-03 9.2701201372430292e-03
      1.8783771053468103e-02 -1.5064322282091025e-01
      1.1578349513371800e-01 -8.8580861404070801e-02
      2.8731586985637152e-02 1.9450028409708338e-02
      9.7490570761716633e-02 -9.5535086707925265e-02
      -1.3980859163151394e-04 2.2665393041388236e-03
      6.8993191036598428e-02 1.3333852124504109e-02
      -9.7210304425619523e-02 7.1517521297836686e-02
      -1.4248107302972984e-01 -2.5539085693304351e-02
      1.1756636711939843e+00 1.3799539564705799e-02
      -5.7961647386169893e-02 2.1442665916178046e-02
      2.8397883520342473e-02 -6.7547126173297278e-02
      1.6632691119156103e-02 -1.3653415050494878e-02
      -5.9240047185942758e-02 8.6138167221940731e-02
      4.9297107572077582e-04 8.0188734350398558e-03
      9.4846120541244069e-02 5.3059794954579076e-02
      3.8732939591192776e-02 8.2821489924834284e-03
      -8.7588555301392187e-02 -5.3604489951141705e-02
      6.8564885451842611e-02 -1.4891042017191821e-02
      -4.6813825803260857e-02 5.5116510515257545e-02
      -5.7609419988814857e-03 -4.5553941950713557e-02
      -9.2848332514496104e-02 3.0403275408345691e-02
      -4.8743879994369667e-02 3.2234601732277594e-02
      8.8489908681463836e-02 1.8370910576230009e-02
      4.3225158408152060e-02 -5.2547245235193149e-02
      -8.3545764635763586e-03 -1.9631631828184087e-02
      3.9678289140307833e-02 1.4346962388057119e-01
      -6.1220019094544470e-02 -2.5753961380944743e-02
      1.3212631548730397e-02 -4.1385715245948237e-02
